2708 100
35 0.029061 0.347821 -0.015176 -0.280656 0.616866 -0.668094 0.449358 -0.412788 0.405511 -0.010306 0.052090 -0.220047 -0.130670 -0.069249 0.184143 -0.658397 -0.195403 -0.774046 -0.068811 0.124114 -0.308303 -0.045132 0.162545 -0.254424 -0.503696 0.379762 -0.119185 -0.022206 0.282772 0.620271 0.283415 0.481681 -0.155002 -0.437267 0.186296 0.193717 -0.090775 0.312288 0.178558 -0.023132 -0.081458 -0.167646 0.461290 0.618242 0.166627 0.020844 0.645388 -0.699171 0.453764 0.238931 -0.047523 0.153237 0.351921 -0.118238 -0.573464 0.137775 -0.105630 -0.050664 0.402070 0.284924 -0.243583 -0.392856 0.404962 -0.021366 0.178793 -0.064237 -0.422192 -0.007111 0.209644 0.191619 0.034951 0.513486 0.064322 -0.297385 0.114609 -0.425987 0.418387 0.176223 -0.467110 0.198178 -0.639931 -0.069957 0.584540 -0.044609 -0.076591 -0.597269 0.053951 0.167722 0.034043 -0.007683 -0.091190 0.591526 -0.114130 -0.633192 0.191975 0.251177 -0.081694 -0.372584 -0.106961 -0.608407
1365 0.316786 0.148493 -0.186775 -0.478353 0.319080 -0.450548 -0.308228 -0.581964 0.230195 -0.161142 -0.393787 0.520765 -0.104921 0.481930 0.365918 -0.090925 -0.401945 -0.694462 -0.271782 0.031593 -0.786597 0.108211 -0.035778 -0.267221 -0.180929 0.320445 0.525353 0.416928 0.169349 0.530542 -0.089445 -0.469508 0.273646 -0.397374 0.204467 -0.561849 0.219740 0.686104 -0.681046 0.022382 -0.119099 0.096085 -0.249948 -0.105480 0.314623 0.208045 0.823183 -0.102494 0.473575 0.034706 0.193783 -0.445078 0.071118 -0.065458 -0.208045 0.832745 -0.328874 -0.103282 0.396690 0.539341 -0.670280 0.011865 -0.389061 -0.565118 0.328128 0.315381 0.597407 -0.531729 -0.246810 0.699698 -0.505815 0.162975 -0.211678 0.111405 -0.563595 -0.579686 -0.038867 0.398265 0.246474 0.129294 0.183882 -0.007746 -0.334873 0.141429 0.205801 0.144644 0.369866 0.049633 -0.263078 0.044766 -0.622380 -0.487996 -0.213056 0.435674 -0.150039 0.540225 0.053003 -0.658352 0.168346 -0.899550
6213 0.556550 0.650929 0.206672 -0.205323 0.758105 -0.365893 0.388167 -0.157152 0.066946 -0.294962 -0.264719 -0.287386 -0.596114 -0.144779 0.045875 -0.484680 -0.648792 -0.541981 -0.010450 0.280273 -0.241704 -0.092857 0.824019 -0.669615 0.187826 0.546758 0.144880 0.492528 0.504305 0.354048 0.059086 -0.428635 0.495872 -0.651460 0.161594 0.493819 -0.108476 0.073680 -0.145963 0.067557 -0.474223 -0.397968 0.396560 -0.330240 -0.247564 0.465117 0.146358 -0.501254 0.247652 -0.335554 -0.435230 0.008807 0.676054 -0.186783 0.010287 0.277604 -0.366181 0.019264 -0.024988 -0.098005 -0.218741 0.039123 -0.444586 -0.378933 0.107477 0.376572 -0.151138 -0.507845 -0.108751 0.135157 0.069876 0.209290 0.291468 -0.242248 0.104497 -0.223479 -0.084261 -0.020298 -0.052669 -0.419152 -0.085076 0.212465 0.183394 -0.074873 -0.364690 0.442568 0.462558 -0.377847 -0.834843 -0.217355 -0.048142 -0.047953 -0.426563 -0.195392 -0.449693 0.532567 -0.183511 -0.811716 -0.281946 -0.228075
3229 0.159710 0.173904 -0.534751 0.107324 0.261641 -0.488025 0.511858 -0.230058 0.230994 -0.844784 0.003869 0.042073 0.045080 -0.186502 0.157440 -0.327825 0.070299 -0.664247 -0.196031 -0.230890 -0.711062 0.362655 -0.032591 -0.336809 -0.391078 0.523516 0.466947 -0.435057 0.620479 -0.112927 -0.274415 -0.214156 0.443521 -0.686650 0.561082 -0.133040 0.079094 0.670738 -0.094538 -0.136041 0.066483 -0.217259 -0.114747 0.138449 -0.374252 0.223081 0.814353 -0.041187 0.180259 0.197078 0.068355 -0.898846 0.284470 0.251188 -0.196051 -0.036917 -0.812811 -0.325630 0.409019 -0.104065 -0.116782 -0.634361 -0.434459 -0.129134 0.451127 0.043185 0.339413 -0.727671 -0.800117 0.008188 -0.126069 0.057351 -0.344567 -0.129050 0.383354 -0.291928 0.114721 0.485269 -0.076547 0.122439 -0.093192 -0.025885 -0.199500 -0.608311 0.523332 0.330471 -0.091615 -0.135166 -0.484736 -0.008639 0.021437 -0.233609 -0.379088 0.196216 -0.016463 0.178956 -0.105184 -0.241616 0.860271 -0.613108
910 -0.057021 0.292747 -0.471317 0.019803 0.409823 -0.236649 -0.482100 -0.317819 0.225093 -0.786639 0.195674 -0.524431 -0.196621 -0.062575 -0.317411 -0.143442 -0.460622 -0.482562 -0.696620 -0.070931 -0.546163 0.089411 0.076619 -0.052121 -0.624605 0.511597 0.488076 -0.390253 0.333044 -0.067646 0.105127 -0.647750 -0.196843 -0.650567 -0.105811 0.551729 -0.348746 0.201997 -0.025905 0.032361 -0.435103 -0.136928 0.292867 -0.068965 0.339596 0.542795 0.292706 -0.196046 0.299775 0.138933 -0.487276 -0.937432 0.085984 -0.061990 -0.066496 0.246323 -0.277805 -0.141125 0.181753 0.442252 -0.735986 -0.865177 -0.035159 -0.200740 -0.223549 0.140306 1.304897 0.088039 -0.165392 0.597025 -0.349913 0.394601 0.228393 -0.293504 -0.108267 -0.542250 -0.480509 0.272545 0.247257 -0.052289 0.281460 -0.259517 0.671604 -0.153319 -0.200712 -0.174875 0.302929 0.345962 -0.225115 0.024837 -0.068186 -0.208101 -0.288040 0.154290 -0.019752 0.540565 -0.415790 0.177573 0.191060 -0.025519
4330 0.449709 0.239398 0.404105 0.144521 0.128611 -0.458692 0.517685 -0.303564 -0.211911 -0.392218 0.260046 0.027379 0.227821 0.302559 0.336217 -0.430374 -0.389084 -0.380935 -0.928019 0.321968 -0.559759 -0.405655 -0.130678 -0.660018 -0.311404 0.176392 0.491169 -0.218827 -0.461042 0.077864 -0.357090 -0.670701 0.013043 -0.227067 0.553338 0.415553 0.503136 0.437630 -0.033304 -0.069662 -0.312917 0.045324 0.133376 0.055379 0.229496 0.030435 0.712952 -0.440681 0.216797 -0.132011 -0.095909 -0.579557 -0.035301 0.202262 0.049340 -0.181011 -0.471433 -0.240049 0.284235 0.089746 0.103361 -0.146496 -0.422385 0.011766 0.228335 0.610532 0.548817 0.133896 -0.110608 0.176495 0.308969 0.387992 0.164128 -0.523588 0.510450 -0.451212 -0.155133 0.244910 0.188847 -0.138236 0.504992 0.478074 0.493231 -0.394233 0.327425 -0.115319 0.395188 0.197020 -0.878300 -0.243048 -0.722360 0.242294 -0.330407 0.188339 -0.338454 -0.165997 0.032287 -0.714377 0.463460 0.171344
114 0.648277 0.525085 -0.188585 -0.582005 0.703451 -0.438739 -0.040376 -0.536748 0.270934 0.016834 -0.254657 -0.376422 -0.635809 0.392366 0.356808 -0.025034 -0.319040 -0.526880 -0.691693 -0.105817 0.229723 0.287765 0.517310 -0.406603 -0.031789 0.167514 0.526651 -0.554323 0.259800 0.151364 0.035732 -0.542747 0.694842 -0.783881 0.547789 0.294602 0.301874 0.157993 -0.034829 0.402518 -0.168450 -0.090615 0.800917 -0.761371 0.204679 0.668907 -0.262641 -0.611819 0.400356 0.080891 -0.240276 -0.081694 0.399147 -0.458522 0.409167 0.498376 -0.130709 0.067603 -0.138614 0.333425 0.063491 0.267672 -0.350897 -0.374244 0.039753 0.487149 0.084169 0.136526 -0.815664 0.169809 0.001099 0.213885 0.065822 0.000010 -0.239986 -0.316221 0.251820 0.201707 -0.047737 0.406614 -0.367407 0.100261 -0.097501 -0.457117 0.028182 0.690237 -0.267534 -0.181842 -0.591682 0.127569 -0.539837 0.209507 0.074634 -0.052916 -0.465643 0.543898 -0.555303 -0.950038 -0.772920 -0.525696
3231 -0.442449 0.930039 -0.434816 0.203826 0.250158 -0.520415 -0.053907 -0.564533 -0.036034 0.229201 0.442960 -0.127666 -0.668106 -0.162520 0.133036 0.143971 0.318554 -0.602919 -0.281229 -0.250681 -0.242564 -0.246340 0.603909 -0.603687 -0.003451 0.466924 0.128973 -0.201730 0.398372 0.278411 -0.302613 -0.257160 0.534348 -0.431074 0.251747 0.371310 0.590941 0.708979 -0.014614 0.641646 -0.151702 -0.101780 0.097181 -0.218052 0.856904 -0.041458 0.862301 -0.311710 0.164207 0.231750 0.185836 -0.195685 0.220510 -0.004505 0.422191 0.402460 -0.246199 0.230501 0.205143 -0.092044 -0.612842 0.352321 -0.068389 -0.179979 -0.292781 0.168674 0.314175 0.228230 0.053093 -0.170949 0.478003 -0.021075 0.397410 -0.263713 0.191711 0.020023 0.063200 -0.097946 -0.286595 -0.011435 -0.127227 -0.100838 0.429367 -0.248236 -0.121018 -0.659055 -0.754301 0.563999 -0.651961 0.137342 -0.013707 0.463148 -0.820021 -0.196246 -0.009513 0.165506 -0.252643 -0.201168 0.397528 0.276324
19621 0.239517 -0.174873 -0.588886 -0.255580 0.173978 -0.587913 0.422827 -0.588455 0.005942 -0.315292 -0.138085 0.005218 -0.074918 0.046090 0.144832 -0.112808 -0.193100 -0.862938 -0.431723 0.483823 -1.140943 0.599118 0.933224 -0.501965 -0.061430 0.399094 0.958248 -0.076995 0.310910 0.742401 0.179084 -0.223923 0.386403 -0.762925 0.255526 -0.167800 -0.070002 0.746463 -0.542658 0.014615 -0.099174 0.295836 0.019763 0.288435 0.406279 0.362145 0.574553 -0.309730 0.175476 0.286985 -0.355982 -0.640792 -0.071799 -0.012515 0.558471 0.215998 0.178259 -0.145603 0.225285 -0.249563 -0.351813 -0.473186 -0.404714 -0.167397 -0.062796 -0.235871 0.569131 -0.611581 0.252060 0.567429 0.265489 0.148703 0.355027 0.257539 0.196319 -0.743310 -0.287144 0.538115 0.098771 -0.105694 -0.074166 0.091096 -0.189714 0.420024 0.260526 0.178804 -0.145595 0.139867 -0.393768 -0.257054 0.058189 -0.033203 0.591990 0.301203 0.253565 -0.039506 0.041080 -0.163265 0.235622 -0.474951
1272 0.303750 0.648021 -0.112996 0.190346 0.007596 -0.139631 -0.244959 -0.062343 0.439418 -0.114739 -0.579318 0.436322 -0.980219 -0.289576 -0.057030 0.340073 0.233584 -0.132200 0.017293 0.296473 -0.344290 -0.144284 0.230157 -0.280468 -0.462987 -0.241910 0.654038 -0.088407 -0.107375 0.351776 0.043198 -0.148088 0.311352 -0.570024 0.381491 0.004170 0.110503 0.475359 -0.608724 -0.100322 -0.212296 -0.118581 -0.400439 -0.162007 0.390712 0.400559 0.507729 -0.335091 0.281235 0.093368 0.716277 -0.147528 0.698859 0.153444 0.271920 0.439097 -0.452395 0.285135 -0.024469 0.264302 -0.345922 -0.154844 0.150281 -0.179883 -0.040348 0.050236 -0.308535 0.160725 -0.529113 0.214211 0.426787 -0.200402 0.357291 0.214510 0.039586 -0.718351 0.639548 0.030112 0.140190 -0.033386 -0.271107 0.263405 0.531258 -0.156394 -0.204013 0.056925 -0.344582 0.451838 -0.262208 -0.296593 0.244171 -0.036354 -0.870179 0.030947 -0.503936 0.294830 0.282661 -0.661074 0.304770 -0.061017
24966 -0.415323 0.261786 0.054610 0.544291 0.434340 -0.838292 -0.024956 -0.044856 0.308371 -0.037406 -0.207372 0.055118 -0.428668 -0.115649 -0.269887 -0.026821 -0.516575 -0.510665 -0.683649 -0.298783 -0.137235 0.135756 -0.110376 -0.321048 -0.176517 0.204832 0.588483 0.116097 0.191703 0.245365 -0.031786 -0.701071 0.317684 -0.429321 0.331185 0.199833 -0.092399 0.676970 0.252049 -0.542687 -0.216387 -0.221959 0.412334 -0.319994 0.718114 0.230234 0.743814 -0.153868 -0.266732 0.033552 -0.004713 -0.526272 0.230859 -0.044666 -0.076259 -0.111807 -0.060977 -0.437110 0.461447 0.038298 0.148517 -0.400070 0.123548 -1.018516 -0.474933 -0.056584 0.463633 -0.209220 0.532193 -0.284363 -0.591776 0.180331 0.471764 -0.158646 -0.144602 -0.235076 0.164913 0.472630 0.505417 -0.245558 -0.132886 -0.623796 0.414139 -0.124747 0.187141 -0.005331 0.062408 0.118090 -0.940739 0.327084 -0.249805 0.017862 -0.386681 0.125385 0.117174 -0.001257 -0.485539 -0.446012 0.515424 -0.128913
4584 0.826482 0.564083 -0.186607 -0.464353 0.031738 -0.574256 0.268566 0.111587 0.271243 -0.448944 -0.454060 -0.110630 -0.476200 0.003887 0.303321 -0.384840 -0.334185 -0.217493 -0.539514 0.363045 -0.319778 -0.275809 0.471461 -0.508360 -0.022798 0.044982 0.466487 -0.219247 0.108660 0.439209 0.560528 -0.333470 0.822433 -0.744948 0.320903 0.442856 -0.007623 0.242983 -0.053932 0.319216 -0.298912 -0.266213 -0.065531 -0.360742 0.160992 0.352117 0.522041 -0.424674 0.419860 -0.397909 0.165572 -0.512935 0.139986 -0.543118 -0.199492 0.604637 -0.351095 0.281877 0.453052 0.270544 -0.040017 -0.080501 0.380789 -0.279589 0.387831 0.377919 0.538562 -0.469686 -0.503734 0.339297 0.005420 0.162549 0.014275 -0.034789 -0.124058 -0.473090 0.090559 0.059911 0.411571 0.109592 -0.248123 0.335403 0.136879 -0.350451 0.352093 0.550456 0.242924 0.017919 -0.088642 0.033141 -0.094491 0.282389 -0.221636 -0.185333 -0.497084 0.593729 0.200272 -0.457411 -0.088282 -0.436672
6214 0.849546 0.681530 -0.214426 -0.337384 0.132405 -0.145706 0.203570 -0.095875 0.193457 -0.253754 -0.851897 0.014255 -0.428899 -0.207492 0.242829 0.174816 -0.194742 -0.543909 -0.281965 0.092188 -0.211205 -0.449480 0.471837 -0.420167 -0.107565 0.535227 0.305677 -0.680889 0.180576 0.328856 -0.100768 -0.274780 0.371808 -0.645163 -0.296378 0.259208 -0.046456 0.175564 -0.191592 0.904726 0.106279 0.371954 0.340752 -0.183311 -0.137112 0.570001 0.305617 -0.377480 0.173365 -0.283764 -0.089704 -0.296759 0.607309 -0.054916 0.061499 -0.071799 -0.399582 -0.130901 0.157622 0.095784 0.045178 0.280104 0.293171 -0.275704 0.206850 0.758122 0.555055 -0.597227 0.212386 0.631275 0.258252 0.307786 0.547047 0.131350 -0.298786 -0.254914 0.020248 0.111659 -0.073432 0.114475 -0.345623 0.436228 -0.126375 0.223849 0.142151 0.779297 0.321902 0.296295 -0.528676 -0.335376 -0.145364 -0.117392 -0.312357 0.117392 -0.137252 0.748541 -0.113992 -1.161067 0.135477 -0.431307
2440 0.612196 0.115482 0.610018 0.050717 0.443841 0.348723 0.018445 0.027461 0.418128 -0.329714 -0.433735 0.332454 -1.335573 0.099478 0.335160 -0.231693 0.232837 -0.696409 0.158487 0.351398 -0.439287 0.024083 0.139252 0.092042 -0.024970 -0.138725 0.156852 -0.240976 0.228022 0.271212 -0.067912 -0.238141 0.070413 -0.365407 0.724672 -0.124283 0.030348 0.722755 0.084647 0.588663 0.346529 -0.207755 -0.312671 0.129397 0.488786 -0.053887 0.823904 -0.553099 -0.411762 -0.338753 0.115157 -0.072603 0.273644 0.713846 0.036157 0.057705 -0.359050 0.148213 0.308061 0.042380 0.008149 -0.070871 0.012404 -1.012498 -0.391481 0.211623 0.213009 0.557288 -0.209316 0.099897 -0.230142 0.172944 0.291428 -0.196023 -0.089770 -0.772506 0.254258 -0.500918 0.297891 0.490939 -0.361990 0.158950 0.001408 -0.261704 -0.502073 -0.575776 0.141099 0.303521 -0.782128 0.147270 0.094447 -0.087488 -0.611884 -0.141035 -0.394008 0.701704 -0.291457 -0.820768 -0.443305 0.083948
2665 -0.147791 0.235603 0.402134 -0.537511 0.226745 0.317864 0.382915 0.218782 0.525786 -0.402148 -0.058180 0.037613 -0.207116 -0.159610 -0.608428 -0.211719 -0.247797 -0.684087 -0.748748 0.019643 -0.876328 0.278310 0.250972 -0.531198 0.212201 0.313236 0.270335 -0.354595 0.396478 0.904858 -0.362203 0.239621 0.597979 -0.411108 -0.189724 0.272417 0.213879 1.258663 -0.423815 -0.148139 0.003840 -0.427743 0.161755 -0.455545 0.469480 -0.238400 0.143492 -0.216582 0.286555 0.732938 0.086398 -0.725256 -0.397752 0.049258 0.265161 0.199094 0.161819 -0.497895 0.033558 0.284703 -0.769326 -0.510608 0.230064 -0.979928 0.061308 0.254706 0.285430 -0.426248 -0.134599 0.033727 -0.196490 0.048389 0.241363 0.116548 -0.027009 -0.801808 0.165034 1.039261 0.369080 0.159471 -0.172200 -0.076981 -0.091062 0.120244 -0.268790 -0.010937 0.582948 -0.034791 -0.217829 -0.408837 -0.217160 -0.344586 0.317887 0.843540 -0.178612 0.142008 -0.118092 -0.775387 0.198687 0.088390
887 0.135454 0.718394 -0.080797 -0.467807 0.773990 0.058405 0.509835 -0.413889 0.069075 -0.374253 -0.281723 0.228031 -0.342108 0.000788 0.637656 -0.025379 -0.102136 -0.015179 -0.381367 0.217822 0.274180 -0.184678 -0.067076 -0.482757 -0.024711 0.517180 0.003354 0.160697 0.371098 0.205899 0.277574 0.393096 0.454340 -0.789966 0.383005 0.693920 -0.145989 -0.077368 -0.044746 0.233524 -0.042378 0.033748 0.200849 0.091210 -0.072062 0.456638 0.500030 -0.655306 0.176480 0.029587 -0.451364 0.090510 0.715564 -0.090063 -0.514798 0.274477 -0.028491 0.184898 0.044460 0.045500 -0.012018 -0.253478 -0.366686 -0.003259 0.173622 0.113739 -0.487261 -0.561396 0.107964 0.042854 -0.398340 0.041118 0.058500 -0.079219 0.216346 -0.155271 -0.103395 0.015847 0.011905 0.196245 -0.143609 0.450395 0.353129 -0.015589 -0.363500 -0.213201 0.482332 -0.259151 -0.944714 -0.333488 0.310261 -0.009615 -0.543598 -0.240545 -0.010826 0.609606 -0.170431 -0.703637 -0.116534 -0.164928
8224 0.129073 0.492839 0.249403 0.410322 0.467505 -0.162324 0.268170 -0.309626 0.026792 -0.327292 -0.479302 -0.006414 -0.803462 -0.183610 0.546371 0.476928 0.318931 -1.059689 -0.234413 -0.181167 -0.142982 -0.240774 0.210121 -0.561614 -0.079114 0.037064 0.381180 -0.742789 -0.452679 0.266596 0.028364 0.142179 0.092571 -0.350309 0.321763 -0.281150 -0.158010 0.657543 0.216135 0.170411 0.110170 -0.101682 -0.628525 0.116024 0.073421 -0.354231 0.421258 -0.194441 -0.147102 -0.023232 0.317624 -0.375205 0.569950 0.014637 0.451715 0.395921 -0.526017 0.105181 -0.418776 0.211444 -0.051252 -0.414044 -0.931359 -0.334684 -0.107032 -0.313978 0.585886 -0.196546 0.005605 -0.016992 0.381031 0.151824 0.213108 -0.243304 -0.102790 -0.242613 0.547050 -0.180582 0.146367 -0.067425 -0.311918 0.160574 0.692674 0.116223 -0.260421 -0.228788 -0.156786 0.491448 -0.787935 -0.049248 -0.118666 -0.400133 -0.804511 -0.043389 0.089277 0.335736 -0.135023 -0.594176 -0.128745 -0.169520
20193 -0.383852 0.164064 -0.193314 -0.273062 0.474911 -0.465199 -0.524059 -0.233966 0.059985 -0.422240 -0.504166 -0.035384 -0.805622 0.195481 0.798103 -0.479865 -0.344490 -0.931510 -0.100555 0.034674 -0.307472 0.117194 -0.084771 -0.183692 -0.245942 0.204220 0.526689 -0.874333 -0.048252 0.788882 -0.135648 -0.188416 -0.100409 0.025626 -0.073407 0.491949 0.458108 0.469236 -0.526773 0.478262 -0.030208 0.424490 -0.124190 0.209664 0.030126 -0.111477 0.026264 -0.472469 0.335904 0.650709 -0.009728 0.091075 0.453909 0.373503 0.393460 0.319346 -0.478522 0.373831 -0.470501 0.255097 -0.021559 -0.336781 -0.630868 -1.110827 -0.500544 0.758310 -0.186148 0.380609 0.453900 0.163842 0.195110 -0.074291 0.396319 0.289470 0.362727 -0.095544 -0.256756 0.562646 -0.043495 0.352496 -0.018415 -0.596124 0.397943 -0.632619 -0.107169 -0.547398 -0.163418 0.424277 -1.198719 -0.713852 0.035829 0.064667 -0.317431 0.226754 0.117002 0.176152 -0.457241 -0.860216 -0.296030 -0.338655
12182 -0.179225 0.149775 -0.029335 -0.041224 -0.297389 0.337117 0.383493 -0.405015 0.557855 0.318176 -0.509768 -0.293648 -0.565865 -0.271152 -0.539277 0.011093 -0.191608 -0.498706 -0.666937 -0.062252 0.069905 0.079970 0.032541 -0.405364 -0.296457 0.146788 0.491027 -0.158036 0.409720 0.544549 0.029635 0.247875 -0.557998 0.184273 0.344024 0.170630 0.021472 0.525374 -0.177356 -0.057400 -0.023544 -0.441634 -0.533145 -0.167694 0.152259 0.467453 0.586888 0.202960 0.493095 0.194778 -0.432699 -0.055873 0.413777 0.017546 -0.208205 -0.524036 -0.302359 0.484151 0.021271 -0.023158 -0.032128 0.133092 -0.561576 -0.627909 -0.262028 -0.283564 0.186681 -0.391904 0.128474 0.200074 0.019342 0.232374 0.977789 -0.570177 0.417480 -0.638886 0.388744 0.271894 0.117907 0.562669 -0.601606 -0.395449 0.500853 -0.074921 0.095871 -0.009508 0.279292 0.169158 -0.534778 -0.198321 0.513779 -0.429937 -0.661889 0.522143 -0.608036 0.124015 -0.390651 -1.217616 -0.059076 -0.319434
82920 -0.241609 0.338536 0.127094 0.038526 0.491360 -0.441538 0.460894 -0.710344 0.027674 0.191174 -0.063954 0.101300 -1.061234 0.006977 0.588630 -0.352368 -0.307002 -0.694687 -0.063769 0.389155 -0.058855 0.429848 0.104977 0.304063 -0.420364 0.389304 -0.153847 -0.179654 -0.092369 0.358196 0.040683 0.158660 -0.061955 -0.463147 0.609091 0.351326 -0.251247 0.220780 -0.032521 -0.085534 -0.215262 -0.238621 0.255354 0.779381 0.558233 -0.704414 1.146145 -0.853631 0.400658 0.896992 -0.142063 0.123823 0.185469 -0.637466 -0.117752 0.509106 0.020287 0.299835 0.334095 0.047793 0.010973 -0.282025 0.314145 -0.133005 0.349073 -0.176844 0.200909 -0.021248 -0.295012 0.180776 0.006872 0.618079 0.479308 -0.222201 -0.047756 -0.459935 0.191645 0.573864 -0.390071 0.622433 -0.214477 -0.171745 0.878275 -0.158596 -0.607238 -0.921375 0.268802 -0.199433 -0.374598 -0.335885 0.095111 0.139422 -0.217266 -0.132163 -0.209735 -0.172924 0.165022 -0.328358 0.105927 -0.508455
22563 0.551150 0.251844 0.478797 0.755217 0.498781 -0.279986 -0.359647 0.098243 0.150107 -0.321941 -0.055555 -0.201191 -0.391689 -0.444800 0.008129 0.085072 -0.481292 -0.477415 0.148958 0.175934 -0.577789 -0.097485 -0.094132 -0.274674 -0.464143 0.653575 0.364110 -0.620924 0.112970 0.396302 -0.264321 0.062217 -0.037153 -0.687056 0.134432 -0.207509 -0.341543 0.478288 -0.372633 0.164211 -0.078777 -0.131166 0.227174 0.158422 0.416055 -0.039818 0.348642 -0.194416 0.265979 0.724566 0.428986 -0.523882 0.578787 -0.125917 -0.051286 0.202356 -0.375751 0.138742 0.111695 0.215800 0.171628 -0.087031 -0.890789 -0.123964 -0.283046 -0.201544 0.175154 0.053320 0.162596 -0.061596 0.417848 -0.140381 0.144097 -0.215883 0.222769 -0.757619 0.446184 -0.562391 0.270339 -0.329270 -0.520567 0.419578 0.307397 0.156806 -0.019533 0.178750 0.091137 0.626794 -0.537148 -0.178458 -0.342390 -0.362072 -0.389085 -0.368341 -0.453152 -0.211469 -0.488755 -0.467281 -0.299657 -0.134558
10169 -0.343689 0.513680 -0.277360 0.098543 -0.096640 -0.751287 -0.211930 -0.313272 -0.069581 0.015929 -0.135217 0.080139 -0.739470 -0.213286 -0.176529 -0.257949 0.117602 -0.613413 -0.237234 -0.339776 -0.563829 -0.245292 0.118970 -0.488667 -0.271463 0.082715 0.421504 -0.212290 0.066136 0.524161 -0.175128 0.092910 0.640871 -0.373663 0.179151 0.247020 0.828970 0.946826 -0.049505 0.489177 0.068282 0.131515 0.083994 -0.200986 0.891368 0.491060 0.453782 -0.105453 0.588641 -0.010718 0.548745 0.345118 0.075693 -0.124004 -0.095223 0.267076 -0.595061 0.280771 -0.015523 0.095693 -0.485232 0.120274 -0.130777 -0.456117 -0.059036 -0.043292 -0.066791 -0.114726 -0.250353 0.396794 0.661902 0.105028 0.555000 -0.170305 0.494792 -0.036546 0.191235 0.077335 0.044433 0.008929 -0.654398 -0.025084 0.421714 -0.601140 -0.173065 -0.580866 -0.702442 0.391002 -0.554206 0.339318 0.259410 0.179855 -0.467199 0.297095 -0.227005 0.189446 -0.367919 -0.470993 0.588633 0.190047
12350 0.034972 0.185973 0.134896 0.175096 0.125394 0.039476 -0.074754 0.408936 -0.201561 -0.011895 -0.315372 -0.200871 -0.544807 -0.260415 -0.051496 0.053291 -0.234782 -0.115540 -0.311616 0.068268 -0.178552 0.165876 0.261304 0.141587 -0.620648 0.265073 0.144514 -0.297078 -0.260977 0.474839 0.181344 0.243208 -0.327881 -0.242795 0.740357 -0.051361 0.083428 0.497458 -0.401234 0.009582 -0.290788 0.217643 0.216008 0.187503 0.445703 0.327384 0.333890 -0.320427 0.260485 0.006222 0.173148 0.093383 0.391374 -0.327875 0.213950 -0.097331 -0.490357 0.564899 0.276720 0.151220 -0.011081 0.162841 -0.119982 -0.617287 0.064257 -0.698279 0.452206 0.092110 -0.327292 1.032570 0.148522 0.554915 0.518228 -0.637649 0.309945 -0.531634 0.531194 0.645098 0.022294 0.500838 -0.333693 -0.181475 0.688779 -0.523995 -0.408078 -0.400963 -0.024236 -0.064762 -0.586174 -0.013528 0.416063 -0.515738 -0.553734 0.252575 -0.630163 -0.164768 -0.313681 -1.301554 0.138556 -0.210488
8703 -0.261874 0.733960 0.042849 0.411426 0.294052 -0.315453 -0.200391 -0.093142 -0.219398 -0.780697 -0.520687 0.222753 -0.904933 -0.260466 -0.148393 -0.316193 0.342089 -0.534840 -0.048952 0.355107 -0.055276 0.241943 -0.022056 -0.685989 -0.273405 0.094763 -0.019611 -0.159818 0.503175 0.760116 -0.055481 -0.133138 0.245133 -0.222213 -0.553048 0.245629 -0.154297 0.160505 -0.003292 0.400095 -0.335532 0.188835 -0.038744 -0.461613 0.190174 -0.330878 -0.160122 -0.534801 0.505943 0.262925 -0.127328 -0.336497 0.630236 0.109755 0.325552 0.753571 -0.402308 0.052722 0.239102 0.644560 -0.349372 0.292151 -0.507885 -0.575579 -0.105005 0.049199 -0.176365 0.063397 -0.184168 0.347431 0.178247 0.039592 0.646728 -0.260026 0.198538 -0.672330 -0.006688 -0.229826 0.212030 0.030953 -0.320032 0.243403 0.252466 -0.364957 -0.109090 -0.206850 -0.175739 0.411220 -1.227277 -0.384267 -0.442165 -0.062203 -0.334313 -0.270488 -0.711571 0.349132 -0.680843 -0.373269 -0.323024 -0.516760
12576 0.141920 0.735065 0.003413 -0.350497 0.323521 -0.747832 0.264312 -0.455960 0.181143 -0.546932 -0.252367 0.117700 -0.398861 0.409366 0.514002 -0.467035 0.030809 -0.639886 -0.636691 0.441554 -0.167315 -0.316427 0.204019 -0.529611 -0.173768 0.596268 -0.350769 -0.495724 0.538260 0.387129 0.336331 0.554233 0.404590 -0.526713 0.176033 0.596723 0.021723 -0.282939 -0.024361 0.148347 -0.234386 -0.311219 0.491558 0.011958 0.344424 -0.029802 0.477194 -0.441920 0.712087 -0.040954 -0.595919 0.488403 0.412003 -0.189658 -0.295821 0.331658 -0.288896 -0.020453 -0.065737 -0.201289 -0.187053 -0.476443 -0.185845 -0.370107 0.258099 -0.081176 -0.204373 -0.204637 -0.042429 0.213386 0.356372 0.843239 0.044289 0.120442 0.415404 -0.093021 -0.131918 0.027991 -0.467348 -0.179309 -0.067186 -0.083389 0.621874 -0.110443 -0.613916 0.122226 -0.096132 -0.100484 -0.324277 0.188900 0.307241 0.259369 0.036605 -0.580091 -0.047029 0.525095 -0.012828 -0.826874 -0.148277 -0.624217
31353 0.235063 0.577589 0.207572 0.055789 0.060523 0.022338 0.269325 -0.149458 -0.552233 0.081781 0.549051 -0.682138 -0.542456 0.163654 0.038385 -0.127169 -0.179346 -0.505010 -0.671097 0.062616 -0.237200 0.239326 -0.049414 0.118503 -0.327141 0.697819 0.798112 -0.540922 0.772386 -0.070574 0.294303 0.083414 0.114351 -0.248736 0.259059 0.488272 0.028817 0.627999 -0.349784 -0.412669 0.313993 0.094302 0.380790 -0.174631 0.392604 -0.076609 0.435832 0.174246 0.223586 0.415402 -0.156527 -0.662590 0.532738 -0.382981 0.428334 -0.082303 -0.201918 -0.412800 0.037975 0.079525 0.012178 -0.216593 0.554719 -0.783482 -0.207586 -0.171524 0.588302 -0.503247 -0.028118 0.274363 -0.122187 0.487812 0.273894 -0.220342 0.097293 -0.443126 0.894433 0.733667 0.304979 0.424465 0.099769 -0.790685 0.522890 0.105646 0.525045 0.275059 0.054370 0.143606 -0.850441 0.431644 0.145242 -0.063426 -1.059649 0.347916 -0.741211 0.188345 -0.698395 -0.322537 0.462662 -0.410358
15429 -0.209273 0.190532 -0.067224 0.468216 -0.170195 -0.703872 -0.147753 -0.081650 0.339745 0.228844 -0.878852 -0.133584 -0.475833 -0.164261 -0.385748 -0.192331 0.220379 -0.516053 -0.470629 0.010340 0.039354 -0.188604 0.113040 -0.358672 -0.322145 0.309379 0.215535 -0.024932 0.210959 0.599722 0.055892 0.117413 0.005400 -0.160832 0.499002 -0.025982 0.162459 0.709931 -0.232316 -0.007363 -0.167526 -0.252542 0.527738 -0.207752 0.746173 0.231564 0.390339 -0.245989 0.586635 0.155414 -0.177369 0.290752 0.456656 -0.184849 -0.237812 0.096137 -0.754699 0.423230 -0.308824 -0.018070 -0.356388 0.170906 -0.158278 -0.872808 0.004584 -0.318444 0.196344 -0.166100 -0.175573 0.647486 0.044597 0.571066 0.435169 -0.423943 0.556876 0.105146 0.307500 0.047946 0.094951 0.427439 -0.791008 -0.198929 0.579112 -0.815292 -0.410809 -0.341123 -0.277350 -0.051578 -0.872128 0.422483 0.377699 -0.665411 -0.050723 0.145348 -0.242490 0.073875 -0.629758 -0.939270 0.021675 0.208444
3220 0.043726 0.250833 0.017177 0.573975 0.756909 0.097728 0.023585 0.164843 0.081447 0.311729 0.137314 -0.412791 -0.395845 -0.035769 0.084095 0.056272 0.092967 -0.674431 -0.177912 -0.057385 -0.306784 0.067813 -0.214972 -0.829935 0.134764 0.952217 0.712786 -0.807304 0.173246 0.124139 0.061240 -0.136488 0.631253 -0.503675 -0.134900 0.071866 0.058088 0.865333 -0.470540 0.514313 0.289102 -0.106194 0.380239 0.113844 0.478002 -0.356475 0.195206 0.126992 0.348945 0.592609 0.333084 -0.194762 0.563931 0.203100 0.164118 0.190547 -0.537378 -0.091030 0.059994 0.350131 0.022515 -0.014101 -0.740458 -0.227633 -0.249356 0.195140 0.089578 0.081303 -0.191596 -0.251562 1.018669 0.426641 0.563862 -0.090902 -0.240082 -0.732239 0.502410 -0.189420 0.277440 -0.034533 -0.270141 0.139964 0.310077 0.170483 0.337143 0.114192 -0.065869 0.564020 -0.844289 0.594300 -0.310674 -0.108793 -1.132115 -0.117021 -0.574583 -0.067616 -0.584823 -0.364637 0.127810 0.220600
1481 0.378057 0.618638 0.006850 -0.121427 0.546745 -0.444878 -0.304581 -0.243074 0.347583 -0.568671 -0.143160 -0.450515 -0.914080 -0.304834 0.511529 -0.422475 0.096769 -0.853677 -0.349090 -0.231503 -0.030098 -0.092277 0.243957 -0.394451 -0.305971 0.377452 0.219133 -0.375625 -0.254398 0.230076 0.281608 -0.172474 0.074145 -0.514650 -0.101191 -0.131679 0.741566 0.078921 -0.564106 0.983615 0.110691 -0.231130 0.522734 -0.138308 -0.143908 -0.189233 0.626431 0.074114 0.056032 0.017712 -0.167591 0.533731 0.501338 0.556493 -0.379459 0.020254 -0.449184 -0.102322 0.068861 -0.358958 -0.047844 -0.823151 -0.201101 -0.774756 -0.310476 1.097865 0.343416 0.843795 0.282690 0.261772 0.506016 0.016524 0.614147 0.102881 0.077534 -0.614838 0.223975 -0.264062 0.378981 0.048445 -0.305933 -0.074699 -0.088696 0.352259 -0.424509 -0.053920 0.206574 0.001307 -0.557987 0.235438 -0.235248 0.305807 -0.566581 -0.018082 -0.250623 0.754641 -0.189825 -0.252784 0.019818 0.002646
2658 -0.044583 0.265877 0.493044 -0.454257 0.034190 -0.015774 0.463856 0.416022 0.386461 -0.452825 -0.069075 0.106755 -0.329459 -0.244500 -0.263329 -0.146614 -0.248617 -0.808773 -0.714983 0.140870 -1.023285 0.259387 0.403848 -0.692008 0.486449 0.359883 0.216889 -0.627044 0.177577 1.083336 0.018992 0.341614 0.664769 -0.767827 -0.437154 0.441881 0.518276 1.308074 -0.399050 -0.112121 -0.017250 -0.587099 0.098254 -0.620468 0.523794 -0.598697 -0.035512 -0.454194 0.478629 1.063176 -0.046692 -0.353501 -0.421377 0.129695 0.123947 0.348825 0.060076 -0.384662 -0.362210 0.281132 -0.465510 -0.757364 0.044510 -1.274439 -0.116611 0.312625 -0.086224 -0.618269 -0.122506 -0.145099 -0.125272 0.122329 0.218291 0.228616 0.093479 -0.929933 0.157881 1.006449 0.336476 0.260662 -0.310511 0.088338 -0.234063 0.079701 -0.572818 -0.030156 0.348295 -0.079539 -0.380991 -0.561411 -0.098111 -0.315459 0.035293 0.608706 -0.672202 0.119582 -0.018825 -0.987473 -0.018742 0.101137
39890 0.536229 -0.133602 0.398247 -0.135299 0.562358 -0.139318 -0.304906 -0.028192 0.478921 0.171867 -0.728989 0.463498 -0.672264 -0.338046 -0.439996 -0.171958 0.326112 -1.036529 -0.986254 -0.247222 -0.029556 -0.146630 -0.224144 0.045778 0.128264 0.281919 0.886731 -0.752940 0.322499 0.160188 0.189950 -0.243324 -0.315109 -0.048594 -0.187697 0.266158 0.510455 0.291379 -0.201534 0.228154 -0.193103 0.291448 0.088007 -0.431558 0.438250 0.310182 0.490723 -0.068577 -0.135452 0.125841 -0.160212 -0.224677 0.515929 0.157630 -0.791042 0.076982 -0.227125 -0.085431 0.574275 0.353557 -0.047980 -0.674186 -0.323884 -0.216086 0.241178 0.698164 0.431524 -0.327331 -0.396811 -0.227935 0.212006 0.444202 0.466481 -0.346751 0.145520 -0.125637 -0.075353 0.526898 -0.454639 -0.411206 0.129336 0.328798 0.159660 0.546781 -0.088956 -0.131560 0.282187 0.037717 -0.566272 0.327741 -0.128047 -0.108650 0.328659 -0.023657 -0.676289 0.193100 -0.746184 -0.913599 -0.150759 -0.689728
2653 -0.046775 0.218147 0.088020 0.363721 0.244877 0.098394 0.556652 -0.171962 0.861756 -0.003396 -0.348880 -0.151056 -0.483041 0.166394 -0.168841 -0.057554 0.010049 -0.801939 -0.141654 -0.227743 -0.184837 0.016318 -0.326321 -0.041087 -0.326810 -0.132501 0.517152 -0.743075 0.241299 0.363078 0.038802 0.381334 -0.263970 -0.173307 0.684930 0.025059 0.405186 0.660224 -0.491754 -0.074965 -0.010333 -0.555647 -0.673364 0.027586 0.024255 -0.140918 0.712611 0.153386 0.400754 0.284371 -0.541039 -0.026710 0.179914 -0.183567 0.000566 0.025051 -0.003116 0.665796 -0.471666 0.173803 0.021407 0.220909 -0.602134 -0.066740 -0.266705 -0.046342 0.691497 -0.180942 -0.449165 0.076838 0.384081 0.259675 0.913946 -0.888441 0.225150 -0.381382 0.089592 0.263182 0.315646 0.312741 -0.577196 0.210508 0.329491 -0.114702 0.165564 -0.097328 -0.423763 0.251898 -0.394536 -0.052027 0.207855 -0.128552 -0.901545 0.104408 -0.564897 0.091818 -0.623657 -0.860683 0.145497 -0.162200
3191 0.386923 -0.193610 0.162778 0.584367 0.602598 -0.413175 -0.060471 -0.002470 0.296353 0.310176 -0.274862 0.182856 -0.333091 -0.375686 -0.263480 -0.267104 0.374528 -0.813805 -0.980677 -0.176992 -0.331858 -0.128073 -0.360530 0.083904 -0.060371 0.119210 0.556083 -0.383354 0.382118 0.096071 -0.077244 -0.861988 -0.076694 -0.184506 0.245342 0.264380 0.480547 0.328434 -0.103227 -0.180659 -0.204635 0.150899 0.080140 -0.392711 0.698241 0.172208 1.011448 -0.193733 -0.209378 0.289083 0.185788 -0.357783 0.114337 0.311222 -0.190724 -0.046192 -0.405511 -0.290072 1.043598 0.545436 0.212875 -0.510719 -0.387227 -0.161267 0.125335 0.243185 0.554462 -0.162391 -0.111178 -0.634612 -0.324651 0.163646 0.436381 -0.367874 0.345165 -0.029995 -0.150329 1.094830 -0.292029 -0.180260 0.080540 0.167583 0.096084 0.139402 0.244076 -0.272803 -0.139149 0.102931 -0.832373 0.041365 -0.296413 0.046339 0.300101 -0.044663 -0.423675 -0.109310 -0.601179 -0.947576 0.227866 -0.156574
2696 -0.234450 0.335186 0.141803 -0.259535 0.749953 -0.224586 0.026000 -0.344459 0.541128 -0.268940 -0.057547 -0.090079 -0.598501 -0.205451 -0.713263 0.093620 -0.603214 -0.604484 -0.981188 -0.107967 -0.741860 0.062091 0.296179 -0.224017 -0.277624 0.243360 0.393112 -0.415548 0.454741 0.555861 -0.490882 -0.009086 0.186836 -0.665291 -0.001064 0.527855 -0.245805 1.036448 -0.256273 -0.194388 -0.296529 -0.096309 0.266370 -0.231117 0.407406 -0.352861 0.242590 -0.176200 -0.048008 -0.040760 -0.767875 -1.051522 -0.583637 -0.305722 0.274350 0.050298 -0.227730 -0.143351 0.482579 0.314153 -0.892898 -0.816162 0.000182 -1.115307 -0.247342 0.205349 0.970092 -0.060643 -0.386423 0.389145 -0.620148 -0.103445 0.375325 0.235946 -0.069523 -0.636048 0.093444 0.447719 0.455592 0.108957 0.097671 -0.699269 0.055884 0.373865 -0.318432 0.070003 0.408033 0.207073 -0.405450 -0.007022 -0.439609 -0.250922 0.182607 0.355481 -0.175792 0.276628 -0.326206 -0.929177 0.024474 -0.522251
4335 0.004094 0.582339 0.127366 0.345074 -0.089374 -0.022103 0.872938 -0.492944 -0.209553 0.176761 -0.016511 -0.478855 -0.067862 0.250820 -0.270749 0.098513 -0.076989 -0.739931 -0.926113 0.149000 -0.331040 -0.054571 -0.359050 -0.490500 -0.341420 0.022079 0.858370 -0.239359 0.209965 0.396209 -0.264339 -0.641928 -0.511326 -0.642107 0.421417 0.097966 -0.086718 0.505073 -0.118349 -0.054153 0.028197 -0.067601 0.399430 0.211388 0.436877 0.784494 0.977827 -0.263977 -0.103969 -0.233679 -0.156490 -1.138687 0.194983 0.062392 0.342302 -0.434362 -0.029445 -0.313692 0.025968 -0.128261 -0.079852 -0.146782 -0.383978 -0.452823 -0.361157 0.429116 0.403110 -0.305135 0.490268 0.421098 -0.273901 0.211574 0.472075 -0.329636 0.291784 -0.658425 0.296276 0.591897 -0.305381 0.518592 0.295692 -0.273206 0.399748 -0.126971 0.325636 0.121700 0.276473 -0.460475 -1.299546 0.010983 -0.696785 -0.195531 -0.403009 0.439031 -0.086705 -0.301693 -0.391651 -0.669738 -0.144424 0.245919
643221 0.543630 -0.256627 0.580341 -0.066723 0.254502 -0.561674 0.066611 -0.401779 -0.156040 -0.059020 -0.597286 -0.207491 -0.283102 0.383855 -0.293487 -0.025165 0.997616 -0.592182 -0.247335 0.224805 -0.812436 -0.369613 -0.088362 -1.096559 0.225965 0.407749 0.512396 -0.047629 0.030308 0.036655 0.220612 -1.000636 -0.199105 -0.179096 -0.632568 0.354087 0.172513 0.390165 -0.605336 0.253625 0.257662 -0.350410 0.220164 0.460292 0.847553 0.312170 0.225002 -0.328899 -0.059270 0.580604 -0.155010 -0.007485 -0.479568 -0.862553 -0.542903 -0.102414 -0.266679 0.124373 0.148350 0.277845 -0.537276 -1.000114 -0.537038 -0.276017 -0.354345 0.220240 0.064316 0.426401 -0.195557 -0.168149 0.000421 -0.292406 0.233694 -0.182303 0.591351 -0.352139 0.068369 0.424145 -0.267029 0.465912 0.103941 -0.408499 0.339378 -0.758331 -0.019958 -0.275548 -0.119368 -0.470896 -0.747764 -0.214172 -0.173561 0.860307 -0.942354 0.160788 -1.038034 -0.085699 -0.368058 -1.156440 -0.275745 -0.080612
23738 0.206175 0.222233 0.699137 0.702513 0.571140 0.565945 0.171276 -0.050524 0.366833 0.126376 -0.394004 -0.123827 -0.531222 -0.114292 0.199164 0.284440 0.047030 -0.625064 -0.506166 -0.107830 0.420119 -0.062670 -0.148078 -0.581944 -0.271127 0.257450 0.251641 -0.628231 0.209711 0.394908 0.032001 0.191234 -0.681857 -0.437559 0.438981 0.062748 0.045203 0.336528 0.048480 -0.000990 -0.299000 -0.101215 -0.427752 -0.314865 0.335656 0.229615 0.706691 -0.165180 -0.103499 -0.115173 -0.171590 -0.510382 0.466756 -0.196800 -0.037221 -0.135063 -0.160058 0.229123 -0.050567 -0.205726 0.146458 -0.260257 -0.853330 -0.214471 -0.191409 0.045351 0.400832 -0.142470 -0.283080 -0.186618 0.331127 0.289641 0.259621 -0.771063 0.273731 -0.725307 0.603173 -0.494782 -0.233232 -0.304524 -0.378786 0.315669 0.703137 0.258603 -0.428849 0.069204 -0.146526 0.092259 -0.800449 0.115405 -0.459790 -0.515628 -0.416452 -0.155853 -0.641080 -0.137745 -0.524831 -0.851871 -0.362673 -0.518594
85352 -0.061056 0.496233 0.232144 -0.096629 0.240659 -0.858670 0.692956 -0.477808 -0.070799 0.161878 0.240839 -0.053034 -0.610399 0.108612 0.494725 -0.624390 -0.310384 -0.495838 -0.438787 0.384739 -0.440860 0.190371 -0.052900 -0.087267 -0.119052 0.534596 -0.056811 -0.013453 0.546910 0.663342 0.606723 0.577606 -0.209455 -0.938071 0.366674 0.344387 -0.487922 0.364946 0.070176 0.065522 -0.300586 -0.515828 0.689625 0.892137 0.324142 -0.731857 1.339553 -0.541908 0.689719 0.850319 -0.238519 -0.191168 0.216296 -0.210865 -0.524848 0.632384 0.039102 0.004319 0.759205 0.191753 -0.737558 -0.375881 0.430028 -0.479609 0.637892 0.048388 0.206416 -0.261780 0.470832 -0.093719 -0.433863 0.110658 0.393961 0.117098 -0.365345 -0.112863 0.152341 -0.000230 -0.329763 0.529523 0.043448 -0.171371 0.907780 0.016180 -0.488348 -0.700670 -0.085099 0.168237 0.220977 0.004297 0.265396 0.306962 -0.080349 -0.439234 -0.678008 0.148588 -0.236454 -0.208721 0.237348 -0.397408
35922 -0.167282 0.546520 -0.223791 -0.026218 0.041536 0.149105 0.460801 -0.624896 -0.546926 0.058794 0.410743 -0.308492 -0.334938 0.177006 -0.354353 -0.452791 0.182767 -0.738836 -0.576469 0.014754 -0.469031 0.351858 0.092380 -0.286636 -0.420734 0.295102 1.100393 -0.393247 0.697594 0.083105 -0.318387 -0.396816 -0.040911 -0.602990 0.344360 0.157018 0.165395 0.231347 -0.238498 -0.198623 0.359524 0.027944 0.060674 0.272639 0.172201 0.529121 0.611679 0.152319 -0.388481 0.110411 0.133064 -1.300945 0.286155 -0.106301 0.223874 -0.259579 -0.104113 -0.277960 0.195640 0.107834 -0.108385 -0.216797 -0.044018 -0.106764 0.100187 -0.072325 0.304392 -0.428094 -0.051012 0.426773 0.058818 0.218004 0.316647 -0.302521 0.319427 -0.621202 0.427165 0.900014 -0.115839 0.320183 0.141383 -0.487328 0.007695 0.043530 0.478554 0.020537 0.134004 -0.381548 -1.023178 -0.118537 -0.074618 0.015888 -0.724706 0.586246 -0.157466 0.265786 -0.399266 -0.098458 0.182950 -0.434586
4804 0.079031 0.320146 0.155646 -0.006225 -0.258330 -0.214305 0.027731 0.001143 0.026751 0.321533 -0.500428 -0.303449 -0.455341 -0.333241 -0.327302 -0.081654 -0.020973 -0.146990 -0.674402 0.193310 -0.132622 -0.085872 0.372785 -0.638430 0.004208 0.037410 0.462603 0.041821 0.243675 0.828102 0.170151 0.229770 -0.229338 0.236245 0.120342 0.204440 0.290158 0.717827 -0.108466 0.122194 -0.343215 -0.574872 0.017864 -0.160723 0.396035 0.343529 0.076556 0.318398 0.557899 0.145221 -0.265659 0.514596 0.316625 0.061039 -0.144706 0.041294 -0.487717 0.572360 0.222449 0.278158 -0.257162 0.448350 -0.377564 -0.595704 0.162514 -0.219888 0.256891 0.139741 -0.337430 0.475659 0.268483 0.439892 1.259097 -0.639866 0.363209 -0.496057 0.324883 0.627766 -0.262733 0.604739 -0.306178 -0.130238 0.362811 -0.299992 -0.596750 -0.139646 0.320033 0.097919 -0.339054 0.188143 0.674394 -0.188320 -0.478120 0.020748 -1.155432 -0.014367 -0.440576 -1.337279 0.103465 0.412235
10796 -0.294715 0.608175 -0.141303 0.189652 0.718784 0.090556 0.330938 -0.755905 0.442161 -0.566249 -0.406512 0.529825 -0.759109 -0.159517 0.586864 0.201433 0.187435 -0.425090 0.129313 -0.128844 0.326313 0.015242 0.541438 -0.761230 -0.137478 0.676413 0.508401 -0.177226 0.523781 0.487261 0.218635 0.103972 0.564264 -0.105835 0.014612 0.187401 0.525619 0.112710 0.098302 0.280495 -0.543694 -0.123916 -0.336123 -0.201984 0.233020 0.270240 0.686300 -0.217830 -0.203589 -0.482507 -0.122970 -0.313473 0.949354 -0.018600 -0.289643 0.662635 -0.331868 -0.081813 -0.169991 -0.129746 -0.660838 -0.271019 -0.579203 -0.383379 -0.444141 0.582112 -0.126594 -0.129634 -0.036728 0.171004 0.395145 0.125566 0.216276 -0.400747 0.003781 -0.496202 0.106538 0.095425 0.281467 -0.222790 -0.403271 0.298808 0.450561 0.032577 -0.408444 0.421468 -0.031170 0.416600 -0.930709 0.452023 0.108058 -0.210482 -0.481042 -0.132508 0.069572 0.492439 -0.359215 -0.165480 -0.285792 -0.867949
16819 0.618370 -0.127603 0.371496 -0.058246 0.211569 -0.389332 0.275666 -0.662009 -0.143184 -0.152946 -0.372445 -0.380866 -0.394304 0.387646 -0.203166 -0.012343 0.968194 -0.395936 -0.260037 0.362990 -1.081602 -0.467284 -0.089495 -1.029323 -0.005145 0.719729 0.264018 -0.249056 0.408650 -0.072456 0.221054 -0.588704 -0.351343 0.222232 -0.497674 0.697435 0.110785 0.311797 -0.402811 0.049506 -0.068721 -0.467513 0.108279 0.554034 0.729439 0.332993 -0.049506 -0.154720 -0.036449 0.206500 -0.308130 0.023101 -0.206044 -0.732133 -0.347547 -0.093741 -0.131188 -0.244514 0.098467 0.386636 -0.590376 -0.715072 -0.395849 -0.554547 -0.434454 0.337381 0.192918 0.406028 0.104156 -0.096308 -0.229454 -0.540981 0.119674 -0.141907 0.721924 -0.198064 -0.250658 0.475732 -0.401275 0.725043 -0.108401 -0.053376 0.193289 -0.784727 0.023221 -0.128219 -0.347588 -0.190435 -0.580322 -0.183413 -0.476192 0.608484 -0.939547 0.094453 -0.730927 -0.101469 -0.327122 -1.121470 -0.147089 -0.230166
117 0.700741 0.331857 0.407601 -0.347307 -0.124808 -0.164006 -0.102977 0.119369 0.532958 -0.386391 -0.602042 -0.063559 -0.765346 -0.055602 -0.274575 -0.053917 -0.068056 -0.627000 -1.011189 -0.065541 0.007464 -0.188004 0.315761 -0.567287 0.072097 0.308887 0.761768 -0.445330 0.345173 0.184342 0.130814 -0.459520 0.223754 -0.493910 0.168042 0.744219 -0.130617 0.186991 0.095426 0.234796 -0.364998 -0.289302 0.997478 -0.324888 0.180238 0.949435 -0.165307 -0.461451 -0.047992 -0.246229 -0.336012 -0.156234 0.478785 -0.282591 -0.236872 0.063625 -0.299961 0.392098 0.353294 0.559637 -0.054030 -0.552912 0.060651 -0.151775 0.404180 0.511925 0.260608 -0.263079 -0.549317 0.042013 -0.067292 0.313498 0.304628 -0.063757 0.118364 -0.207365 0.256455 0.190260 -0.400685 -0.041747 0.064240 0.243006 0.232420 0.044780 -0.222501 0.691058 0.416522 -0.242667 -0.457355 0.344126 0.109588 -0.232296 -0.101289 -0.005175 -0.573519 0.503825 -0.395074 -1.007252 -0.628385 -0.118415
230879 0.049943 0.217723 0.502468 -0.397332 0.076078 -0.110776 0.479963 0.463983 0.284011 -0.259296 0.153025 0.167734 -0.171183 -0.249567 -0.204166 -0.218614 -0.411718 -0.586116 -0.785494 0.348231 -1.009227 0.113913 0.091796 -0.615188 0.397807 0.299761 -0.007367 -0.434573 -0.057705 1.140937 -0.085366 0.356064 0.452658 -0.910371 -0.376086 0.454562 0.490820 1.323568 -0.408225 -0.072788 -0.009311 -0.520760 -0.021338 -0.441303 0.541839 -0.712297 0.247143 -0.453295 0.697008 1.041931 -0.106047 -0.158215 -0.503850 0.119381 -0.079134 0.507029 0.078026 -0.394070 -0.273985 0.469397 -0.436386 -0.650228 -0.107472 -1.151009 -0.117767 0.441377 -0.148677 -0.460599 -0.142243 -0.197414 -0.214685 0.143876 -0.036874 0.131592 0.029750 -0.985225 0.077416 0.718839 0.176247 0.236768 -0.119733 0.132629 -0.239389 0.188959 -0.597127 -0.235729 0.376442 -0.023105 -0.435946 -0.630274 -0.345015 -0.268994 -0.138077 0.408893 -0.798644 0.072855 0.113559 -1.104741 -0.004579 0.217203
1688 -0.207724 0.255637 0.533544 0.105716 0.556570 -0.813387 0.387117 -0.252208 0.255432 0.083022 0.144868 0.003575 -0.397923 -0.000253 0.580475 -0.299349 -0.372888 -0.843324 -0.166708 0.288615 -0.253541 -0.319661 0.382261 -0.058639 -0.447608 0.549306 -0.279511 0.298808 0.475214 0.444129 0.378586 0.758866 -0.024967 -0.984652 0.208233 0.263744 0.075530 0.988381 0.569398 0.317164 0.080791 -0.678765 0.098622 0.691315 0.199876 -0.188595 0.853073 -0.489644 0.250325 0.465925 -0.257788 -0.222661 0.099976 -0.224513 -0.575663 0.309142 0.052347 -0.096111 0.503713 -0.098788 -0.058325 -0.525070 0.579843 0.152292 0.233375 -0.026038 0.000725 -0.484788 -0.349694 -0.760123 0.072024 0.896638 0.293861 -0.006570 -0.114678 -0.064726 0.508721 0.276475 -0.568079 -0.006316 -0.204150 -0.709518 0.550776 -0.347349 -0.286375 -0.674340 -0.052277 -0.106111 -0.203072 -0.355207 -0.266943 0.281100 -0.183475 -0.605606 -0.884229 0.084954 0.128438 -0.823050 -0.138826 -0.377096
39127 -0.025008 0.100711 0.106514 0.351858 -0.024213 -0.532109 0.099205 0.180085 0.364154 0.044755 -0.012884 -0.229574 -0.999895 -0.016974 0.397900 0.156687 0.260521 -0.865659 -0.467313 -0.104810 -0.080614 -0.341762 0.736594 -0.779881 0.281050 -0.018614 0.788058 -0.419884 0.333148 0.078389 0.105842 -0.338876 0.936069 -0.521810 0.179666 0.306596 0.465027 1.154280 0.035410 0.033277 0.147087 -0.303771 -0.281910 0.145096 0.649834 0.632736 0.663630 -0.360965 0.210192 0.556504 0.335259 0.171192 -0.067154 0.312648 -0.172771 0.257417 -0.316160 0.330129 0.367215 -0.051965 -1.101090 -0.164584 0.006476 -0.702237 -0.036768 0.012618 -0.045548 0.624560 -0.244267 -0.088552 0.649889 0.065839 0.502155 -0.155916 0.232846 -0.496509 0.101842 -0.368152 -0.391553 0.358676 -0.018801 -0.400814 0.808136 -0.069410 0.198441 -0.138552 -0.262011 0.776150 -0.810076 0.117795 -0.131128 0.121767 -0.240477 -0.364476 0.294661 0.104792 -0.138680 -0.210877 0.153598 0.143457
210871 0.596464 -0.009772 0.174800 -0.069196 0.466709 -0.469498 0.317142 -0.913034 0.133260 -0.155129 0.220480 0.210222 -0.376142 -0.124119 0.804725 -0.041741 -0.054098 -0.367322 0.257796 0.416119 -0.135978 0.449837 0.336116 -0.208177 0.016680 0.622407 0.123315 -0.292765 0.081559 0.084050 0.370132 0.226182 0.325638 -0.816101 0.343361 0.568908 -0.408010 -0.035314 0.111387 0.280373 -0.519200 0.176748 0.030825 0.582729 0.468845 -0.021268 0.585890 -0.575328 0.398333 0.509928 -0.047860 0.124332 0.190399 -0.250381 -0.470157 0.113287 0.053722 0.528973 -0.097610 0.560796 -0.100014 -0.688214 -0.143235 -0.228885 0.217829 -0.082820 -0.380879 -0.214994 0.264115 0.358089 -0.225048 0.388807 0.141243 0.011688 0.285074 -0.699984 -0.330377 0.641249 -0.263508 0.313739 -0.279723 0.218401 0.698678 -0.300416 -0.493769 -0.665558 0.368865 -0.103068 -0.113640 -0.404016 0.075377 0.434526 -0.505250 -0.444666 -0.009732 0.273409 -0.808667 -0.569083 -0.256992 -0.331884
3218 0.223467 0.046367 0.836942 0.318786 0.358048 0.130244 0.248124 -0.259289 -0.095592 -0.526958 -0.347333 -0.068654 -1.031567 0.149099 0.732140 0.248931 0.620452 -0.947146 0.036971 -0.300273 -0.358061 -0.217988 0.298619 -0.152441 -0.119258 0.187082 0.034115 -0.541507 0.206031 0.424604 -0.399224 0.485650 0.456350 -0.527821 0.222785 -0.137444 0.256727 0.813946 -0.373361 0.510005 0.050173 -0.007065 -0.204873 -0.028949 0.241770 0.423195 0.476134 -0.250048 -0.109378 0.310370 0.474648 0.012348 -0.200547 -0.203792 -0.304631 0.205743 -0.463786 0.238237 0.298213 -0.202124 -0.768522 -0.442216 -0.149291 -0.513070 -0.580150 0.274933 -0.166364 0.508346 -0.340735 0.482882 0.812439 -0.146303 0.467156 -0.475168 0.515902 -0.687428 0.609430 -0.626910 0.000280 0.101656 -0.547365 -0.287635 0.790479 0.029568 -0.544190 0.028660 -0.593035 0.349624 -1.035323 0.208435 -0.175401 -0.356329 -0.067188 -0.021342 0.100465 0.352365 -0.379629 -0.507720 -0.498934 0.173706
54131 0.688415 0.483392 0.087668 -0.030640 -0.031962 -0.206943 0.254090 -0.446228 -0.281884 0.014795 0.713981 -0.325078 -0.098925 -0.211449 0.342178 -0.027664 0.057101 -0.150972 -0.136119 0.544001 -0.575861 0.057619 0.341799 -0.168159 -0.523786 0.206349 0.025920 -0.191710 0.038241 0.518599 0.141653 0.260933 -0.228195 -0.721018 0.453969 0.399821 -0.002934 0.105823 0.366585 0.196957 -0.349205 -0.460124 0.503405 0.444279 0.392365 0.084706 0.843632 -0.390302 0.565708 0.225656 -0.371780 -0.006255 -0.143258 0.030326 -0.215433 0.071599 -0.379785 0.195035 0.465909 0.470608 -0.661655 -0.289773 0.162101 -0.726635 -0.226832 0.406746 -0.165965 -0.281031 0.288934 -0.157124 -0.182584 0.062745 0.114741 -0.338189 0.218650 -0.493567 -0.207746 0.466257 -0.444667 0.407428 -0.190565 -0.143981 0.962023 0.034497 -0.527297 -0.820990 0.140639 0.092943 -0.052947 -0.248725 0.180245 0.604294 -0.343278 -0.733863 0.077875 -0.229122 -0.812305 -0.911626 0.167744 -0.292975
5348 -0.088763 0.259529 0.192231 -0.354779 0.937792 -0.061273 0.261738 -0.246182 0.516540 -0.275233 0.153980 -0.101575 -0.621015 -0.240902 -0.731215 0.043471 -0.761762 -0.512199 -0.846121 -0.040946 -0.783017 -0.037683 0.106380 -0.319851 -0.352021 0.270378 0.193157 -0.437057 0.232579 0.748358 -0.643423 0.025587 0.314407 -0.725208 -0.032961 0.517154 -0.229662 1.214984 -0.307838 -0.121569 -0.311922 0.005199 0.172521 -0.049888 0.284946 -0.495730 0.357429 -0.216446 0.260060 0.035307 -0.819096 -0.913316 -0.731497 -0.313273 0.101287 0.182189 -0.095402 0.035111 0.275409 0.480672 -0.975621 -0.654491 -0.239153 -0.889346 -0.215533 0.216715 0.750541 0.060251 -0.516776 0.580811 -0.454695 -0.193003 0.145134 0.236711 -0.046201 -0.840601 0.079419 0.264232 0.387659 0.114105 0.107714 -0.389009 -0.186256 0.513476 -0.419229 0.109791 0.479442 0.083022 -0.492637 -0.013772 -0.582112 -0.165645 0.053152 0.172663 -0.244958 0.299833 -0.134691 -1.029111 -0.011930 -0.418753
642894 0.665292 -0.149873 0.464031 -0.201506 0.159167 -0.383354 0.125451 -0.302443 -0.131818 -0.284021 -0.442376 -0.183066 -0.218676 0.353800 0.081706 -0.234982 0.761132 -0.281064 -0.113331 0.285044 -0.653387 -0.273851 0.026252 -1.283794 0.182942 0.322308 0.444153 -0.061409 -0.156202 0.351203 0.066472 -0.810274 -0.125010 -0.380177 -0.553886 0.467904 0.102510 0.387247 -0.635749 0.270856 0.315338 -0.222428 0.120097 0.804308 0.626349 0.359920 0.359881 -0.458388 0.157242 0.620808 -0.080533 -0.097192 -0.396845 -1.006218 -0.572553 -0.087177 -0.312745 0.249272 0.396623 0.214024 -0.584706 -0.798058 -0.406446 -0.233786 -0.029336 0.200065 -0.043541 0.491655 -0.404943 -0.129442 -0.275541 -0.067529 0.067512 0.024872 0.237320 -0.374025 0.063553 0.316083 -0.023171 0.571007 0.104839 -0.370918 0.059662 -0.925489 0.218132 -0.359180 -0.079577 -0.496074 -0.712447 -0.312876 -0.107684 1.108647 -1.204794 0.212724 -0.938417 -0.166069 -0.253673 -1.066569 -0.073403 -0.215967
6334 -0.216522 0.646199 -0.085069 0.184874 0.114607 -0.693820 0.155828 -0.190093 0.458425 0.015292 -0.191841 -0.344269 -0.744673 -0.275597 0.226683 0.017360 0.311603 -0.697851 0.406889 -0.572270 -0.432433 -0.559722 0.253292 -0.845456 -0.333306 0.186264 -0.068463 -0.775467 -0.298976 0.062646 -0.163400 -0.147404 0.505735 -0.609868 0.293690 0.100640 0.523228 0.791211 -0.179446 0.442231 -0.247975 -0.405414 0.231240 0.102705 0.465303 0.004413 0.841606 -0.107214 0.270929 0.573415 0.265652 0.286816 0.456716 -0.421845 -0.309982 0.078934 -0.235878 0.549889 0.288490 -0.126302 -0.343018 -0.256310 0.058497 -0.289296 -0.275136 0.208585 0.301337 0.019536 -0.208649 -0.029330 0.410356 -0.046424 0.633598 -0.491443 0.391872 -0.320558 -0.056329 -0.066148 0.619783 -0.214631 -0.903548 -0.019414 0.358155 -0.207524 0.212668 -0.381629 -0.539869 -0.059864 -0.611864 0.245305 0.039471 0.684490 -0.977308 0.067074 -0.107033 0.263708 -0.338728 -0.399617 0.636368 0.411898
35061 0.650532 0.244199 -0.059036 -0.317183 0.120303 -0.220932 0.251870 -0.525063 0.236336 0.045011 -0.178533 -0.018631 0.026095 -0.281637 0.581449 0.048708 -0.266503 -0.361075 0.153924 0.496620 -0.448841 0.482932 0.187195 -0.246548 -0.104845 0.444671 0.461371 -0.286942 0.451534 0.668822 0.148244 0.137380 0.201902 -1.025487 0.350037 0.057236 -0.455045 0.180184 -0.193466 -0.080704 -0.501686 -0.056001 0.175740 0.719101 0.321364 -0.042823 1.139947 -0.580675 0.754502 0.828040 -0.153586 -0.029283 0.161343 -0.500389 0.089515 0.427197 -0.163170 0.486253 0.270398 -0.076067 -0.566223 -0.762496 0.052652 -0.372310 -0.098801 -0.441996 -0.468993 -0.405050 0.381412 0.151143 -0.038956 0.063621 -0.299395 0.101739 0.132796 -0.315349 0.050728 0.282546 -0.503110 0.264398 0.073075 0.017645 0.600832 -0.483585 -0.319956 0.067767 0.283059 0.044858 -0.146094 -0.060439 0.077557 0.122049 0.495524 -0.464102 0.182635 0.168915 -0.468456 -0.533073 -0.128662 -0.900337
34257 0.549931 0.611082 0.070259 -0.254905 0.392027 -0.390443 -0.250431 -0.320027 0.495903 -0.025615 -0.601175 0.275728 -0.329151 0.289298 -0.254758 -0.143178 0.486987 -0.813897 -0.473296 0.455026 -0.002740 -0.355708 -0.409992 -0.673249 -0.402902 0.385195 0.544680 0.186732 0.885113 0.505527 -0.488337 -0.129132 -0.294265 -0.535517 0.023438 0.089224 -0.320316 0.176661 -0.830019 0.012503 -0.051130 -0.035449 0.206180 0.166408 0.862982 -0.368716 0.817802 -0.928848 0.091010 0.572440 0.201455 -0.423618 -0.017379 0.283228 0.477458 0.669577 -0.362010 0.171944 0.023911 -0.770141 -0.665486 -0.303296 0.476881 -0.520179 0.371285 0.175490 0.476172 -0.087614 -0.744110 -0.411307 -0.169609 0.105248 0.141257 -0.073629 0.152880 -0.622526 0.589086 0.277268 0.514891 0.779150 -0.556307 -0.328052 0.380742 0.130238 -0.747948 0.312831 -0.425616 -0.279207 -0.067356 -0.407780 -0.279098 -0.336040 -0.728574 -0.223847 -0.726731 0.301755 -0.290881 -0.784282 -0.030157 -0.331866
54129 0.068484 0.460266 -0.118063 -0.209229 0.573600 -0.315111 0.257839 -0.382316 0.119274 -0.182368 -0.075152 -0.138485 -0.657554 -0.012391 0.067742 0.097024 0.387120 -0.076888 -0.507014 0.642362 -0.455405 0.030711 0.077255 -0.000647 -0.560230 0.407848 -0.169939 -0.517710 0.282978 0.888807 -0.152250 0.033948 0.297611 -0.798566 0.337324 0.456524 0.395965 0.206582 0.048778 0.028162 0.238288 -0.574702 0.456161 0.252190 -0.005293 -0.069468 0.367508 -0.345321 0.419425 0.846515 0.039271 -0.154035 0.268777 0.127335 -0.783512 -0.111165 0.017714 0.246823 0.011280 0.747064 -0.288937 -0.536149 0.515248 0.037919 0.072998 0.540942 -0.377674 -0.483969 -0.051919 0.141168 -0.076469 0.148220 -0.026250 -0.836610 -0.660445 -0.361200 0.348222 0.468852 -0.478192 0.432642 -1.015688 0.082464 0.584868 -0.202697 -0.423561 -0.229196 0.025347 0.069325 -0.112500 -0.421945 0.258345 0.699989 -0.749393 -0.769096 -0.316662 0.160660 -0.208707 -0.800924 -0.283899 -0.192736
10177 0.047260 0.261172 -0.148805 0.023703 -0.189922 -0.497656 0.057421 0.056231 -0.244640 0.363137 -0.453785 -0.255346 -0.703990 -0.199639 -0.390705 0.096800 0.137704 -0.249083 -0.581197 0.007434 -0.494829 0.036699 0.180462 -0.444638 -0.355892 0.121956 0.564005 -0.076999 0.077099 0.504473 0.276023 0.416884 -0.047450 -0.011024 0.272753 0.203198 0.705549 1.057853 -0.153328 0.060624 -0.057502 -0.119292 0.460417 -0.287094 0.672270 0.147987 0.075791 0.043406 0.625821 0.128814 0.084202 0.453954 0.170551 -0.393589 0.003360 -0.002071 -0.660276 0.481201 -0.058395 -0.058595 -0.448707 0.275546 -0.031020 -0.767176 0.009703 -0.369567 0.282130 0.166536 -0.305720 0.538475 0.547964 0.368656 0.842180 -0.592686 0.351811 -0.178020 0.433002 0.591163 -0.040385 0.541162 -0.602852 -0.393558 0.473628 -0.441452 -0.202961 -0.293101 -0.006964 0.080239 -0.586939 0.510621 0.585992 0.060448 -0.459095 0.395993 -0.879549 -0.024015 -0.758280 -0.915910 0.622744 -0.085763
18777 0.439830 0.313642 0.147242 0.485643 -0.495884 0.134826 0.511025 -0.646802 0.007746 -0.254166 -0.294153 0.032600 -0.554104 0.201380 -0.185469 0.228058 0.026288 -0.799235 -1.071135 -0.011831 0.161603 -0.041622 0.060443 -0.606353 -0.175599 -0.099733 0.686093 0.115948 0.193218 0.366648 -0.082649 -0.633726 -0.091514 -0.142790 0.374600 0.084218 -0.084282 0.017921 -0.126322 0.313844 -0.095994 -0.177665 0.051103 -0.383835 0.252376 1.312972 0.580085 0.094995 -0.585944 0.048702 -0.035989 -0.591367 0.457640 -0.326368 -0.286507 -0.215193 -0.234341 0.306852 0.562408 0.406983 0.117901 -0.493178 -0.622048 0.067473 -0.064353 0.078127 0.485426 -0.468984 0.059579 -0.081385 0.051563 -0.053537 0.821667 -0.244139 0.121613 -0.343122 0.529507 0.226430 -0.171792 0.248677 -0.136428 0.219481 0.528313 0.302762 -0.264873 0.269019 0.247662 -0.636418 -1.146038 -0.146995 -0.054063 -0.279912 -0.316787 0.335035 -0.273114 0.251544 -0.470622 -1.196737 -0.320938 0.104235
6910 -0.143774 0.436310 0.317899 -0.265383 0.392342 0.000179 -0.260111 0.203712 -0.624589 -0.626372 0.268976 0.191263 -0.677379 0.416884 -0.272778 -0.676642 0.384549 -0.174924 -0.552008 0.146322 -0.456209 -0.264410 -0.787829 -1.301043 0.039158 0.863748 0.788868 -0.321321 -0.237872 0.706400 -0.063991 -0.601211 -0.601101 -0.689418 -0.172891 0.228263 0.360138 1.022927 -0.050487 -0.327554 0.010202 -0.264619 -0.079367 0.304771 0.058553 0.125244 1.020787 -0.076982 0.185300 -0.353156 -0.230975 -0.525988 -0.010091 -0.537095 -0.116531 0.007845 -0.391182 -0.098502 0.938161 0.574267 -0.121430 -0.709746 -0.470614 -0.558691 0.004538 -0.325301 0.752503 -0.015708 -0.397645 -0.409452 -0.062889 -0.531718 0.384234 -0.488016 0.474034 -0.382453 -0.566100 0.407851 -0.264927 0.562457 0.267699 0.405985 -0.054984 -0.295082 0.477331 0.031370 -0.068615 -0.117799 -0.977603 -0.096703 -0.421343 0.042012 -0.619797 0.114204 -0.084751 -0.168292 0.058106 -0.779174 0.348315 -0.519262
38205 0.599239 0.236752 -0.059049 -0.330821 0.749690 -0.480883 0.474901 -0.552754 0.096897 0.000525 -0.221732 -0.142534 -0.117702 -0.151595 0.452744 0.280399 0.436768 0.042050 -0.201500 0.665540 0.218544 0.105931 0.380012 -0.201663 -0.159273 0.536285 -0.058373 0.008746 0.379866 0.451467 0.680369 -0.110232 0.382420 -0.665171 -0.117999 0.545687 -0.194339 0.077328 0.256365 0.306459 -0.406409 -0.180917 0.311641 0.374790 0.153657 -0.021235 0.449591 -0.734188 0.582872 0.715733 -0.045854 0.025234 0.490496 -0.296177 -0.710650 0.104152 -0.038283 0.145680 -0.028885 0.275008 -0.276603 -0.552256 0.322015 -0.111755 0.279054 0.253384 -0.137683 -0.258836 -0.072654 0.456017 -0.084346 0.458095 -0.080324 -0.216708 0.055861 -0.693738 0.061086 0.828411 -0.348622 0.182843 -0.424536 0.116911 0.599269 -0.028449 -0.300027 -0.113962 0.602575 0.042671 -0.695781 -0.468207 0.342420 0.340160 -0.410230 -0.509762 -0.389520 0.529117 -0.264913 -0.681397 -0.497603 -0.945211
31489 -0.156226 0.662010 -0.220877 0.111466 0.621760 -0.068330 -0.584062 -0.199655 -0.328399 -0.919228 0.313723 0.105633 -0.172771 -0.134550 -0.387440 -0.727616 0.515092 -0.441629 -0.662086 -0.292623 -0.375836 0.084082 -0.202592 -1.154084 -0.149062 1.123721 0.928451 -0.383555 0.101849 0.757803 -0.411036 0.108769 -0.807050 -0.911656 0.122367 0.652346 0.040745 0.864503 0.084530 0.036628 -0.150861 -0.426549 0.003916 0.468590 -0.085927 0.297413 0.408902 0.023693 -0.139588 0.123138 -0.397247 -0.441875 -0.132069 -0.570604 0.154936 -0.168657 -0.812861 0.014647 0.716649 0.273324 -0.196205 -0.810092 0.013878 -1.000145 -0.245006 -0.389464 1.097970 -0.129367 -0.479772 -0.169672 -0.043165 -0.083677 0.458222 0.050125 -0.047052 -0.546293 -0.240635 0.210679 -0.210121 0.779267 0.452120 0.328259 0.100121 -0.410574 -0.057120 -0.153587 0.408122 0.421506 -0.553630 -0.193852 -0.315163 -0.260220 -0.226702 -0.118928 -0.066242 -0.323011 0.223977 -0.348287 0.244708 -0.526803
2654 0.193045 0.169723 0.569736 0.631520 0.606432 -0.050510 0.264921 -0.035935 0.771486 -0.339114 0.174930 -0.064454 -0.232211 0.097717 0.148729 0.073303 -0.016792 -0.566917 -0.300236 -0.144832 -0.209050 -0.179493 -0.129639 -0.532800 -0.438586 -0.327413 0.618429 -0.801900 0.510062 0.673885 -0.266827 -0.231440 -0.276472 -0.424622 0.525042 -0.199612 0.260055 0.451102 -0.225050 -0.257754 -0.265286 -0.716496 -0.262688 -0.001781 0.358250 -0.193011 0.992359 -0.087858 -0.034081 0.613480 -0.034277 -0.185305 0.218516 0.189965 0.146422 -0.012547 0.605168 0.450893 -0.058569 0.036900 -0.328096 0.170602 -0.733114 -0.210319 -0.198033 -0.079803 0.999482 0.063168 -0.085630 -0.299086 -0.074154 0.033502 1.000080 -1.163319 0.199144 -0.859527 0.008945 0.204943 0.271249 0.109132 -0.637676 0.201666 0.406312 -0.109066 0.363562 -0.339292 -0.264107 0.603459 -0.202998 -0.351676 -0.484413 0.080483 -0.470100 -0.375709 -0.218040 -0.230420 -0.264448 -0.579557 -0.133108 0.277964
6913 0.239779 0.201923 0.527875 -0.029589 0.431133 -0.080237 0.455887 -0.069634 -0.274398 -0.231000 0.037340 -0.246694 -0.055385 0.252491 0.079506 -0.084770 0.200562 -0.165017 -0.638840 0.346887 -0.609650 -0.250292 -0.560941 -1.099857 -0.221091 0.262569 0.410790 0.134946 -0.409580 0.395330 -0.141311 -1.087684 -0.446406 -0.444906 -0.350702 0.503679 0.162718 0.601256 -0.212462 -0.032843 -0.234997 0.153256 0.250403 0.582292 0.455424 0.515942 0.799411 -0.425094 0.318731 -0.192797 -0.121490 -0.587742 -0.333036 -0.361451 -0.263277 -0.272337 -0.025732 -0.159987 0.444820 0.222597 -0.298652 -0.234047 -0.407443 -0.324657 -0.352029 0.399228 0.345137 0.198232 -0.336144 0.021786 -0.311092 -0.043292 0.257497 -0.376524 0.738632 -0.655977 -0.560247 0.364684 -0.198758 0.592530 0.514835 0.120209 0.153523 -0.802116 0.159706 -0.217741 0.008099 -0.334759 -0.882017 -0.282113 -0.721897 0.586009 -1.000875 0.136686 -0.803378 -0.317830 0.049223 -0.947060 0.098615 0.071363
35797 0.224276 0.169417 -0.002806 0.127350 0.855943 -0.081538 0.361617 0.056693 -0.149080 0.087762 0.393650 0.015395 0.081071 -0.355846 0.023807 -0.279664 -0.467568 -0.136489 -0.707991 0.461902 -0.593269 -0.238117 -0.404032 -0.069404 -0.438662 0.614180 0.339883 -0.028806 -0.247561 0.780356 -0.227131 -0.009952 -0.060307 -0.814531 0.450346 0.112362 -0.307102 1.075904 -0.481992 -0.209419 0.071495 0.210465 -0.010354 0.372125 0.216389 -0.052195 1.362414 -0.318607 0.517502 0.446685 0.223639 -0.527782 -0.077031 -0.265144 -0.265977 0.763065 -0.032501 -0.278064 0.566325 0.545985 -0.348343 0.145867 -0.586276 -0.007884 -0.044208 0.212149 0.027976 -0.077458 0.012597 0.121125 -0.099891 0.071521 -0.222377 -0.178040 -0.232872 -0.499732 0.064584 -0.233069 0.098986 -0.165784 0.135767 0.239538 0.256752 0.199587 -0.001337 -0.135290 -0.119256 0.312544 -0.523866 -0.220060 -0.623473 -0.251162 -0.797084 -0.340433 -0.469443 -0.248874 0.355350 -0.687915 0.273817 0.005172
46491 -0.186909 0.196876 0.557668 0.218018 0.692589 -0.415266 0.182741 -0.315166 -0.351383 -0.492167 -0.409784 -0.300173 -0.711292 -0.298128 -0.119062 -0.279069 0.403335 -0.974982 0.122168 -0.229396 -0.785224 0.016996 0.116759 -0.061072 -0.234327 0.119586 0.239382 -0.267692 0.151374 0.839609 -0.597727 0.513886 0.044403 -0.494654 -0.154169 -0.525130 0.035285 0.883472 -0.614066 0.192909 -0.198820 0.265247 -0.351499 -0.018208 -0.019248 -0.272252 0.416649 -0.214234 0.467608 0.801817 0.395902 -0.303810 0.111546 -0.264821 -0.116934 0.837129 0.051502 -0.004127 0.507893 0.505009 -0.890279 -0.065534 -0.509732 -0.134619 -0.299894 -0.052692 0.219740 -0.068724 -0.492615 0.489425 0.512693 -0.216238 0.552985 -0.586438 0.067019 -0.783544 0.480326 -0.674951 0.089610 -0.218421 -0.550799 -0.192931 0.752389 0.032760 0.332470 -0.064910 -0.451253 0.703508 -0.675332 -0.439098 -0.381610 -0.396544 -0.213716 -0.019611 -0.573493 0.181614 -0.558508 -0.179446 -0.586679 -0.222394
17476 0.423341 0.633174 0.364438 -0.229505 -0.266300 0.225439 0.373685 -0.329637 0.470675 -0.061562 -0.111921 0.471327 -0.887843 -0.100239 0.142883 0.001564 0.280460 -0.233266 -0.550158 0.258430 -0.100804 -0.074963 0.266936 -0.355773 -0.353699 0.002425 0.489999 -0.333539 0.597461 0.462772 0.096315 -0.085749 0.314004 -0.716838 0.308962 0.689768 -0.044510 -0.063682 -0.024610 -0.028041 -0.139740 -0.247828 0.686221 -0.093380 0.095060 0.912955 0.282870 -0.385646 -0.184089 0.130239 0.090177 -0.358379 1.039911 -0.112723 -0.300286 -0.314707 0.221006 0.172850 -0.413488 0.654593 -0.152785 -0.520601 0.336604 0.215865 0.480625 0.463263 -0.499494 -0.339258 -0.179379 0.124451 -0.437936 0.255130 0.175902 0.120795 0.002753 -0.342045 0.540809 0.683749 -0.239424 0.126839 -0.011054 0.288509 0.346182 -0.108120 -0.067579 0.477117 0.745646 -0.670758 -0.987885 -0.208733 0.506400 -0.075444 -0.719970 0.279420 -0.223729 0.707056 -0.256584 -1.000715 -0.260009 -0.240862
79809 0.105179 -0.265991 0.306180 0.656766 0.111296 -0.074353 0.258708 -0.249780 0.176930 -0.070123 -0.541988 0.134865 -0.749869 -0.285241 -0.239555 0.367826 -0.077382 -0.392547 -0.924423 -0.206911 -0.059633 -0.039421 -0.399287 -0.242887 -0.396335 -0.254890 0.428663 -0.055045 0.162779 0.311145 -0.144224 -0.469895 -0.116669 -0.082167 0.497231 0.117856 -0.453259 0.812672 -0.323061 -0.306068 -0.109226 -0.074921 -0.367173 -0.560019 0.658984 0.326768 0.900446 -0.040468 -0.429029 0.206607 0.097493 -0.430362 0.486084 -0.267006 -0.168849 0.254557 -0.133139 -0.191707 0.319030 0.441660 0.339440 -0.746183 -0.610335 -0.616678 -0.574950 -0.055573 1.150673 -0.446929 0.331883 -0.683611 -0.391772 -0.185990 0.521482 0.268636 0.224911 -0.065381 0.528787 0.408638 0.174325 0.071556 -0.380317 -0.361293 0.719110 0.185835 0.095143 0.109487 -0.283462 -0.001026 -0.993305 -0.293306 -0.605290 -0.439781 -0.330273 0.107203 0.047557 0.074055 -0.408618 -1.085158 0.207940 -0.005292
65074 0.400493 -0.235563 0.700626 -0.488111 0.708907 -0.303850 -0.194139 -0.347252 0.005935 -0.121606 -1.086775 0.179363 -0.631869 -0.041222 -0.178443 0.388884 0.827049 -0.812449 -0.668190 0.148818 -0.191937 -0.033765 -0.476343 -0.479193 0.110914 0.109935 1.085158 -0.522598 1.238186 0.307680 0.442142 0.150903 -0.392945 -0.595557 0.060074 0.059284 -0.231274 0.638251 -0.204114 -0.518105 0.240027 0.076655 0.499702 0.075082 0.588557 0.056104 0.216745 0.336561 -0.193955 0.983861 -0.053132 0.210246 0.594571 0.250543 -0.863952 0.336976 -0.186974 -0.349246 -0.019332 0.109595 -0.205846 -0.479008 -0.198106 -0.680577 0.161062 0.495246 0.096961 0.043193 -0.252007 -0.480340 0.182204 0.431650 0.438251 -0.691013 -0.165400 -0.313107 -0.229815 0.190393 -0.943207 -0.010766 0.127498 -0.459482 0.525434 0.371520 0.166487 -0.119199 0.124535 -0.486440 -0.507257 -0.198454 -0.323820 0.519596 0.229395 0.241137 -0.532367 0.448371 -0.833416 -0.920118 0.175244 -0.409218
89547 0.639484 0.386370 0.092688 0.497299 0.252060 -0.953856 -0.051943 -0.286621 0.462182 0.401526 -0.730129 -0.095470 -0.177141 -0.165679 -0.495090 -0.228229 -0.237990 -0.393639 -0.254984 -0.030684 -0.238878 -0.213279 0.157668 -0.400512 0.144671 0.434962 0.632685 -0.236747 0.397422 0.352927 0.043230 -0.101917 0.179428 -0.293687 0.750445 -0.177491 -0.074398 0.643239 0.078283 0.029771 -0.708322 -0.680861 0.713624 0.085096 0.328976 0.055336 0.328702 -0.088306 0.721223 0.361098 -0.059031 -0.069058 0.886307 -0.095986 -0.219897 0.281284 -0.570936 0.566280 -0.413479 0.393064 -0.360410 0.159346 -0.499656 -0.033852 0.124109 -0.280012 0.433907 -0.012775 -0.382583 0.503446 -0.061880 0.480983 0.324538 -0.207907 0.129031 -0.024774 0.155581 0.183581 -0.361198 0.223587 -0.436012 0.480879 0.029268 -0.716839 -0.459152 0.206728 0.291426 0.280455 -0.280052 0.417060 0.554346 -0.361498 -0.074520 -0.331271 -0.594507 0.442010 -0.665825 -0.917828 -0.678788 0.294205
3233 0.551916 0.593741 0.620694 0.321300 0.312702 -0.318315 0.225181 -0.078830 -0.150930 0.356779 -0.024532 0.054519 -0.037470 0.273558 0.417096 -0.461251 -0.104020 -0.368410 -0.362738 0.094603 -0.464901 0.054204 0.215398 -0.284141 0.041723 -0.196687 0.227643 -0.270314 0.298427 0.380550 -0.041644 -0.398369 0.246375 0.316929 0.406048 0.120513 0.456201 1.035714 0.450532 0.288334 -0.331026 -0.624076 -0.159603 -0.069748 0.679213 -0.271740 0.828433 0.214680 0.232197 0.067708 0.105885 0.038623 0.475419 0.351364 0.221481 0.304911 -0.275927 -0.195325 0.000521 0.357239 -0.388665 0.278931 -0.405483 -0.446135 -0.155363 0.414030 0.633908 0.191044 -0.201867 -0.112424 -0.023380 0.570809 0.710762 -0.266389 0.117205 -0.462361 0.146421 0.404509 0.085065 0.302403 -0.073917 0.265226 0.210117 -0.447549 -0.225190 -0.367928 -0.070410 0.853492 -0.495542 0.487923 0.315444 -0.078836 -0.681016 -0.173771 -0.627687 0.359810 -0.272078 -0.968702 -0.118244 0.815773
36140 -0.026433 0.094827 -0.105227 0.618975 0.569322 -0.008743 -0.067319 0.206443 0.083621 -0.141339 -0.049431 -0.240458 -0.127777 -0.273314 0.059674 -0.381413 -0.596982 -0.409536 -0.573393 0.296647 -0.344457 -0.040225 -0.436137 0.307894 -0.552639 0.599084 0.346482 -0.257105 -0.014402 0.673383 -0.001110 -0.050619 -0.417621 -0.959095 0.563951 0.392177 0.146281 1.048768 -0.600905 0.494608 0.031075 -0.240374 -0.332852 0.295554 0.688497 0.103101 0.958683 -0.218239 0.156206 0.341511 -0.102154 -0.435364 0.565566 -0.292647 -0.143515 0.454210 -0.120179 0.337985 -0.221439 0.136853 -0.261060 -0.220864 -0.630385 -0.044520 -0.295916 0.223617 0.383048 0.284705 0.110971 0.405233 0.217204 -0.042786 0.128230 0.004514 0.158660 -0.682001 0.039025 -0.381678 0.548169 -0.017608 -0.031405 0.551172 0.495751 0.189474 -0.147616 -0.164250 -0.636087 0.402572 -0.439345 0.056894 -0.333720 -0.488144 -0.835712 -0.177447 -0.678181 -0.385913 -0.128775 -0.316841 -0.132917 -0.035510
10531 0.154516 0.385775 0.054089 0.162593 0.402876 0.560977 0.088914 0.091004 -0.481564 0.377080 0.711727 -0.597791 -0.172239 0.219110 0.332189 -0.244875 -0.083517 -0.481492 -0.426013 0.099456 -0.144559 0.162630 -0.403363 -0.188789 -0.019778 0.992941 0.457085 -0.720633 0.492640 0.111848 0.471869 -0.021392 0.371112 -0.266709 -0.084174 0.607729 0.194757 0.656241 -0.472037 0.140395 0.380278 -0.061505 0.340304 -0.024264 0.639077 -0.258323 0.517071 0.130670 0.498515 0.573678 0.151922 -0.342610 0.734854 -0.321703 0.229070 -0.067772 -0.206069 -0.240627 0.152320 0.320180 0.031541 -0.012597 0.058986 -0.528845 -0.040230 -0.168159 0.238442 -0.364556 -0.064321 0.001920 0.226930 0.682164 0.471962 -0.222087 -0.015881 -0.904594 0.831730 0.425311 0.397857 0.342710 0.046848 -0.384081 0.463393 0.273815 0.458390 0.221428 0.043777 0.345102 -0.919795 0.576661 0.044941 -0.003993 -1.352796 0.178752 -1.075039 0.093243 -0.586066 -0.500056 0.343079 -0.193874
28350 0.489458 0.370959 -0.460781 -0.389657 0.685474 -0.102337 0.300553 -0.223016 0.257275 -0.641289 -0.487944 -0.010043 -0.653360 0.006492 -0.234144 -0.347176 -0.378444 -0.695777 -0.706976 0.594849 -0.053657 -0.051154 0.718872 -1.076713 0.048591 1.187047 0.549562 0.082898 0.606779 0.569834 0.385769 -0.744584 0.590177 -0.396627 0.048186 0.525523 -0.188371 0.070188 -0.095106 0.018463 -0.431855 -0.559048 0.996219 -0.450734 0.114713 0.427336 -0.119429 -0.320227 0.429786 -0.044646 -0.282737 -0.230251 0.267704 -0.346256 0.112514 0.085512 -0.288959 0.052622 -0.277649 -0.177804 -0.454017 -0.245427 -0.353318 -0.453111 0.253491 0.329506 -0.220514 -0.183943 -0.394855 0.212081 0.094793 0.349433 0.229770 -0.247367 0.068276 -0.712166 -0.090302 0.320306 0.216041 -0.132408 -0.090467 -0.322091 0.091542 -0.324112 -0.206473 1.140903 0.427247 -0.503884 -0.862028 -0.073757 0.003632 0.142336 -0.564172 0.026444 -0.648811 0.602273 0.006139 -0.603158 -0.612346 -0.167592
5086 0.305973 -0.649507 0.342987 0.751217 0.304322 -0.108059 0.102324 -0.099667 0.245226 0.202722 -0.471098 0.021313 -0.275274 -0.302554 -0.497846 0.040650 0.487113 -0.699772 -1.262816 -0.104333 -0.560277 -0.175676 -0.458100 -0.021606 -0.113838 -0.170979 0.385756 -0.175442 0.140846 -0.041450 0.026186 -0.744850 -0.053765 -0.194713 -0.013855 0.038541 -0.150627 0.368782 -0.431876 -0.102019 -0.028870 -0.193893 -0.029431 -0.449479 0.945174 0.023140 0.902572 -0.365821 -0.418443 0.526972 0.159582 -0.143188 -0.290618 0.044979 -0.138275 0.069954 -0.189015 -0.297569 0.713832 0.526809 0.231919 -0.757313 -0.668316 -0.432808 -0.475527 0.204197 0.852412 -0.364572 0.199826 -0.932489 -0.355508 0.111106 0.626255 0.131802 0.599931 -0.057152 0.069215 0.947042 -0.397829 0.520303 0.029418 -0.360062 0.618126 0.140107 -0.167551 -0.132619 -0.058168 -0.101594 -0.988101 -0.213549 -0.457566 0.167459 0.091425 -0.129925 -0.610290 -0.143998 -0.739896 -1.271288 -0.196369 -0.099644
287787 0.390096 0.815780 -0.258580 -0.096990 0.514320 -0.854700 0.239263 -0.351123 0.467055 -0.284146 0.009023 -0.345112 -0.567179 -0.726375 0.600466 -0.221380 0.192735 -1.002780 -0.162931 0.225183 -0.026642 0.106165 -0.133909 -0.029033 -0.396266 0.300938 -0.243815 -0.572541 -0.216080 0.130851 0.358786 0.197840 -0.174543 -0.997683 -0.127259 0.128841 0.001313 0.522558 -0.089073 0.209838 -0.185599 -0.887930 -0.083807 0.818097 0.365031 0.085782 1.255043 -0.639089 0.364922 0.019541 -0.123413 0.585312 0.644418 -0.359037 -0.436715 0.585260 -0.136400 -0.156111 0.651545 0.096266 -0.643553 -0.661896 0.277107 -0.207098 0.341241 0.057071 -0.512991 0.280553 -0.161332 -0.090428 0.322059 0.704657 0.478464 -0.252750 -0.233187 -0.427285 0.818861 0.801032 -0.192382 0.092824 -0.323217 -0.416577 0.744558 -0.043669 -0.355305 -0.480228 0.243480 0.284587 0.110012 -0.120795 0.605020 0.547753 0.067741 -0.502826 -0.292965 0.160831 0.124129 -0.178570 -0.052431 -0.335561
202639 -0.233772 0.465902 -0.156267 0.422734 0.139515 -0.841362 -0.236706 -0.085669 -0.147167 -0.981498 0.322539 -0.634994 -0.303517 -0.203469 0.302756 -0.346704 -0.745041 -0.550786 -0.119749 0.065739 -0.273250 -0.213534 0.113104 -0.535375 -0.427289 0.376898 0.076445 0.038373 0.318500 0.340611 0.428229 -0.791610 0.157405 -0.477514 0.550558 -0.067625 -0.748847 -0.147650 0.110469 -0.530319 -0.500115 -0.704415 0.318150 0.013237 0.327730 0.478408 0.406360 -0.153106 0.063016 -0.099438 -0.119622 -0.600972 -0.135995 -0.308124 -0.286332 -0.045061 -0.230214 -0.422385 0.820707 0.534639 0.415689 -0.511267 -0.380472 -0.599844 -0.319456 -0.207241 0.122421 0.164911 0.059327 -0.292287 -0.145489 0.170728 0.025467 -0.151177 0.072680 -0.666386 -0.127500 0.617088 0.050150 -0.291483 -0.302300 -0.238853 0.336417 -0.175807 -0.021625 0.251115 -0.050124 -0.471199 -0.813702 -0.312359 -0.585516 0.048342 -0.449422 0.241398 0.158959 -0.053644 -0.681237 -0.815784 0.320665 0.002798
3243 0.127049 0.992761 -0.066305 0.056917 0.307300 0.010796 0.237992 -0.181487 -0.077657 -0.692024 0.181552 -0.303490 -0.538151 0.044727 0.129908 -0.306397 -0.225260 -0.831010 -0.196560 -0.106966 0.143041 -0.056039 0.161797 0.088110 0.137018 0.088927 0.856371 -0.503909 0.158963 0.384237 0.616636 0.158910 0.148193 -0.365622 0.706649 0.326051 0.157563 0.800757 -0.544643 -0.150919 -0.338592 -0.649100 -0.636274 -0.050851 -0.347287 -0.273335 0.830763 0.089459 0.093763 -0.235100 -0.512237 -0.389074 0.735303 -0.290645 0.118607 0.682064 -0.351725 0.331513 -0.339937 0.379029 -0.067297 -0.581439 -0.064812 -0.320310 -0.362792 0.220307 0.502312 -0.305144 -0.639286 0.485482 0.311767 0.118475 -0.102367 -0.275507 0.039555 -0.437866 0.394125 0.243979 0.325222 0.062316 0.061045 0.322687 0.484996 0.256614 -0.035406 0.592775 -0.663288 0.229352 -0.162484 0.247030 0.180026 0.120118 -1.370633 -0.389278 -0.769619 0.185884 0.078236 0.051182 -0.334325 -0.226361
41714 0.403279 0.249933 0.047395 -0.091388 0.437350 -0.269818 0.482062 -0.284660 0.341260 -0.440167 0.085316 -0.288083 -0.058736 -0.369960 0.497819 -0.213393 0.002150 -0.492668 -0.315925 0.446377 -0.410890 -0.019430 0.635159 -0.501794 -0.148490 0.768542 -0.001406 -0.327545 0.439859 0.688459 0.796174 1.219481 0.393667 -0.892205 0.112977 0.082258 -0.169049 0.354862 0.123656 0.076846 0.170281 -0.167148 0.093931 0.854339 0.325141 0.085971 0.443533 -0.185058 0.253185 0.838902 0.264896 0.264856 0.487056 -0.324581 -0.308107 0.128890 0.277331 0.225131 0.311792 0.038469 -0.625276 -0.685589 0.108413 0.059822 0.879262 -0.247959 -0.262384 -0.163934 0.286726 0.619984 -0.209088 0.342393 0.136692 -0.262859 0.059277 -0.343280 0.368846 0.404976 -0.171393 0.354060 -0.465026 -0.128469 0.553219 -0.133505 -0.012460 -0.170984 -0.000269 0.069090 0.187568 -0.134858 0.023281 0.199343 -0.219532 -0.410065 -0.284141 0.437914 -0.361847 -0.832283 -0.501196 -0.560611
1956 -0.193777 0.637005 -0.165195 0.343279 0.761216 -0.385931 0.426244 -0.393595 0.262955 -0.633438 0.184711 0.095263 -0.495041 -0.212366 0.396141 -0.688145 0.347334 -0.318812 0.026971 0.342454 -0.698427 0.007593 -0.088816 -0.305110 0.352081 0.268479 0.217320 -0.587678 0.306634 0.375223 0.248233 0.782816 -0.018150 -0.271283 0.164226 -0.306948 0.052355 0.176451 -0.024904 0.367964 0.246025 0.017211 -0.115495 0.800729 -0.158415 -0.690100 0.582905 -0.652152 0.170904 0.764705 -0.295244 -0.127615 0.560358 0.714217 0.159183 0.639893 -0.334355 0.268596 -0.057662 0.391039 0.019450 0.026586 0.342167 -0.355257 -0.722871 0.169344 -0.037765 0.125019 0.274728 -0.125001 0.246140 0.421622 0.704835 -0.059557 0.044279 0.025583 -0.084346 0.028085 -0.126599 0.606350 -0.137452 0.172649 -0.024505 -0.084448 -0.207495 -1.018573 -0.334693 0.114214 -0.304084 -0.155525 -0.070008 0.128287 -0.744548 -0.565926 -0.004267 0.632543 -0.977207 -0.854750 -0.394618 -0.570799
20601 0.276258 -0.225595 0.057717 0.074409 -0.109019 -0.025944 -0.294954 0.512954 0.338599 0.220122 -0.884283 0.111549 -0.917429 -0.009494 -0.253536 -0.066531 0.459227 0.255207 -0.434335 0.239587 -0.369373 0.157593 0.249402 -0.257667 -0.431521 0.276276 0.423000 -0.118409 -0.060475 0.557487 0.204007 0.282486 -0.565803 -0.369682 0.551873 -0.052121 0.632438 0.621920 -0.743045 -0.233941 -0.072395 -0.275417 0.032189 -0.001788 0.830412 0.299318 0.285912 -0.172497 0.824921 0.515167 0.262959 0.231147 0.237929 -0.545774 0.286617 0.159251 -0.331328 0.509422 -0.194972 0.362444 -0.454575 -0.099466 -0.180477 -0.697049 -0.007575 -0.609381 0.268497 0.337495 0.076063 0.585013 0.272133 0.358134 0.944519 -0.389962 0.128929 -0.710875 0.416017 0.471289 -0.101649 0.624865 -0.431663 -0.191151 0.608555 -0.145398 -0.460764 -0.343274 -0.019430 -0.213445 -0.439827 -0.095141 0.492025 -0.150058 -0.440507 0.254051 -0.968354 -0.018988 -0.334104 -1.303368 0.162288 -0.595187
28287 0.403791 0.815153 -0.111664 -0.423357 0.649214 -0.961338 -0.027975 -0.352234 0.275155 -0.685787 -0.365073 0.015395 -0.626321 0.202085 0.195902 -0.589946 -0.481009 -0.708969 -0.764838 0.171373 -0.660618 -0.362812 0.691055 -0.529452 -0.202506 0.481306 -0.143470 -0.384867 0.476990 0.553486 0.000251 0.202237 0.843504 -0.969090 0.239969 0.366475 -0.072078 0.104472 -0.081960 0.087027 -0.097859 -0.186209 0.309653 -0.055387 0.381768 0.357387 -0.149722 -0.169624 0.644237 0.080312 -0.109547 0.079338 0.415942 -0.481457 0.089677 0.564880 -0.088504 0.014034 0.162003 0.272879 -0.357514 -0.095724 -0.145227 0.099913 0.805163 0.180327 -0.028814 -0.254139 -0.283144 0.241479 0.127536 0.350697 0.016295 0.411713 -0.221599 -0.539516 0.093540 -0.329425 -0.367113 -0.052202 -0.770051 -0.077973 0.494147 -0.314964 -0.098345 0.230842 -0.189786 0.312494 0.128133 0.016299 -0.112108 0.342214 0.122285 -0.263921 -0.387557 0.887275 -0.053845 -0.947063 -0.360297 -0.433499
57119 0.617338 0.327338 -0.200672 -0.290582 0.319086 -0.316553 0.635225 -0.420022 0.146942 0.259963 0.053230 -0.314855 -0.113816 -0.258150 0.371743 0.173687 0.605366 -0.542084 -0.436151 0.585224 0.263355 -0.190653 0.343172 -0.119362 -0.144402 0.685330 -0.301704 0.072801 0.451503 0.240658 0.843217 -0.026148 0.168127 -0.577839 -0.227941 0.510039 -0.303551 0.033637 0.240522 0.280077 -0.430370 -0.632837 0.685606 -0.028085 0.058297 0.143901 0.679745 -0.775966 0.818267 0.557505 -0.390802 0.174875 0.415985 -0.652663 -0.386210 0.111389 -0.037058 0.132541 -0.103307 0.010756 -0.325014 -0.553015 0.416167 -0.275903 0.212564 0.040007 -0.148598 -0.233839 -0.315401 -0.112914 0.039982 0.843954 0.137386 -0.347884 0.320981 -0.699219 0.444944 0.811040 -0.498755 0.301883 -0.364395 -0.366977 0.513379 0.132954 -0.130024 0.154298 0.910618 -0.276538 -1.093742 -0.537920 0.333334 0.497377 -0.466717 -0.290439 -0.832869 0.771390 -0.073591 -0.937095 -0.627203 -0.894637
10183 -0.221723 1.038795 0.063928 -0.201794 -0.030897 0.238929 -0.018625 -0.321051 0.489477 -0.617005 -0.679441 0.578009 -1.249304 -0.208185 0.503588 -0.074468 -0.141969 -1.015096 0.192971 -0.101513 0.168200 0.217925 -0.073159 -0.594714 0.249552 0.386104 0.527089 -0.910357 0.177409 0.616704 -0.188005 0.288521 0.201558 -0.486356 -0.451407 0.459951 0.314192 0.121781 -0.200231 0.245426 -0.208084 -0.295413 -0.124403 -0.025682 -0.195957 0.315628 0.204522 0.218453 0.171988 -0.390980 -0.447170 0.634269 1.026561 0.550311 -0.024734 0.716255 0.014397 -0.238657 0.056636 0.546999 0.085856 -1.008176 0.097160 -0.606194 -0.390256 0.150084 -0.340389 0.152065 -0.097313 0.335634 0.086523 0.293340 0.682699 -0.223917 -0.182017 0.090129 0.051185 0.345424 0.237878 0.292195 -0.230076 -0.396050 -0.069912 -0.594500 -0.295014 0.625005 -0.016560 -0.213706 -0.641518 0.095476 -0.173735 0.384503 -1.226204 -0.393246 -0.429610 0.357016 -0.167553 -0.326037 0.013291 -0.306705
16008 0.235860 -0.197491 -0.016679 0.038434 0.324652 -0.028555 -0.001423 0.069877 0.006682 0.046810 -0.466006 0.108883 -0.478791 -0.067558 -0.735717 -0.407399 0.744936 -1.081220 -0.964283 -0.319076 -0.383139 -0.053526 -0.381960 0.048932 0.300653 0.124135 1.062306 -0.481887 0.649058 0.073297 0.043707 -0.647040 -0.422284 -0.296746 0.217016 0.127598 0.037734 0.343001 -0.072857 -0.335358 0.033340 0.008721 0.052572 -0.136493 0.345615 0.360664 0.688145 0.149562 -0.606881 0.480863 0.056577 -0.619447 0.109271 0.303303 -0.526891 0.118776 -0.514791 -0.499675 0.913467 0.685406 -0.053546 -0.526057 -0.243533 -0.392170 0.045358 0.291832 0.167040 -0.404695 -0.159235 -0.276009 0.127837 0.004127 0.545861 -0.220865 0.295860 -0.068965 -0.075668 1.401843 -0.839057 0.085184 0.069255 0.116921 0.135132 0.306641 0.206388 -0.116361 0.150883 -0.605433 -0.853550 -0.068089 -0.358855 0.076664 0.208162 0.396770 -0.382291 -0.083518 -0.741165 -0.856185 0.224299 -0.553917
22229 0.622124 0.522286 -0.076740 -0.566618 0.177946 0.292646 0.168762 0.025796 0.010788 0.186387 0.118352 0.134528 0.098490 -0.168912 0.573151 0.080066 0.228859 0.050545 -0.328624 0.272869 -0.339676 0.044032 0.270850 -0.591269 -0.531322 -0.061177 0.075887 -0.423897 0.580349 1.144970 0.500207 0.437272 0.296499 -0.847846 -0.016733 0.170449 -0.221884 0.113142 0.017363 0.048723 -0.010192 -0.087480 0.063926 0.912578 0.436413 -0.198541 0.538065 -0.613539 0.341176 0.842942 -0.118075 0.257334 0.452223 -0.178154 -0.294087 0.269233 -0.174442 0.400249 0.836219 -0.013004 -0.626156 -0.627028 0.054805 -0.609729 -0.096332 0.200796 -0.709833 -0.512060 0.373001 0.058693 -0.305392 -0.047308 -0.073507 0.071759 0.253113 -0.222006 -0.092205 0.454239 -0.511821 0.399566 -0.249749 0.043830 1.033553 -0.376769 -0.414425 -0.171135 -0.000449 0.101647 -0.615668 0.132758 0.169266 0.148153 -0.119041 -0.922208 -0.090803 -0.153826 -0.427441 -1.132402 -0.306503 -0.832439
6209 0.786418 0.228850 -0.289438 -0.103443 0.460848 -0.138499 0.268400 -0.138518 0.089330 -0.798891 -0.420670 -0.310269 -0.349867 -0.104145 0.145791 -0.579663 0.110024 -0.998770 -0.955514 0.546874 -0.187089 -0.244896 -0.054988 -0.444062 -0.271192 0.831482 0.455642 -0.193495 0.034188 0.055465 0.113411 -0.606831 0.265964 -0.250436 0.355997 0.122279 -0.213480 -0.267452 0.415275 0.614707 0.028635 -0.194914 1.081810 -0.082196 0.153149 0.232160 0.571403 -0.984504 0.517381 0.146374 -0.027367 0.174826 -0.030477 -0.110148 0.506307 0.203120 -0.308661 0.151102 0.175991 -0.421806 -0.216418 -0.031873 -0.005745 -0.434914 0.276755 -0.015899 0.309058 0.087083 -0.502126 -0.365192 0.370850 0.482720 0.197252 -0.370015 0.403760 -0.159050 0.106644 -0.459205 -0.290981 0.246508 0.312528 0.328475 -0.071564 -0.361278 -0.235100 0.534156 0.192762 -0.248331 -0.369714 -0.640398 -0.665532 0.347359 -0.167521 -0.680125 -0.309058 0.658809 -0.129809 -0.674032 -0.617849 -0.222164
108047 0.335279 0.515291 -0.309473 -0.325605 0.630561 -0.127435 0.153852 -0.207022 -0.038766 0.112859 -0.365991 -0.058665 -0.398039 -0.257281 0.148101 0.544120 0.705475 0.168163 -0.316671 0.714768 -0.341214 -0.044676 0.104353 -0.273141 -0.628015 0.180392 -0.135028 -0.428507 0.227720 1.025948 0.094603 -0.026301 0.490705 -0.585793 0.072102 0.447724 0.187265 0.465706 -0.032377 0.271075 0.072533 -0.540632 0.043820 0.185366 0.395597 -0.171193 0.406440 -0.665886 0.529066 0.864558 0.282181 0.075657 0.367784 -0.182748 -0.746673 0.116824 -0.017446 0.364303 0.289159 0.268946 -0.361974 -0.629553 0.618204 -0.344412 -0.165451 0.268839 -0.514900 -0.293348 -0.174050 0.166777 0.159925 0.093114 -0.090635 -0.524908 -0.120063 -0.444959 0.365820 0.569052 -0.480333 0.115541 -0.817226 -0.087820 0.839109 -0.325855 -0.467993 -0.244009 0.161660 0.318739 -0.409518 -0.259887 0.469643 0.643679 -0.596241 -0.854964 -0.538013 0.080777 -0.061717 -0.953772 -0.375682 -0.700799
153063 -0.019260 -0.467903 -0.191574 0.429016 0.103913 -0.327463 0.148954 -0.610810 0.035109 -0.280144 -0.520300 0.115425 -0.336331 0.147978 -0.289480 -0.435418 0.517280 -0.698053 -0.784549 0.774299 -0.724878 0.000985 -0.139929 -0.758719 -0.153667 0.144263 0.099461 -0.643388 0.525172 0.008211 0.214650 -0.433595 -0.034231 -0.014667 -0.256431 0.273422 0.111750 0.179725 -0.727745 -0.306655 0.227517 -0.553320 -0.066236 -0.354649 0.846916 -0.087856 0.279575 -0.370352 -0.119041 0.093817 -0.189489 0.067526 -0.674722 -0.411905 0.040387 0.242366 0.070370 -0.144703 1.161775 0.700712 -0.543197 -1.254843 -0.094556 -0.472593 -0.160816 0.457260 0.409548 0.077407 0.108489 -1.080822 -0.202487 -0.012460 0.527636 0.160021 0.520830 0.089929 -0.363537 0.646881 -0.719022 0.631892 -0.420690 -0.419878 0.575867 -0.285701 -0.206786 -0.141183 -0.378109 -0.205414 -0.344576 0.030323 -0.552772 0.483762 0.140220 0.059551 -0.915476 0.147931 -0.769908 -1.177608 -0.487947 -0.181543
6184 0.479072 0.482022 -0.128546 -0.339720 0.239145 -0.288882 0.302932 -0.049766 0.170744 -0.688737 -0.430189 0.169159 -0.219816 0.062787 0.247924 -0.125832 -0.221455 -0.779363 0.175127 0.122637 -0.683074 -0.177067 0.638377 -0.446829 -0.145782 0.587133 0.576189 -0.110657 0.456712 0.205255 0.236910 -0.694387 0.753829 -0.860772 -0.278120 -0.174671 -0.158790 0.474080 -0.160976 0.009883 -0.076606 -0.004092 0.391831 -0.027445 0.137279 0.749743 0.280883 -0.610821 0.097857 0.246018 0.174095 -0.836983 0.450466 -0.177886 0.181546 0.078827 -0.533979 -0.178033 0.272192 -0.044077 0.149269 -0.026475 -0.116373 0.279187 0.322977 -0.158010 0.396930 -0.620992 -0.120641 0.465071 0.337862 0.108875 0.338198 0.050232 0.090560 -0.760975 0.052120 0.070746 0.203878 -0.318031 -0.581749 0.290783 0.069908 -0.051102 0.070868 0.582186 -0.095854 0.146940 -0.648960 -0.278935 0.312392 -0.214474 -0.169649 -0.188273 -0.118068 0.398992 0.006731 -0.277832 0.014175 -0.245531
205196 0.278410 0.778662 -0.042450 0.408344 0.745234 -0.303469 0.952311 -0.200332 -0.015188 -0.447132 -0.048833 -0.086113 0.409629 0.546209 0.928335 -0.225907 -0.304725 -0.990278 -0.945957 1.106607 -0.190350 -0.111257 0.442532 -0.434408 0.160046 0.423123 0.029637 0.132413 -0.042656 0.347485 0.454855 -0.236099 0.218980 -0.668932 0.089473 0.179275 0.835115 0.867035 -0.026759 -0.793791 0.572108 0.154369 0.798084 0.287711 0.479295 0.263571 1.001749 -0.092817 0.501775 0.265445 -0.571530 0.025161 -0.365507 -0.099207 -0.045216 0.233756 -0.526876 0.078781 0.356779 0.051366 -0.678715 -0.299007 -0.535905 0.031100 -0.036948 -0.040008 0.721183 -0.780794 0.297938 0.356826 -0.154630 0.079402 0.510411 -0.179086 0.562627 -1.112455 -0.635228 0.462560 -0.295070 0.355630 0.107581 -0.027661 0.131117 0.104962 0.233346 -0.293774 -0.201380 0.164846 -1.019873 -0.457060 -0.710051 0.802150 0.303990 -0.118309 -0.331010 -0.442292 0.211372 -0.957008 0.252866 0.084940
6163 0.665062 0.541636 -0.065371 -0.080310 0.725844 -0.545609 0.482257 -0.422577 0.213247 -0.434756 0.176018 -0.226188 -0.600933 0.115311 -0.010853 -0.400250 -0.128769 -1.195930 -0.429592 -0.040724 0.106237 -0.341114 0.517584 -0.687419 0.335622 0.098614 0.445727 -0.319390 0.575271 0.366816 0.559087 -0.384247 0.771666 -0.380697 0.037160 0.196863 -0.086778 0.123937 -0.476957 0.643360 -0.182680 -0.511892 -0.046430 -0.259400 -0.278287 0.191345 0.209778 -0.136194 0.180915 -0.268472 -0.704211 -0.144180 0.591670 -0.402521 -0.134440 0.314957 -0.361852 0.603825 0.126882 0.441344 -0.067813 -0.443172 -0.549341 -0.098808 0.245614 0.717606 0.161610 -0.798232 -0.266168 0.054141 0.132548 0.176498 0.384718 -0.210890 -0.365954 -0.640044 0.120192 0.097258 -0.194098 0.196667 -0.537924 0.606392 0.110643 0.584257 -0.265398 0.584783 -0.135427 -0.317369 -0.556644 -0.001402 -0.308452 0.590641 -0.350653 -0.114933 -0.545392 0.738858 -0.132250 -0.726329 -0.924417 0.044801
77438 0.270896 0.238404 0.025529 0.037707 0.023026 -0.057945 -0.241645 0.407859 -0.299687 -0.240943 -0.110016 -0.508181 -0.473165 -0.142600 0.100692 -0.369026 0.025847 -0.614188 -0.801740 0.149435 -0.033083 -0.041217 0.174075 -0.966331 0.009006 0.168757 0.706485 -0.231959 0.579203 0.805847 0.410296 -0.618575 -0.071110 -0.216249 -0.305700 0.164868 0.116934 0.439682 -0.581478 0.245274 0.103797 -0.130979 0.386893 -0.329975 0.148857 0.930579 -0.120479 0.256459 0.016643 -0.018468 -0.324404 0.126158 0.183231 0.222176 -0.033057 -0.114369 -0.679907 0.246129 0.642718 0.842542 0.167417 0.232860 -0.409653 -0.527808 0.706422 0.486604 0.274527 0.333745 -0.139033 0.140649 0.353197 0.420987 0.896856 -0.506861 0.063222 -0.647673 0.355916 1.095027 -0.605658 0.025326 0.136993 -0.033886 0.242517 0.101727 -0.327440 0.252548 0.362822 -0.478180 -0.882098 0.167166 0.264893 -0.201223 -0.166310 0.569332 -1.113147 0.211783 -0.751285 -1.047660 0.175436 0.328165
84021 -0.042591 0.333147 0.627850 0.550202 0.609604 -0.254427 0.602603 -0.325095 0.310680 0.011735 -0.200079 -0.116808 -0.936045 -0.270791 0.798406 0.165624 -0.126524 -1.117395 -0.038389 0.284194 0.204039 -0.118276 0.073550 -0.251774 -0.340668 0.520799 -0.200584 -0.399799 -0.198088 0.253064 0.041448 0.520012 0.208809 -0.657357 0.446155 0.153308 -0.364707 0.653492 0.761594 0.245777 -0.168035 -0.685475 0.039596 0.542055 0.402684 -0.279113 1.070709 -0.827522 0.419959 0.360403 0.023364 -0.057871 0.097522 -0.307231 -0.244425 0.508173 -0.113484 0.206744 0.289989 -0.279673 0.117504 -0.752802 0.374530 -0.003560 0.171713 -0.301925 -0.119997 -0.276645 -0.434082 -0.456464 0.249649 0.602092 0.323315 -0.553343 -0.085222 -0.031295 0.592268 -0.122067 -0.334176 0.049643 -0.212126 -0.001475 0.753786 -0.338538 -0.468566 -0.607402 -0.092556 0.032104 -0.538890 -0.100973 -0.431734 0.355620 -0.391288 -0.631939 -0.233167 0.207033 0.144661 -0.424184 -0.072945 -0.266070
10798 -0.212041 0.841532 -0.216882 -0.017813 0.192780 0.024674 0.075632 -0.272253 0.309036 -0.767013 -0.923006 0.550685 -0.970793 0.079832 0.278026 -0.261678 -0.425491 -0.615895 0.138025 0.218692 0.035035 0.250834 -0.028846 -0.505663 -0.236827 0.100457 0.264202 -0.440454 0.390509 0.597808 -0.214923 -0.402831 0.233204 0.230755 -0.306064 0.330220 0.302406 0.330237 0.021412 0.439961 -0.230207 0.097061 -0.518322 -0.298923 0.129335 0.134547 0.213657 -0.303151 0.206352 -0.241122 -0.338804 -0.116479 0.968706 0.420879 0.315164 0.752969 -0.394931 -0.009324 -0.173489 0.548016 -0.052992 0.072712 -0.302402 -0.775085 -0.634238 0.488892 -0.052089 0.131059 0.043748 0.336580 -0.035895 -0.035749 0.727683 -0.012905 0.075103 -0.416003 -0.069773 0.299882 0.299381 0.349609 -0.278760 -0.057049 -0.071600 -0.740322 -0.013665 0.071878 -0.160045 0.653930 -1.173707 -0.245224 0.067832 -0.018923 -0.722448 -0.120480 -0.309698 0.525252 -0.270838 -0.670500 -0.361890 -0.305189
45605 0.508303 0.207212 0.076063 0.000724 0.131982 -0.290400 0.286559 -0.523933 0.133591 -0.346850 -0.154836 -0.251050 -0.063227 -0.332173 0.224475 -0.055201 -0.094501 -0.135403 -0.149344 0.741810 -0.572282 0.308287 0.125825 -0.402831 0.041403 0.748776 0.694037 -0.261780 0.411012 0.772958 0.587594 0.628537 0.091753 -1.066776 0.278509 -0.114769 -0.338689 0.566146 -0.252950 -0.051660 -0.207136 0.084635 0.211231 0.900631 0.168846 -0.078819 1.119833 -0.339392 0.567010 1.208551 0.298191 -0.138516 0.479741 -0.289476 -0.170053 0.192990 0.228601 0.339164 0.268748 0.053130 -0.711535 -0.735311 0.159287 -0.121406 0.531073 -0.560340 -0.044865 -0.190970 0.464699 0.782700 -0.294021 -0.190923 -0.115954 0.041292 -0.047463 -0.227347 0.292103 0.349225 -0.207125 0.407352 0.122238 -0.112106 0.473309 -0.228927 -0.084706 0.222034 0.257627 0.232501 0.258303 -0.234510 0.330063 -0.164947 0.147810 -0.065647 -0.097090 0.263783 -0.375631 -0.500189 -0.142005 -0.769567
56115 -0.131561 0.800650 0.110424 -0.081170 0.223416 -1.114064 -0.056222 -0.436798 0.154256 -0.285165 -0.152312 0.245251 -0.750639 0.488526 0.567840 -0.675204 0.060729 -0.842368 -0.261340 0.286107 -0.512927 -0.294553 0.296431 -0.471955 -0.143852 0.395062 -0.473140 -0.509936 0.633644 0.456583 0.250524 0.677343 0.579163 -0.530915 0.240268 0.699552 0.505661 0.158404 0.202455 0.344726 -0.073214 -0.277299 0.298518 -0.095587 0.580620 -0.315650 0.401703 -0.059884 0.555858 0.061565 -0.362201 0.484866 0.193459 0.103603 -0.335612 0.271865 -0.497183 -0.054931 -0.158066 -0.169491 -0.181694 -0.297778 -0.119163 -0.553247 0.036024 0.079818 -0.340089 0.001583 -0.036642 -0.064844 0.520569 0.850940 0.137708 0.230299 0.468326 0.160952 -0.113911 -0.031448 -0.490467 -0.103071 -0.303696 -0.420323 0.710132 -0.458458 -0.632512 -0.540732 -0.286112 0.098420 -0.519669 0.192038 0.259048 0.391503 -0.349472 -0.653907 -0.393806 0.476920 -0.277426 -0.874390 0.049015 -0.456189
12330 0.881778 -0.034239 0.357112 -0.170732 -0.112001 -0.132800 0.499771 -0.761663 -0.072957 -0.404401 -0.026265 0.012100 0.006296 0.721220 -0.252317 0.244167 -0.167502 -0.176061 -0.996648 0.462766 -0.518246 -0.255688 -0.106348 -0.646056 -0.459563 0.079154 1.348191 -0.524462 -0.066901 0.439705 -0.004310 -0.332250 -0.275994 -0.723530 0.459970 0.016880 0.501595 0.753297 -0.802853 -0.138701 0.374450 -0.444616 -0.021679 0.305526 0.236440 0.447741 1.021857 -0.432714 0.368483 0.430678 -0.351559 -0.425157 -0.149513 -0.434526 0.573421 0.112965 0.223087 0.506121 0.087676 -0.071225 -0.224671 -0.491158 -0.701334 -0.053544 -0.107891 -0.039379 1.105884 -0.006333 0.116571 0.279598 0.219002 0.006500 1.054842 -1.317525 0.252372 -0.843749 0.024845 0.362152 0.527329 0.207201 0.172480 0.167645 0.113371 0.183488 0.340331 -0.448749 0.123137 0.188495 -0.860590 -0.224842 -0.161599 -0.175598 -0.249131 0.122993 -0.184223 -0.348554 -0.285606 -0.448684 0.180621 0.269412
8594 0.206089 0.437958 0.436589 -0.198407 0.511033 -0.120292 1.061612 -0.421885 -0.143530 -0.453859 -0.554619 -0.466652 -0.785831 -0.225632 -0.448308 -0.170476 0.073568 -0.994574 -0.424759 0.378098 -0.058462 -0.449987 0.321835 -0.414469 -0.406761 -0.209458 0.309817 -0.878454 0.300710 0.707349 0.354038 -0.164001 -0.188828 -0.631776 -0.340720 0.324689 0.319727 0.477385 -0.613181 -0.090325 0.449942 -0.061305 0.532030 0.279682 0.643127 -0.452516 -0.034065 -0.795959 -0.756109 0.574322 -0.054529 -0.694438 -0.479339 -0.026271 -0.271141 0.329092 0.298856 0.296958 0.062992 0.196979 -0.889025 -0.010260 -0.585368 -1.005818 -0.150928 -0.076509 0.207965 -0.279961 0.418323 -0.065444 -0.255117 -0.000089 1.111673 0.077704 0.061046 -0.082053 -0.007083 0.082021 0.257318 0.393355 -0.251709 -0.791863 0.923530 0.388972 -0.478619 0.267329 -0.078619 -0.314506 -0.261407 0.050166 -0.038715 0.630208 -0.036564 0.105633 -0.934699 0.049854 -0.419322 -0.759989 -0.318843 0.406560
32083 0.520180 0.180588 0.094385 -0.049528 0.292031 -0.210904 -0.331302 -0.567910 0.111454 0.126324 -0.561405 -0.077852 -0.179645 -0.279165 -0.096846 -0.196090 -0.405357 -0.153690 0.161964 0.226175 -0.623727 0.189612 -0.288950 -0.460203 0.116795 0.450827 0.843364 -0.375532 0.206129 0.469225 -0.241595 0.078221 0.001440 -0.852461 0.311587 0.029142 -0.063925 0.558196 -0.163992 0.047426 -0.584652 0.286549 -0.153261 0.762998 0.224468 -0.093133 1.173484 -0.185832 0.638991 0.850029 0.413655 -0.311201 0.971873 0.152740 -0.080878 0.270016 -0.280321 0.563454 0.183820 0.132970 -0.444503 -0.549823 -0.451235 -0.199042 0.052688 -0.252055 -0.046840 0.072647 0.416431 0.645243 0.144934 -0.430438 -0.277015 0.314025 0.220403 -0.147322 0.063804 0.112279 -0.325122 -0.067280 0.048037 0.314349 0.198558 -0.609981 0.104775 0.206595 0.205063 0.507556 0.020430 -0.237012 0.206559 -0.093478 0.263273 -0.175541 -0.018450 0.147292 -0.485836 -0.571420 -0.282782 -0.539714
103515 0.474832 0.632417 -0.160285 -0.192055 0.260718 -0.178844 0.482777 -0.443027 -0.307387 0.316485 0.313181 -0.341425 0.026272 -0.185264 0.167731 0.012285 0.312246 -0.387861 -0.202166 0.918276 -0.726472 -0.179878 0.045918 0.070675 -0.867669 0.520731 -0.393035 -0.325107 -0.025978 0.858587 -0.075008 0.448220 0.128786 -0.261666 0.401019 0.285489 0.175825 0.203939 0.095199 0.131484 -0.108170 -0.827397 0.669698 0.236154 0.740932 -0.118180 0.940728 -0.557794 0.939970 0.852688 -0.159075 0.138801 -0.263276 -0.400616 -0.304787 0.114678 -0.119489 0.116843 0.261329 -0.052063 -0.590179 -0.454749 0.607834 -0.549188 -0.034350 0.071811 0.135085 0.031811 -0.009349 -0.359723 0.119536 0.291368 0.222904 -0.475949 0.298049 -0.571194 0.180403 0.287213 -0.532379 0.471223 -0.187769 -0.516824 0.931124 0.068845 -0.369726 -0.755484 0.197786 0.012338 -0.202557 -0.155587 0.196347 0.798708 -0.073904 -0.846833 -0.010361 0.075801 -0.485822 -0.976434 -0.148792 -0.545074
3192 0.471709 -0.517077 0.310391 0.435041 0.544219 -0.025492 -0.059595 0.096727 0.126533 0.198211 -0.176552 -0.088033 -0.372655 -0.518604 -0.454733 -0.182370 0.495836 -0.717954 -1.054971 -0.119754 -0.547885 -0.053358 -0.436563 0.145452 0.088299 0.124091 0.516060 -0.420496 0.438276 0.120184 0.090595 -0.662605 -0.209530 -0.237625 0.085923 0.197959 0.095782 0.287485 -0.358495 -0.303693 -0.087845 -0.090458 -0.094759 -0.203130 0.662808 0.041954 0.913425 -0.113875 -0.357104 0.556692 0.136203 -0.355727 -0.089459 0.291685 -0.164533 0.059052 -0.555652 -0.423962 1.126852 0.756678 0.209188 -0.723063 -0.591279 -0.300402 0.002357 0.125515 0.349416 -0.204398 0.114343 -0.701354 -0.252288 0.044897 0.530444 -0.028618 0.326264 -0.157471 0.107643 1.242652 -0.593923 0.259269 0.069201 -0.184192 0.180695 0.361002 0.041083 -0.014401 0.063660 -0.054073 -0.797710 -0.070977 -0.364525 -0.062961 0.490391 -0.060938 -0.491726 -0.093154 -0.794819 -1.200318 0.044656 -0.446118
25702 0.251141 0.747033 0.051496 -0.038825 0.019677 -0.481422 -0.038567 -0.429938 -0.316076 -0.628693 0.722949 -0.684617 -0.057308 -0.037924 0.044390 -0.050553 -0.568756 -0.327972 -0.350890 0.224923 -0.502051 -0.054776 0.342157 -0.262355 -0.351586 -0.002250 0.483711 0.145889 0.221147 0.200087 0.185358 -0.589335 -0.199995 -0.977527 0.501289 0.344705 -0.301651 0.122319 0.259426 -0.363306 -0.668556 -0.696060 0.327067 0.369630 0.209419 0.250337 0.849876 -0.264053 0.150723 -0.327110 -0.586565 -1.035677 -0.217377 0.005449 -0.068000 -0.063419 -0.107571 -0.274076 0.627466 0.449089 -0.365265 -0.421301 -0.140815 -0.661036 -0.477808 0.374739 0.365530 -0.200669 -0.022366 0.272359 -0.421920 0.033244 0.048412 -0.174051 0.086205 -0.671710 -0.429408 0.540385 -0.048860 0.074279 0.120160 0.006989 0.497645 0.021322 -0.238410 -0.240678 0.090126 -0.077501 -0.333003 -0.150222 -0.359111 0.188358 -0.490078 -0.133365 -0.005237 -0.315051 -0.664830 -0.603768 0.243298 -0.086225
8875 0.611365 0.418955 -0.068326 -0.136185 0.219401 -0.332492 0.509527 -0.351141 0.097072 -0.443370 -0.232421 -0.413698 -0.280078 -0.204492 0.531777 -0.280680 0.243140 -0.996064 -0.669272 0.612248 -0.173064 -0.255436 0.085655 -0.362864 -0.239087 0.862207 -0.200566 -0.563897 0.145374 0.145534 0.345216 0.306197 0.227048 -0.493950 0.174390 0.393960 -0.282359 -0.273942 0.364278 0.451344 -0.291468 -0.443416 0.897330 0.069366 0.271715 0.010682 0.773492 -0.824101 0.894116 0.466923 -0.345900 0.616399 0.047799 -0.510116 0.248801 0.210793 -0.139414 0.213336 -0.010273 -0.456870 -0.362459 -0.556576 0.195783 -0.424397 0.360108 -0.347431 -0.109717 0.011469 -0.224263 -0.245051 0.452612 0.763308 0.101923 -0.260378 0.702134 -0.103909 0.332575 -0.076668 -0.587707 0.234339 0.175647 -0.233840 0.470160 -0.260230 -0.361643 0.294991 0.230556 -0.314952 -0.295871 -0.379899 -0.146693 0.582570 0.008976 -0.570207 -0.239934 0.709208 -0.134722 -0.963521 -0.506646 -0.549258
1959 0.041673 0.723556 0.328785 -0.125800 0.577681 -0.521579 0.219420 -0.227902 -0.126397 -0.668672 0.245425 0.340632 -0.849470 -0.067537 0.779033 -0.242339 0.298550 0.169274 -0.084712 0.454849 -0.347725 -0.116704 -0.196501 -0.680657 0.280612 0.685071 0.290720 -0.276828 0.687168 0.593569 0.574990 0.609776 -0.227202 -0.598383 -0.178967 0.383689 0.135759 -0.098384 -0.352030 0.078098 0.518584 0.348384 0.210297 0.135328 -0.212344 0.028639 0.224255 -1.027868 0.254596 0.581716 -0.822650 -0.420936 0.485132 -0.108428 -0.130308 0.124689 -0.723327 0.575703 -0.005719 0.866968 0.441773 -0.018497 -0.263709 -0.241411 -0.322368 -0.127264 -0.070757 -0.094255 0.434564 -0.313915 -0.138309 0.396835 0.857728 0.036062 0.005790 -0.280683 -0.274665 0.187441 -0.223552 0.952884 0.145969 0.065574 0.036883 0.344326 -0.247458 -0.548411 0.169761 -0.380467 -0.490041 -0.249472 -0.296215 0.074361 -0.234452 -0.413148 -0.197038 0.895515 -0.783210 -0.725615 -0.306112 -0.713556
6818 -0.004153 0.635277 0.169963 -0.148878 -0.099093 0.192089 0.313152 0.240960 -0.092016 -0.273747 0.208144 -0.300497 -0.036639 0.233188 -0.346098 -0.705944 0.326339 -0.908944 -0.929563 -0.025749 -0.527466 0.218034 0.036187 -0.561551 0.064352 0.100058 0.940987 -0.392219 0.576106 0.359605 -0.234440 -0.600085 -0.007482 -0.642902 -0.045332 0.310288 0.190566 0.354246 -0.173597 -0.046065 0.370497 -0.233289 0.652974 -0.053798 0.016754 0.742738 0.272642 -0.006810 -0.341367 0.258317 -0.161475 -0.713315 0.044750 0.528219 0.030733 -0.059218 -0.033777 -0.402677 0.262203 0.513425 -0.067997 -0.070367 -0.138234 -0.452978 0.500685 0.463534 0.205812 -0.129952 -0.028224 0.275558 0.042402 0.137847 0.331888 -0.427347 0.319657 -0.601040 0.068155 1.357529 -0.381246 0.304185 0.400166 0.010236 -0.057763 0.035331 0.221974 0.152640 0.385148 -0.795419 -1.032023 -0.356132 -0.098863 -0.182358 -0.588336 0.773654 -0.583042 0.044142 -0.281107 -0.547911 0.189429 0.264356
