2708 100
739816 -0.18279 -0.432826 -0.312696 -0.124525 0.265625 0.399701 0.0241899 -0.150071 0.43164 -0.134089 0.0940007 -0.000312556 0.0285785 -0.149931 0.1157 -0.221145 -0.312289 0.388983 0.0917696 -0.201126 0.0191328 0.237735 -0.432259 0.263594 0.462784 -0.140975 -0.679663 -0.0729143 0.000508267 0.0389232 -0.245399 -0.0360228 -0.492577 0.0695057 -0.0632154 -0.211964 0.00656342 0.153763 0.145678 0.0356517 0.343943 -0.169816 0.436311 0.413354 -0.041983 0.280217 -0.165027 0.0759858 -0.468455 0.187576 0.189448 0.476885 -0.268058 0.496581 -0.0616701 0.301877 -0.169549 -0.11415 0.106786 -0.277883 -0.101003 -0.0474858 -0.500424 -0.00943041 0.143204 0.333782 -0.0867223 0.192877 0.230958 0.215407 -0.290944 0.108326 -0.645355 -0.252 -0.205668 0.0431036 -0.0160849 -0.116858 -0.00297455 0.0851093 0.448666 0.0433802 -0.174129 -0.000267193 0.0234284 -0.364277 0.116541 0.665431 -0.0555104 -0.28538 0.0608795 0.0522642 0.0549456 0.468091 0.0041971 0.370554 0.150113 0.0679442 -0.00847264 0.0497343
1108167 -0.0677964 -0.266813 -0.266463 -0.242646 -0.183929 -0.344742 0.0636526 -0.129106 0.206149 0.177781 -0.126719 0.103595 0.230579 -0.375598 0.162985 -0.318481 -0.480962 0.0937169 0.228939 -0.464991 -0.394123 0.0934406 -0.619281 0.0168705 0.261428 0.236533 -0.0226662 -0.141549 -0.09992 -0.121127 0.117482 0.111364 -0.48526 -0.171972 0.0322175 -0.507627 0.156286 0.0449615 -0.103534 0.0687667 0.574775 -0.326068 0.653983 0.0422103 -0.506126 -0.0221418 -0.155375 -0.0941023 -0.285532 0.354835 0.350002 0.241379 0.0105755 0.477357 -0.104252 0.515428 -0.197645 0.0112199 0.3368 0.247174 0.33199 0.227052 -0.493934 -0.216029 0.152124 0.290795 -0.235021 0.118153 0.151455 0.54256 -0.151434 0.278282 -0.382686 -0.42506 -0.193875 0.0401755 -0.217297 0.0706487 0.0381413 0.257222 -0.118441 -0.30856 -0.223641 0.147868 -0.0608189 -0.180558 0.120843 0.30996 -0.111012 -0.389351 0.0389977 0.0333823 -0.191312 0.203035 0.180084 0.149796 0.0593418 0.11087 -0.0287855 -0.022017
46547 -0.193621 -0.400629 -0.550957 -0.181093 -0.196135 0.359094 -0.0206976 -0.112224 0.311315 0.349088 0.0210151 0.0486389 0.184504 -0.190002 0.221566 -0.15862 -0.371101 0.00093375 0.577623 -0.20619 -0.4271 0.0164963 -0.503595 -0.0120369 0.417521 -0.0290236 -0.258111 -0.228345 -0.0153107 0.0156075 0.0484298 0.145553 -0.39203 -0.161986 0.36185 -0.268135 -0.245683 -0.15548 0.0494899 0.216441 0.448205 -0.338615 0.765367 0.471258 -0.477893 0.286622 0.0248053 0.0248575 -0.132493 0.281247 0.168512 0.0564703 -0.102002 0.304647 -0.117408 0.259772 -0.400407 0.0586504 0.422733 -0.130711 -0.0198119 0.326263 -0.50174 0.0381299 -0.153561 0.0841737 -0.443885 0.212381 -0.00838978 0.36639 -0.14165 0.209195 -0.620477 -0.515109 -0.232968 0.0635687 -0.0758277 0.112263 0.0808495 0.0330342 0.143191 -0.0998538 -0.393904 -0.0583737 -0.0434925 -0.174295 0.21954 0.464597 0.312683 -0.272756 0.0227545 -0.210633 -0.171494 0.337258 0.171058 -0.0394042 0.193551 0.191627 0.234663 0.157303
141160 -0.258921 -0.525156 -0.353118 0.00147356 0.0496239 0.180463 -0.148851 -0.292346 0.305246 -0.150591 -0.297002 -0.0685451 0.252851 -0.355701 0.107498 -0.242368 -0.367465 0.288786 0.0113516 -0.579365 -0.14755 0.200143 -0.469499 0.103199 -0.00313537 -0.157079 -0.347481 0.190668 0.0715203 0.129267 -0.089555 -0.0811965 -0.400453 0.0386996 -0.220025 -0.300286 -0.0665058 -0.0443308 0.0132334 0.0845425 0.293888 -0.0135363 0.540276 0.161274 -0.15903 -0.252309 -0.190338 0.156138 -0.550027 -0.150445 0.0236978 0.535528 -0.122311 0.230408 -0.0510079 0.223014 -0.167592 -0.293827 0.0854183 0.138094 0.175984 0.187833 -0.359745 -0.39429 0.232358 0.23629 -0.124872 0.0224291 0.00198445 0.421844 -0.217033 0.0600252 -0.586139 -0.41237 -0.211898 0.0564405 -0.126991 -0.108275 -0.264256 -0.107169 0.130249 -0.214165 0.18085 0.169135 -0.124676 -0.375299 0.161834 0.480385 -0.239196 -0.11129 -0.00144938 0.0244016 0.0425955 0.192336 0.161526 0.190131 0.0157019 -0.0843146 0.307363 -0.126809
68115 0.19278 0.0100565 -0.101395 0.0875854 -0.0341115 0.210803 0.0890469 -0.139713 0.304053 0.00338053 0.217985 0.183703 0.034817 0.0318766 -0.0124278 -0.0011527 0.0880575 -0.113809 0.1888 0.290135 0.0946795 0.066354 0.00511086 0.00365305 0.199268 -0.226972 -0.0863234 -0.175545 -0.066507 0.0643533 0.00426993 -0.128236 0.00510577 0.110233 0.384421 0.0293366 -0.0553619 0.0948585 -0.0229785 0.0448275 -0.0540626 -0.102124 -0.0496686 0.334497 -0.105165 0.110523 0.0066064 0.177767 0.105306 0.117229 -0.0583586 -0.0522688 -0.284005 0.0153923 -0.0344359 0.162086 0.0861679 0.194553 0.170689 -0.324434 0.0837787 -0.124339 0.114592 0.177002 -0.321421 0.0604131 -0.0691139 -0.051483 0.187768 -0.085628 0.0434551 0.0467899 -0.0150397 -0.161996 0.0488936 -0.144153 0.0129467 0.203238 0.0108394 -0.0543822 0.40145 0.242406 0.156097 -0.203362 0.0619081 0.19718 0.0930495 -0.129059 0.34078 -0.030502 0.186226 -0.119735 -0.0688026 -0.00443687 0.0136578 -0.186555 0.262044 -0.0718076 0.20566 0.33393
1113852 -0.12804 -0.179435 -0.168914 0.234705 0.204122 0.159748 0.0874744 0.00591486 0.0675703 0.0181114 -0.171071 0.12557 0.316763 -0.187307 0.313588 -0.0735953 -0.209122 0.310161 0.519433 -0.325054 0.0176475 -0.0685453 -0.307306 0.0518217 0.045623 0.0213654 -0.402462 -0.146405 0.0684769 0.177512 0.0394618 0.0456911 -0.433666 0.104943 0.0494419 -0.413952 0.0167155 0.0907236 0.0584373 -0.0160025 0.0477353 -0.132 0.37009 0.222428 -0.20939 0.267068 -0.0123934 0.0399471 -0.218243 0.0959055 0.0436367 0.430846 0.0137825 -0.106065 -0.0566297 0.177257 0.00932639 -0.151089 0.0933899 -0.281812 0.0567102 0.393521 -0.47413 0.159819 0.0333663 0.268383 -0.383021 -0.0857036 0.0974754 0.171259 0.236217 0.141527 -0.129168 -0.388053 -0.391293 0.0773215 -0.0343948 0.105758 -0.0736973 0.0477453 0.0546241 -0.103439 -0.082609 0.0792996 0.212988 -0.161439 0.0663148 0.221544 0.218145 -0.204894 0.193043 0.156803 0.0715555 0.093117 0.146704 0.131623 0.0982013 -0.101798 -0.0212734 0.0953095
576973 -0.301419 -0.168866 -0.0912449 -0.0933989 0.041081 0.077418 0.123386 -0.0153475 0.125271 0.0348689 -0.144504 -0.190175 -0.0417211 -0.302136 0.141547 -0.472012 -0.375889 0.132272 -0.04382 -0.551921 -0.378799 0.205206 -0.347848 -0.0294366 0.0942857 0.0916637 -0.259287 0.0430102 0.0903043 -0.145248 -0.0339078 -0.0209362 -0.342621 -0.0772901 -0.198505 0.00753549 -0.0722807 -0.114157 0.328286 0.119114 0.42156 -0.105615 0.127844 0.0380476 0.039753 -0.0676563 -0.0480544 -0.0752826 -0.181723 -0.127054 0.22672 0.291379 0.190693 0.206214 -0.147414 0.312041 -0.098496 -0.293713 -0.0608757 0.170698 0.122236 0.0940937 0.0141504 -0.394123 0.244994 0.260907 0.085581 0.0416096 0.145673 0.312738 -0.242656 -0.00597404 -0.248315 -0.0300982 -0.132455 0.178178 -0.129857 -0.346323 -0.125513 0.0154673 -0.271194 -0.389779 0.0586271 0.151431 -0.237887 -0.173697 0.183568 0.51276 -0.243343 -0.181344 0.124229 0.132714 0.0325047 -0.235415 0.0210883 0.0863745 -0.0329705 0.266591 0.199475 -0.11107
578365 -0.160215 -0.287849 -0.146296 -0.06193 -0.0571867 0.112221 -0.0619113 -0.218597 0.205159 0.0196086 -0.2255 -0.0916324 0.344955 -0.0770267 0.0343053 -0.0282476 -0.224408 0.200175 0.116945 -0.341714 -0.0209457 0.061752 -0.389197 0.205921 -0.0695255 0.00581739 -0.396766 0.232767 -0.0839925 0.103145 -0.0876927 0.0278653 -0.198444 -0.0711216 -0.0956239 -0.325615 -0.0629726 -0.0230053 -0.0257261 -0.0185782 0.135296 -0.118838 0.482838 0.0487373 -0.106753 -0.0305909 -0.156501 0.163761 -0.292943 0.0853854 0.0160563 0.180029 -0.280114 0.197484 0.0316395 0.302264 -0.110929 0.0108661 0.0476397 0.0457784 -0.00135438 -0.016799 -0.271425 -0.0424853 0.0456636 0.0217226 -0.0563817 0.0764628 0.0176151 0.17019 -0.0453354 0.0527759 -0.262173 -0.264295 -0.00823671 -0.0550815 -0.105623 -0.0292129 -0.0971294 0.0097195 0.111703 0.000969631 -0.0309809 0.155679 0.0446155 -0.18283 0.0725292 0.283688 -0.0429881 -0.0367375 -0.181246 -0.121641 0.0305612 0.279944 0.0654376 0.253088 0.00938074 0.138697 0.0549522 0.00626349
434 -0.251077 -0.373469 -0.139387 0.122692 0.0734422 0.275319 0.157133 -0.296677 0.263468 -0.00836972 -0.0464006 0.112867 0.174554 -0.314874 0.0853289 -0.368077 -0.288649 0.0252124 0.256757 -0.358549 0.00317291 0.191414 -0.253456 -0.0799048 0.0273017 -0.234114 -0.569705 -0.106399 0.25551 0.182893 -0.132269 0.00555543 -0.380682 0.136101 0.143771 -0.10275 0.0175614 0.00962726 0.129647 0.0873909 0.1321 -0.149804 0.0769063 0.323144 -0.0142917 0.0749535 -0.0120192 0.0341671 -0.219831 0.0108632 0.0206165 0.352497 -0.0785351 -0.0452626 -0.0132058 0.0347048 -0.104422 0.00227998 0.194312 -0.227091 0.00756652 0.0946856 -0.0819025 -0.184604 -0.10744 0.40633 -0.0288052 -0.0370631 0.106973 0.013663 -0.185342 0.0505428 -0.384108 -0.0171007 -0.360697 0.0744791 -0.140617 -0.0729871 -0.159167 -0.0816307 0.235166 -0.311657 0.153811 0.176862 -0.211646 -0.16871 0.375744 0.401635 0.069944 -0.234062 0.20053 -0.0135387 0.130879 -0.0530019 -0.0357486 0.0563404 0.209889 -0.0188773 0.127908 0.139653
126927 -0.374332 -0.349127 -0.0995857 0.151734 -0.114748 -0.217795 0.164567 -0.269876 0.13752 0.00291449 -0.430399 0.0505775 0.270232 -0.453505 0.23417 -0.27719 -0.389457 0.0280568 0.271882 -0.659294 -0.433066 0.117842 -0.674719 0.15302 0.141422 -0.00731751 -0.435745 0.00994227 0.0150956 -0.0841466 0.140727 -0.0461393 -0.626085 -0.080527 -0.212854 -0.381749 0.157809 0.202338 -0.120849 -0.13185 0.573037 -0.270542 0.673353 0.00345072 -0.320537 -0.14911 -0.00915536 0.00304843 -0.424929 0.25461 0.177628 0.484151 0.134255 0.326555 0.110227 0.519702 -0.136708 -0.0680591 0.433211 -0.0293045 0.278771 0.260507 -0.206517 -0.198982 0.0944771 0.451878 0.139965 0.0668056 0.174435 0.45413 -0.0764082 0.142904 -0.0784713 -0.175953 -0.247416 0.182693 -0.301884 0.0388568 -0.208505 0.417702 0.129468 -0.370453 0.170301 0.39182 -0.192716 -0.200927 0.0650732 0.437005 -0.285834 -0.119646 -0.0232904 -0.0256326 -0.112236 0.215164 0.03982 -0.0135102 0.157961 0.304285 0.109101 0.00844433
662250 -0.29434 -0.335327 -0.0618987 -0.161455 -0.123304 0.472724 0.110687 -0.290261 0.211664 0.0231754 0.00285782 -0.0778016 0.0301402 0.0399752 -0.0700756 -0.314893 -0.325491 0.173578 0.0161188 -0.305686 -0.0211015 0.203238 -0.326882 -0.101716 -0.204673 -0.0490653 -0.696816 0.23911 0.209531 0.232248 -0.349776 0.109921 -0.309499 -0.0730862 -0.113664 0.0460935 -0.0645405 -0.280612 0.283354 0.10758 0.391044 -0.017496 0.319479 0.0559115 0.125335 0.128715 -0.0604397 -0.034606 -0.238754 -0.146051 0.126214 0.222912 -0.196848 0.371796 0.076044 0.0616451 -0.239492 -0.0363416 -0.0150512 -0.00106102 -0.166797 -0.00412978 0.0633352 -0.350468 -0.0687228 0.0685316 0.169821 0.230718 0.122745 0.0687842 -0.431007 0.0019738 -0.75097 0.145713 -0.174173 0.0953584 -0.23546 -0.210968 -0.0822768 -0.0154535 -0.0146907 -0.238323 0.0091465 0.111486 -0.133453 -0.156987 0.254213 0.477178 0.0725853 -0.119702 -0.188577 -0.04013 0.0437239 -0.0525724 -0.0580543 0.215577 0.229284 0.0489835 0.0755911 -0.00167493
646357 -0.119604 -0.0781289 -0.110121 -0.106087 -0.334457 -0.332285 0.150587 -0.176403 -0.235616 0.371069 -0.483655 -0.114618 0.410049 -0.146577 0.215614 -0.176264 -0.114067 -0.00668826 0.261661 -0.705476 -0.596672 -0.0485239 -0.461595 -0.139897 -0.294045 0.312328 0.0409593 0.0799862 0.207913 -0.145373 0.0966818 0.159288 -0.266005 -0.146708 -0.35631 -0.556182 0.191331 -0.128417 -0.0266798 -0.0957604 0.392953 -0.0156683 0.452897 -0.214118 -0.339324 -0.0742813 0.0221307 -0.0651727 -0.137346 0.0902524 0.197611 -0.0663436 0.276682 0.170455 -0.0684939 0.276107 -0.0784983 -0.143298 0.0494099 0.537192 0.232648 0.383809 -0.0350171 -0.190621 0.174042 -0.0414085 -0.0987163 0.0293085 0.141084 0.248061 0.164028 0.0923617 -0.00375705 -0.198115 0.0794984 0.0409452 -0.208077 0.0398027 -0.322622 0.224747 -0.435949 -0.464755 0.0528841 0.381683 0.0222567 0.0225456 -0.0861125 0.201971 -0.0709464 -0.0986985 -0.111469 0.0977111 -0.117818 0.0293815 0.0258862 -0.0739816 -0.0123724 0.169111 0.0981344 0.106183
82920 -0.0872463 -0.114636 -0.0897499 0.0244913 0.0124418 0.0616346 0.0621809 0.0898823 0.110295 -0.0217101 0.0507574 -0.0606631 -0.0953264 -0.0480544 0.00522649 -0.228764 -0.120124 -0.0754804 -0.108253 -0.189713 -0.122035 0.241675 -0.0356714 -0.125079 0.272007 -0.0250564 -0.125251 0.0408212 -0.0138764 -0.0859577 -0.00154338 -0.00416056 -0.101306 -0.0713342 0.0989516 0.256026 -0.0923935 -0.0114161 0.125476 0.064888 0.216457 -0.020195 0.142644 -0.0318804 -0.00604409 0.0396781 -0.149114 0.00604772 -0.034003 -0.0293952 0.0834274 0.179096 0.144518 0.047826 0.0693673 -0.0171032 -0.11629 -0.0475749 -0.00516807 0.0245252 -0.0170546 0.142302 0.0425323 -0.269216 -0.0277455 0.289417 -0.0627047 -0.0285309 0.0330583 0.264615 -0.16815 0.0796262 -0.283298 -0.0481118 -0.112598 0.0675764 -0.173628 -0.246321 -0.104343 -0.0683169 -0.14849 -0.162101 -0.0752977 0.0326532 -0.162389 -0.209844 0.0889849 0.207682 -0.117795 -0.159423 0.0658544 0.0742554 -0.0824458 -0.20752 0.000858139 0.0257393 0.0838709 0.0879521 0.137961 -0.067623
636500 -0.0460144 -0.263257 -0.241908 -0.0892712 -0.136036 -0.0148725 -0.31974 -0.166405 0.0114361 -0.00602038 -0.170299 -0.0011399 0.0823649 -0.0907695 -0.0806909 0.064973 -0.00795995 0.123351 0.0502835 0.0386733 -0.181271 -0.149549 -0.162524 0.0684337 -0.0944279 0.191794 0.0661769 -0.0255525 0.016931 0.0254382 -0.0710355 -0.0846195 -0.0445158 -0.0392933 -0.0588025 -0.311772 -0.0592973 -0.175815 -0.117121 -0.0673978 0.0316021 0.0711901 0.273386 0.181936 -0.29504 -0.0484836 0.00920069 -0.0648984 -0.144176 -0.189893 0.048089 0.0393994 -0.11929 0.132147 -0.0452102 0.00848852 -0.0861182 -0.0435518 0.125742 0.212801 0.113236 0.114063 -0.196832 0.109067 0.109111 -0.133142 -0.0477414 -0.059312 -0.0213923 0.0173641 -0.0307171 -0.0874517 -0.130551 -0.0808446 0.1759 0.0283153 0.0674737 0.0775406 -0.118055 0.0907718 0.0519188 -0.0360923 -0.0723984 -0.0293352 0.00898803 -0.0806782 -0.0673901 0.0430691 0.0437964 0.0827935 -0.0989168 -0.17253 -0.077842 0.117387 0.171241 0.0574055 -0.0993796 -0.162321 0.154772 -0.0345997
48764 -0.0601167 -0.0851835 -0.0830968 -0.358708 -0.211429 0.07039 -0.0936577 0.0957042 0.1698 0.0699203 -0.0385758 -0.175472 -0.319258 -0.0042552 -0.225707 -0.231916 -0.259759 0.00820383 -0.146008 -0.0892833 -0.425068 0.165528 -0.117252 -0.0253798 -0.0632309 0.0999724 -0.020706 0.171954 0.100289 -0.241242 -0.0559437 -0.13907 -0.144466 -0.0431212 0.0249547 0.269244 0.0685119 -0.337122 0.127953 -0.00922975 0.564312 -0.0193352 0.0890924 -0.111752 0.0860998 0.10738 -0.089861 -0.184666 -0.191107 -0.102028 0.237438 -0.0608263 -0.0340717 0.436584 -0.0332348 0.293884 -0.137507 -0.221006 -0.124978 0.293299 -0.0313356 -0.132507 0.0456273 -0.233129 0.101263 -0.12378 0.0566777 0.260803 0.159059 0.0873679 -0.412074 0.223242 -0.686825 -0.0361903 0.128986 0.152849 -0.0802687 -0.169382 0.195664 0.244681 -0.10765 -0.209051 -0.0550595 -0.162322 -0.164431 0.129579 0.181266 0.352203 -0.023112 -0.0195428 -0.147503 0.0763657 -0.143602 -0.0383872 0.0540669 -0.0877725 0.21199 0.206252 0.319312 -0.0201691
1125082 0.0315792 -0.0863358 -0.034421 -0.00554117 0.032469 0.0961436 -0.0304586 0.143058 0.0298387 -0.166426 0.191953 0.0176244 -0.178192 -0.0115562 0.0288053 -0.076752 -0.0126486 -0.0384037 -0.167323 0.166966 0.150522 0.207059 0.242274 0.00320825 0.264412 -0.127047 0.0281086 0.151493 -0.127211 -0.0379225 -0.0208588 -0.0407508 0.141298 0.0287418 0.103833 0.148479 -0.0583649 0.151728 0.0121557 0.0255999 -0.0346878 0.0390321 -0.107186 -0.0941889 0.133492 0.00707842 -0.125282 0.0621144 0.0926679 -0.10344 0.142528 0.0668811 0.0223166 -0.110431 0.145636 -0.204223 -0.0745028 -0.0319401 -0.0609734 -0.104907 -0.114757 0.03052 0.00863028 -0.0784739 -0.0072532 0.0890671 0.0615398 -0.0197718 -0.0816654 0.029305 -0.122067 0.00581992 -0.0641011 -0.00337079 -0.0269145 -0.0914521 -0.0626359 -0.0282492 -0.0315054 -0.102618 0.11286 0.130388 -0.151507 -0.101929 -0.104972 -0.236479 -0.0772469 0.0244183 -0.0437422 0.00470982 0.0828359 0.0133332 0.100594 -0.000365288 -0.116271 0.0220856 -0.0879172 -0.00827472 -0.012489 -0.247298
372862 -0.0494292 -0.137124 -0.0774793 -0.0906695 -0.190843 -0.00583453 0.16884 -0.0443297 0.0226897 0.176589 0.189065 0.0854987 -0.0150024 0.14158 0.219123 -0.125337 -0.115304 -0.0712028 0.256873 -0.234087 -0.303325 0.0181743 -0.122604 -0.0377258 0.294065 0.135522 0.0184233 -0.153189 -0.0259307 -0.0176513 -0.138984 0.139095 -0.0601605 -0.227222 0.173641 -0.189556 -0.194722 -0.0227546 0.138585 0.16516 0.134105 -0.209078 0.469739 0.109024 -0.174338 0.114764 -0.115436 -0.0961228 0.12587 0.0707294 0.0814807 -0.0438477 -0.0488982 0.0232099 -0.0444504 0.105201 -0.106091 0.207358 0.248836 -0.0222816 0.0209443 0.138159 -0.050441 -0.0388516 -0.195335 0.030333 -0.0991527 0.0639101 0.0389989 0.201664 -0.0796125 0.0482653 -0.0765563 -0.172649 0.0558108 -0.114129 -0.0534852 -0.0291799 -0.0907137 0.0486086 -0.1873 -0.128851 -0.196215 -0.0312507 0.155086 -0.180992 0.0696286 0.0854974 0.337044 -0.166129 0.0414555 -0.0602333 -0.12126 -0.337595 0.116023 0.0708627 0.0125807 0.0420253 0.0324947 -0.033373
411005 -0.169093 -0.249508 -0.0829592 0.142025 0.0241046 0.0636561 0.0683701 -0.120959 0.13432 -0.123538 -0.129216 0.0133179 0.204383 -0.185293 0.0921965 -0.0491606 -0.31569 0.00670888 0.0606275 -0.358852 0.0439735 0.159774 -0.236287 -0.0571668 0.198176 0.0368299 -0.289611 -0.169523 -0.0901957 0.027985 0.108786 -0.15223 -0.537487 0.00990889 -0.0155234 -0.344804 0.0306798 0.0947282 -0.0667998 0.0806006 0.1818 -0.282859 0.312874 0.0822114 -0.175979 -0.158177 -0.0297527 -0.0898262 -0.144787 0.181485 0.205297 0.457468 0.0669947 0.072827 0.0764751 0.237268 -0.0260554 -0.0971818 0.272778 -0.169436 0.0948699 0.135217 -0.0910681 -6.38929e-05 0.0342035 0.262422 -0.0216021 0.0371169 0.153392 0.215041 -0.0524992 0.149684 -0.224368 -0.165611 -0.108676 0.0825443 -0.111092 0.150266 -0.0204725 0.217934 0.171727 -0.0421574 0.0615493 0.0611702 -0.0180773 -0.208767 -0.0745095 0.272333 0.0210674 -0.222112 0.131996 0.0514188 0.0138862 0.131629 -0.0709654 -0.083031 0.0769558 -0.028627 0.0979892 -0.0470985
148170 -0.321741 -0.352017 0.297581 0.417537 0.19881 0.280811 0.307672 -0.0740669 -0.00271883 -0.0435687 0.11789 0.169186 0.244942 -0.0663322 0.162478 -0.264868 -0.275933 0.0980038 0.102926 -0.340339 0.0114198 0.142995 -0.323495 -0.337595 -0.0538473 0.0891908 -0.604569 0.0690954 0.237673 0.176237 -0.346045 0.134184 -0.476785 0.0790127 0.0204876 -0.0274002 -0.102229 -0.171924 0.274106 0.164183 0.120908 -0.12456 0.198913 0.329136 -0.0560628 0.0153056 -0.0176994 -0.0873754 -0.105321 -0.0170617 0.0995146 0.582392 0.0952806 -0.120826 0.0540047 -0.0049324 -0.0493091 -0.0220735 0.16228 -0.104495 -0.0704053 0.120259 0.0688482 -0.247239 -0.271049 0.418481 -0.151408 -0.0223619 0.209201 0.00128581 -0.161107 0.0821252 -0.291196 0.00885598 -0.297317 0.135187 -0.366488 -0.247629 -0.0742378 0.194078 0.00128315 -0.448607 0.123592 0.0781307 -0.0387208 -0.160823 0.23681 0.176759 0.215658 -0.182252 0.216588 0.196074 0.153741 -0.39317 0.0345359 0.00957497 0.160446 -0.112967 -0.0959683 -0.0265607
1153166 -0.243642 -0.382767 -0.186699 0.00244453 0.0371508 0.422206 0.194349 -0.198666 0.339789 -0.154798 -0.0913713 -0.0798619 0.264606 -0.134079 0.0944081 -0.324358 -0.345189 0.161708 0.191495 -0.409958 -0.064606 0.10467 -0.46337 -0.00317007 0.251275 -0.0398431 -0.578508 -0.0966332 0.220252 0.125374 -0.281788 -0.120173 -0.51376 0.085076 -0.035063 -0.139757 -0.110435 -0.0637807 0.0741385 -0.163713 0.0912114 -0.125389 0.320204 0.383063 -0.227752 0.0418896 -0.178848 0.053088 -0.27519 -0.0321859 0.0205087 0.580013 -0.0523175 0.12581 -0.102233 0.228299 -0.0614028 -0.176241 0.0892742 -0.152045 0.062962 0.143863 -0.0955416 0.0187269 -0.0865689 0.307101 -0.157602 -0.120917 0.130117 0.041566 -0.16681 0.028337 -0.33073 -0.206889 -0.148094 0.0395367 -0.00857446 -0.146907 -0.24714 -0.0692093 0.150363 -0.212576 0.18974 -0.0912773 -0.133568 -0.230429 0.230115 0.504383 0.0411203 -0.192581 0.114937 -0.00331699 0.0956328 -0.0101099 0.178674 0.0789806 0.273585 0.0505861 0.399768 0.0748309
1105887 -0.104211 -0.133841 0.0541709 0.113402 0.0297306 0.38195 0.189246 -0.0866572 0.218574 -0.0260085 0.142771 0.0954847 0.104313 -0.00618832 0.135494 -0.193599 -0.204627 0.183467 0.189297 -0.157599 -0.091074 -0.110119 -0.23411 0.00310407 0.0643264 0.0102474 -0.442245 -0.16431 0.194367 0.160206 -0.30485 0.147423 -0.179246 0.00480167 0.020351 -0.0691047 -0.135185 -0.126321 0.24366 0.0456036 0.00477126 -0.129186 0.181134 0.335051 0.0150132 0.218087 0.052627 0.0778299 -0.130954 -0.101899 -0.0518541 0.254672 -0.08368 -0.0406198 -0.168979 0.0355687 -0.00175642 0.033376 0.0214916 -0.127595 -0.0531208 0.0919879 -0.148901 0.051123 -0.182843 0.099774 -0.269252 0.00680709 0.129707 -0.0711789 -0.075782 0.091789 -0.142678 -0.122679 -0.195654 0.0668487 -0.00641835 -0.140029 -0.0745074 -0.108638 -0.0254745 -0.241822 0.106583 -0.0691069 0.108925 -0.104201 0.305937 0.0670362 0.249021 -0.102242 0.13516 0.0990445 0.0731307 -0.272049 0.152774 0.159916 0.22955 -0.14089 0.108571 0.189548
47684 0.122521 -0.206863 -0.0921948 -0.0851947 -0.130573 0.15313 0.14546 -0.0926839 0.205815 0.196672 0.234756 0.235713 0.117279 -0.0135996 0.154759 -0.26733 -0.309849 0.123325 0.382041 -0.171808 -0.167821 0.163213 -0.343429 -0.0488405 0.298167 0.0693819 -0.268547 -0.218236 0.0487459 0.079733 -0.336375 0.204775 -0.280815 -0.118063 0.230947 -0.25943 -0.188413 0.045184 0.21945 0.140122 0.173242 -0.300788 0.531466 0.346414 -0.209715 0.242214 -0.191378 -0.00306773 -0.0570353 0.199283 0.212605 0.158175 -0.329652 -0.0949069 -0.100431 0.302765 -0.160166 0.146327 0.117811 -0.120781 -0.0256207 0.0933563 -0.3945 -0.0653121 -0.243413 0.186494 -0.266379 0.105295 0.265294 0.083894 -0.0395436 0.153982 -0.409398 -0.308314 -0.174498 -0.0322451 -0.0799479 -0.0281451 -0.0542296 -0.0379694 0.107528 -0.160435 -0.203882 -0.0516355 0.23305 -0.170839 0.299901 0.133951 0.326232 -0.236622 0.107833 0.173085 -0.0392566 -0.136699 0.140573 0.110569 0.234095 -0.0902901 -0.143891 0.0954992
67292 -0.198592 -0.418922 -0.297265 -0.0549934 -0.0729318 0.149518 -0.175833 -0.335223 0.266489 -0.13402 -0.421629 -0.171619 0.35097 -0.206987 -0.013787 -0.162907 -0.253401 0.231463 0.0224176 -0.373907 -0.303961 -0.0250324 -0.643562 0.127395 -0.168505 0.11358 -0.319689 0.213392 0.0627129 0.136176 -0.249228 -0.0697977 -0.387705 -0.121275 -0.451194 -0.389328 -0.165224 -0.344569 -0.0413252 -0.00445877 0.241953 -0.137311 0.621532 0.233676 -0.234603 -0.201782 -0.0271914 0.0365871 -0.417967 -0.222042 0.0535953 0.4201 -0.181147 0.291553 -0.0753362 0.3685 -0.190177 -0.285625 0.10158 0.216406 0.157035 0.287405 -0.276262 -0.239036 0.121077 -0.0110241 0.0731759 -0.123098 0.00361453 0.0618564 -0.162883 0.0157418 -0.221115 -0.0686667 0.0451756 0.0811922 -0.0479632 -0.0975388 -0.305282 0.0994194 0.109313 -0.390182 0.194323 0.0893389 -0.186149 -0.279352 0.0382486 0.426056 -0.153094 0.105256 -0.120558 -0.110725 0.0329464 0.236842 0.208853 0.180637 0.0156322 -0.0314949 0.40578 -0.214347
67584 -0.325442 -0.386719 -0.211906 0.0899673 -0.0318862 -0.0767923 0.231021 -0.270003 0.0669795 0.234728 -0.430578 -0.0815659 0.605632 -0.155604 0.120537 -0.275868 -0.172003 0.000450813 0.274053 -0.756642 -0.431238 0.0692386 -0.747912 -0.136705 -0.289404 0.193242 -0.482835 0.155051 0.314333 -0.00648301 -0.0936714 -0.0338212 -0.522184 0.0283245 -0.31937 -0.515551 0.102086 -0.285074 -0.16267 -0.18084 0.174711 -0.136623 0.461123 0.0347601 -0.421613 -0.138476 -0.000530897 -0.0757015 -0.270452 0.145852 0.0766139 0.285696 0.180302 0.207911 -0.0170171 0.397242 -0.0373894 -0.198422 0.177993 0.30344 0.227884 0.353505 0.107488 -0.194593 0.161057 0.173544 -0.0975142 -0.167671 0.226112 0.0509911 0.0151641 0.129766 -0.187364 -0.257877 -0.0370728 0.0891472 -0.305982 -0.0605534 -0.419243 0.330334 -0.042255 -0.488087 0.265437 0.350543 -0.102071 0.00297155 0.0327241 0.52979 -0.0123021 -0.0290051 0.00214228 0.00402206 -0.0478763 0.21595 0.166805 -0.147782 0.151634 0.23379 0.284867 0.175378
302545 -0.079878 -0.400079 -0.261579 0.0499356 -0.131469 0.0296002 0.140742 -0.163166 0.232029 -0.0204204 -0.149125 0.00804432 0.243578 -0.254828 0.279354 -0.262102 -0.281411 0.167957 0.122403 -0.517306 -0.341857 0.286958 -0.39381 0.054207 0.300073 -0.10747 -0.331041 0.087888 0.0119004 -0.0482106 -0.133827 0.0251545 -0.389754 -0.137312 -0.0680753 -0.324456 0.0433885 0.0197316 0.0916244 -0.00952622 0.442819 -0.152138 0.683063 0.136047 -0.350898 0.104364 -0.11129 0.0769654 -0.288301 0.151637 0.095411 0.413471 -0.0332941 0.285672 0.022176 0.317473 -0.171739 -0.0112744 0.214514 0.00476564 0.0607536 0.173956 -0.286256 -0.184644 0.0366833 0.305974 -0.00924624 0.148172 0.169023 0.322909 -0.187481 0.145358 -0.303709 -0.287937 -0.16445 0.102201 -0.181127 -0.112481 -0.172562 0.205781 0.072347 -0.178781 -0.0711521 0.151717 -0.0512439 -0.27968 0.0621205 0.426868 -0.169524 -0.220257 -0.0485143 -0.0511376 -0.0845035 0.112401 0.131023 0.121324 0.187861 0.150771 0.0687859 0.0304762
49753 -0.141874 -0.360898 -0.219099 0.278794 0.0142991 -0.0598895 -0.00429103 -0.279013 0.194202 0.00977902 -0.398565 0.0837063 0.516074 -0.21335 0.171798 0.133938 -0.0608841 0.145984 0.373531 -0.535835 -0.158368 0.0488041 -0.558139 0.0128457 -0.0247086 -0.0560111 -0.238838 0.0218847 0.0035717 0.158169 0.0769804 -0.0673015 -0.350153 -0.0580402 -0.0772357 -0.398187 -0.034328 -0.034446 -0.0320898 0.084924 0.167187 -0.113927 0.805529 0.371263 -0.441431 -0.106271 -0.069374 0.282257 -0.332342 0.174304 -0.144326 0.356677 -0.108436 0.169421 0.0194023 0.373339 -0.0621143 0.0358121 0.311272 0.0146084 0.20652 0.346788 -0.349932 -0.0789166 -0.0477143 0.205368 -0.200013 -0.0925841 0.252424 0.30214 0.227586 0.0943445 -0.0240092 -0.479096 -0.149932 -0.0267451 -0.256832 0.187045 -0.279594 0.162612 0.18827 -0.152476 0.196864 0.214116 0.118904 -0.142963 -0.00955152 0.0904041 0.00272882 -0.0650954 0.070321 -0.097569 -0.103628 0.0450083 0.139782 0.17473 0.148537 -0.184408 0.0893386 0.102864
6343 -0.0685038 -0.287681 -0.385575 -0.186443 -0.228143 0.181821 -0.197309 -0.159317 0.177606 0.25587 -0.113892 -0.060735 0.0410353 0.0310813 -0.00257197 0.0726681 -0.213381 0.117488 0.17528 -0.108103 -0.341141 0.0487761 -0.232621 0.107563 0.156609 0.153744 0.0685046 0.00625049 -0.213886 -0.0934559 -0.0413135 0.00279667 -0.310163 -0.231725 0.137454 -0.355908 -0.139692 -0.0967066 0.138789 0.282247 0.576848 -0.145562 0.765586 0.268822 -0.278758 0.151001 -0.107125 0.00203195 -0.227238 0.178069 0.0967677 -0.00249643 -0.224495 0.473326 0.0137001 0.329149 -0.344259 0.0368906 0.324723 0.176937 -0.0186094 0.222559 -0.405292 -0.13414 -0.0615372 -0.00459292 -0.276656 0.322994 0.173255 0.441776 -0.280992 0.13194 -0.590328 -0.245896 0.175804 -0.0796423 -0.102943 0.0525146 0.096096 0.18666 0.0847771 -0.0284613 -0.274016 0.0342702 0.208959 -0.175662 -0.0527127 0.287224 0.161871 -0.246006 -0.350625 -0.102727 -0.179789 0.132908 -0.00223263 0.0820067 0.0526897 0.0922744 0.0988663 -0.00871692
5959 -0.26706 -0.295406 -0.179328 0.0883211 0.0818645 0.459517 0.0717399 -0.0669365 0.152764 0.0568629 -0.0863217 -0.0341122 0.190916 -0.0306948 -0.0631315 -0.151605 -0.215659 0.0950305 0.221501 -0.192029 -0.0320538 0.00141217 -0.149768 -0.198524 -0.0308779 -0.136422 -0.377922 -0.0184246 0.12773 0.136914 -0.0412062 0.00520969 -0.329108 0.0839585 0.105823 0.0416462 -0.114207 -0.19612 0.189152 0.0676034 0.0950349 -0.0216836 0.0836992 0.411816 -0.120585 0.104207 -0.0212003 0.0909412 -0.0889173 -0.163285 -0.101996 0.31847 0.0597824 -0.0416385 -0.0450122 -0.0687299 -0.121415 -0.0952923 0.103412 -0.131223 -0.169695 0.154621 -0.0288789 -0.168602 -0.140462 0.169189 -0.274247 0.0492087 0.0560193 0.0796894 -0.1489 0.164458 -0.534662 -0.159561 -0.321074 0.0931469 -0.051105 -0.0864469 -0.00598949 -0.13484 0.0357369 -0.26821 0.071899 -0.0354416 -0.225472 -0.1455 0.198017 0.42438 0.00067878 -0.217248 0.0657137 0.115186 -0.049442 0.0903771 0.0295957 0.0794582 0.24066 -0.146845 0.283697 0.0281442
25184 -0.0797253 -0.205406 -0.423482 -0.205059 -0.168809 0.185422 0.0262466 -0.125198 0.378259 0.213379 -0.105535 -0.0474344 0.0794874 -0.221537 0.207598 -0.368026 -0.404364 0.225519 0.151321 -0.429579 -0.444181 0.0761058 -0.621008 0.04716 0.357526 0.050385 -0.365297 -0.0946765 -0.0155147 0.0619001 -0.214525 0.277233 -0.167519 -0.278224 -0.167203 -0.278199 -0.0879953 -0.0471917 0.110334 -0.016711 0.497539 -0.121633 0.762227 -0.0140313 -0.199659 0.105477 -0.241213 0.192421 -0.288285 0.103312 0.32965 0.252014 -0.169472 0.240306 0.00613696 0.26855 -0.174365 0.0099122 0.0283112 0.204026 0.211173 0.183029 -0.509177 -0.152975 0.165773 0.251873 -0.348062 0.0950397 0.0360184 0.366016 -0.15528 0.144935 -0.475479 -0.500783 -0.200212 0.185863 -0.122383 -0.149096 -0.30435 0.0455973 -0.248717 -0.0691845 -0.155214 0.138277 0.0266909 -0.358418 0.127706 0.386912 -0.0361577 -0.19738 -0.149487 0.146282 -0.226659 0.214654 0.212485 0.339313 0.143726 0.338498 0.211912 0.0949645
38839 -0.232283 -0.381108 -0.0277943 0.14986 0.138695 0.129109 0.199267 -0.320116 0.234231 -0.122869 0.0559845 0.0702065 0.260212 -0.304026 0.164082 -0.284916 -0.442244 0.136152 0.131737 -0.532356 0.0273371 0.334411 -0.340575 -0.0781931 0.144324 -0.0636254 -0.54973 -0.0412656 0.118338 0.184402 -0.292199 -0.0228802 -0.472865 0.0719188 0.124528 -0.337912 -0.0629242 0.133704 0.171144 0.119801 0.064809 -0.364466 0.298292 0.345591 -0.083912 -0.061335 -0.233895 0.151615 -0.34081 0.122049 0.0623471 0.505453 -0.000390148 0.00884176 0.00242676 0.246094 -0.135849 -0.0601817 0.194873 -0.140442 0.0406767 0.118519 -0.142218 -0.23994 -0.102788 0.533948 -0.0927727 -0.027669 0.353971 0.193464 -0.0651682 0.116804 -0.280347 -0.199323 -0.214716 -0.140689 -0.193498 -0.0561232 -0.20621 -0.0554118 0.333121 -0.256714 0.111833 0.169966 0.0991929 -0.326158 0.317107 0.282322 0.093226 -0.299403 0.245466 0.109588 0.162924 -0.167544 0.0175586 0.128226 0.199993 -0.12217 0.073829 0.109986
95188 -0.263068 -0.382424 -0.00704805 0.112964 0.102744 0.252046 0.286562 -0.31332 0.488008 -0.0627655 0.0903898 0.000297548 0.0767883 -0.207797 0.0963674 -0.403966 -0.540086 0.136694 0.0744188 -0.496334 -0.0531906 0.334275 -0.439614 -0.198037 0.267896 0.0446385 -0.557164 0.0170075 0.127835 0.161196 -0.337925 -0.0184326 -0.716304 -0.140561 0.126922 -0.149657 -0.0209745 -0.108532 0.156671 0.162876 0.381192 -0.301404 0.39582 0.440409 -0.074175 -0.0563638 -0.254309 0.10639 -0.316913 0.178031 0.153885 0.573929 -0.129071 0.349815 0.0203537 0.464355 -0.000140794 0.00213492 0.334523 -0.111307 0.106561 -0.00923586 -0.0375231 -0.374389 -0.164242 0.584485 -0.188427 -0.0345161 0.411577 0.256435 -0.274041 0.169221 -0.49408 -0.207371 -0.139623 -0.00931556 -0.289241 -0.174134 -0.139906 0.164452 0.252389 -0.206086 0.151265 -0.0262527 0.115143 -0.182544 0.301502 0.2696 0.230808 -0.320765 0.0950495 0.192844 -0.0459439 -0.361208 0.120194 0.0995564 0.32133 0.0767064 0.130642 0.19337
27531 -0.106623 -0.468776 -0.259956 -0.00795782 -0.0104842 0.0524664 0.0280226 -0.104505 0.2288 -0.206869 0.0241289 0.143547 0.282781 -0.0193593 0.201049 -0.05139 -0.29282 0.113736 0.257641 -0.130799 0.117918 0.215153 -0.343275 0.0879318 0.312176 0.00523995 -0.30667 0.0574355 0.0471253 -0.0549293 -0.0323376 0.0233404 -0.416578 0.159293 0.0337396 -0.410886 -0.00796996 0.0496522 -0.149782 -0.0632689 0.104968 -0.115002 0.53285 0.145847 -0.336091 0.0334053 -0.197688 -0.0977495 -0.225806 0.234944 0.151957 0.368967 -0.0869688 0.206499 0.0853436 0.109874 -0.156151 -0.0129154 0.306409 -0.270099 0.0349052 0.0804331 -0.422042 0.0140779 -0.0160007 0.203161 -0.0247133 0.0435388 -0.0135772 0.232195 -0.0959369 0.0966613 -0.373501 -0.372771 -0.197732 0.031301 -0.161839 0.142784 -0.0537216 0.132157 0.328486 -0.177077 -0.233528 -0.075998 -0.0457832 -0.273509 0.00953848 0.466106 0.0823805 -0.137261 0.136725 -0.0867933 0.0613659 0.531038 0.0351627 -0.0498296 0.029443 -0.0110229 0.132923 -0.204371
628764 -0.220037 -0.270059 -0.172179 0.151018 0.064253 0.179175 0.0957813 -0.233042 0.254446 -0.0579123 -0.212788 -0.0715821 0.147035 -0.0979558 0.128424 -0.231672 -0.366161 0.0997725 -0.157361 -0.425392 -0.181552 0.056717 -0.351108 0.0702789 0.281395 0.066433 -0.248583 0.0976534 -0.0937037 -0.0968482 -0.0691733 -0.0153024 -0.508472 -0.092421 -0.299671 -0.319707 0.0648032 -0.00486746 -0.155432 0.057234 0.374759 -0.198462 0.431182 0.00525321 -0.142527 -0.0727317 -0.0527385 -0.00267146 -0.300446 0.152818 0.224941 0.46764 -0.0630946 0.323752 0.16028 0.363385 -0.112511 -0.21041 0.315757 0.0104334 0.253618 0.0716508 -0.221473 -0.106247 0.0672382 0.251894 -0.135875 0.0950124 -0.023323 0.354573 -0.36536 0.0867798 -0.327833 -0.123678 -0.0281729 0.0983673 -0.156395 -0.0848161 -0.0804466 0.423602 0.124576 -0.0639853 0.0565182 0.0918717 0.0645329 -0.360039 -0.125643 0.301659 -0.0634928 -0.100726 -0.120871 0.00653222 0.0551263 0.139568 0.0475317 0.0727933 0.0319797 0.347265 0.157569 0.0147684
1153889 -0.230163 -0.103241 0.0172538 0.40505 0.217953 0.190532 0.22445 -0.226075 0.107293 -0.0216214 -0.000927656 -0.00865202 0.0109189 -0.144057 0.0492783 -0.0219649 -0.0278299 -0.124798 0.134189 -0.149351 0.132018 0.081471 0.0697972 -0.154678 -0.0440201 -0.134225 -0.134805 0.087041 0.0585867 0.166314 0.0609918 -0.0311558 -0.343655 0.10011 0.0793536 0.0560134 -0.0624575 0.0736678 0.0400016 0.162075 0.0490431 0.00884226 -0.0149799 0.410329 0.0190349 -0.212418 0.0276124 0.23594 -0.00619091 -0.0366464 -0.0634602 0.25217 0.0363788 -0.148813 0.118137 0.0321997 0.0964733 0.0536017 0.288207 -0.208121 -0.0263559 0.13971 0.172372 -0.15352 -0.324387 0.315333 -0.174645 -0.0260552 0.22762 0.137293 0.0467507 -0.0342121 0.0492124 0.0189877 -0.169043 -0.0385358 -0.200215 -0.0179321 -0.0815154 0.0542009 0.30995 -0.0845212 0.28857 0.206552 -0.0136083 -0.00454519 0.104928 -0.0885612 0.0994406 -0.113343 0.109707 0.0860443 -0.0400697 -0.126278 -0.198234 -0.080053 0.0491515 -0.0633523 0.12654 0.153743
948846 -0.160374 -0.254428 -0.34562 -0.156226 -0.109384 0.251882 -0.0677416 -0.228917 0.313656 0.255461 -0.240598 0.100865 0.0906838 -0.115566 -0.0794448 -0.0845114 -0.226151 0.0488226 0.240874 -0.312292 -0.33304 -0.0171696 -0.373623 0.0774389 0.0930673 0.115392 -0.23234 -0.103622 0.0382879 0.0932598 -0.161392 -0.112704 -0.211265 -0.0617024 -0.0644084 -0.358594 0.0359138 -0.110769 0.0230144 0.0441565 0.363674 -0.139813 0.477265 0.140907 0.00138134 0.0326422 -0.0921523 0.0364929 -0.373313 0.0893622 0.104203 0.0758855 -0.159898 0.293553 -0.0109042 0.221736 -0.29695 -0.0782762 0.0919469 0.140047 0.166293 0.114116 -0.175867 -0.0359444 0.142339 0.154905 -0.11126 0.240816 0.0674066 0.133887 -0.260224 -0.0126658 -0.638836 -0.318768 0.150633 0.0709531 -0.0364564 0.0742408 -0.00605118 0.0862391 -0.0248759 -0.0241509 0.0678768 0.260234 0.116227 -0.133262 0.0955538 0.391611 0.149694 -0.142755 -0.23481 -0.0974064 -0.106786 0.124203 -0.0444445 -0.0144773 0.275364 0.139567 0.261451 0.2907
90655 -0.277005 -0.44382 -0.110438 -0.136993 -0.00872526 0.282264 -0.161189 -0.0693785 0.0238658 0.178237 -0.0871928 0.000917553 0.0443327 -0.0581975 -0.0539191 -0.205798 -0.403342 0.186485 0.141249 -0.150753 -0.171284 0.166283 -0.322397 -0.082474 0.177921 0.167614 -0.239111 0.063717 -0.0729522 -0.0139854 -0.140147 0.123008 -0.433026 -0.183485 -0.0593059 -0.238912 -0.157905 -0.159164 0.232581 0.207815 0.354891 0.0325736 0.538556 0.324804 -0.131799 0.134357 -0.142864 -0.190292 -0.258756 -0.0196054 0.179199 0.352011 -0.141638 0.273091 -0.0136246 0.0759968 -0.273509 -0.0921372 0.15952 0.0994708 -0.16926 0.220161 -0.401245 -0.289116 0.0962423 0.122962 -0.0582238 0.251268 0.0480511 0.277887 -0.320422 0.110405 -0.674504 -0.155311 -0.127659 0.0778508 0.016522 -0.206586 0.0467318 -0.0556372 -0.042745 -0.246425 -0.346356 -0.0214339 -0.0336013 -0.507929 0.0212251 0.562605 -0.144377 -0.211696 -0.0942816 0.073039 -0.0192151 0.0245229 0.0357544 0.213522 0.00224625 -0.108037 -0.0696209 -0.337525
74821 -0.155472 -0.317099 -0.44312 -0.0335423 -0.257869 -0.144694 -0.0117693 -0.150372 -0.0294168 0.133134 -0.491512 -0.169524 0.286093 -0.28237 0.31338 -0.273937 -0.262244 0.180957 0.150748 -0.666331 -0.511963 0.134384 -0.560847 0.11544 0.299843 0.193052 -0.0927396 0.126568 -0.0570666 -0.164502 0.0729587 0.0684586 -0.264186 -0.170337 -0.438892 -0.397441 0.0429476 0.141644 -0.0603259 -0.0605286 0.377085 -0.0485914 0.749304 -0.205066 -0.393934 0.0731871 -0.045675 -0.0835695 -0.43438 0.0988181 0.280684 0.273929 0.123723 0.326204 -0.0696358 0.370862 -0.226053 -0.161075 0.0615378 0.351719 0.252378 0.525039 -0.496455 -0.120849 0.339471 0.103139 -0.0886012 0.0163784 -0.0943138 0.456915 -0.111116 0.0437655 -0.163819 -0.351712 -0.126596 0.250152 -0.0847363 -0.173136 -0.343386 0.173266 -0.26108 -0.185166 -0.209425 0.263425 -0.12361 -0.429132 -0.129804 0.435614 -0.314043 -0.077027 -0.22462 -0.0706935 -0.111309 0.166644 0.198539 0.237235 -0.0545788 0.38601 0.0706235 -0.189703
189572 -0.216366 -0.326565 -0.212305 -0.0151081 -0.0393821 0.0862456 0.277653 -0.378276 0.284539 0.0382208 -0.0856486 0.0324286 0.429723 -0.149816 0.130219 -0.337086 -0.346436 0.0486087 0.289683 -0.400502 -0.248013 0.0636428 -0.642843 -0.0772595 0.106048 0.193991 -0.513983 -0.185296 0.239106 0.0136599 -0.293052 -0.0272856 -0.544018 0.0195324 -0.0996697 -0.439727 0.0607773 -0.0603552 -0.170518 -0.122594 0.285829 -0.296816 0.379912 0.119879 -0.256087 -0.044168 -0.0642821 -0.0970305 -0.285117 0.278651 0.207993 0.298366 -0.000285116 0.239994 -0.00599961 0.445363 -0.0800438 -0.0583993 0.337897 0.0615207 0.311871 0.197563 -0.0754476 -0.0724552 -0.084157 0.418221 -0.0916116 -0.176503 0.109353 0.0956802 -0.114385 0.136097 -0.15073 -0.166609 -0.0296625 0.0538589 -0.161317 0.0394297 -0.259165 0.367316 0.143266 -0.409788 0.11043 0.0529134 0.0114708 -0.0971172 0.194089 0.368511 0.348889 -0.085116 0.109929 0.000725222 0.00218416 0.0729943 0.169861 -0.0676176 0.365749 0.310837 0.183498 0.20363
1237 0.0375971 0.044631 0.170066 0.11316 0.0392568 0.0532055 0.0489837 0.0799279 0.0322895 -0.117311 0.15475 0.0431499 -0.093682 0.00219748 0.0314848 0.014273 -0.0108668 0.0777372 0.000388211 0.0397765 0.0291468 0.0274117 0.112065 -0.0390794 0.0644374 -0.045049 -0.157607 -0.0351 0.0087744 -0.0260046 -0.0518575 -0.00127801 -0.0144021 0.067069 0.136312 0.16098 -0.00546176 0.0175008 0.120968 -0.00416195 0.0377531 -0.071724 -0.0300349 0.0411471 0.114654 0.157991 0.0187461 -0.00334042 -0.022389 0.0333709 -0.0409288 0.116465 0.0758632 -0.0247348 -0.0303749 -0.0338589 0.0298466 0.0347721 -0.029511 -0.167791 -0.115532 -0.0204411 -0.0239901 0.0278948 -0.145279 0.153211 -0.0284366 0.027374 0.115977 -0.013493 -0.00304819 0.113815 -0.0508408 0.0437413 -0.107278 0.0724381 -0.0566293 -0.0231545 0.0914361 -0.0146207 0.00683944 -0.00554794 -0.0444912 -0.0850719 0.0702296 0.00772324 0.0896144 -0.0447492 0.0751329 -0.0404713 0.090282 0.117665 0.00345134 -0.188963 0.0416287 0.00593004 0.171569 -0.106881 -0.0721672 0.0305109
1129572 -0.0503748 -0.0596361 -0.0399707 0.00690728 0.0854995 0.0840594 0.0247984 0.00282295 0.128108 -0.0892679 0.0417738 -0.0449829 -0.0247144 -0.0952451 -0.0452279 -0.0691841 -0.123895 -0.00212415 -0.0532423 -0.0269322 0.0670263 0.0755218 -0.038491 0.0113279 0.0734 -0.0856425 -0.167729 -0.0247623 -0.026593 -0.016097 -0.00436053 -0.00379322 -0.172306 0.0300544 0.0936277 0.117176 -0.0158913 0.0145118 0.0387439 0.0123868 0.0655937 -0.0732019 -0.0310103 0.069144 0.034432 -0.0252725 -0.0510406 0.0246946 -0.0632553 0.0448999 0.0196534 0.178421 0.0342582 0.070253 0.00787431 0.0634661 -0.0856912 -0.00617369 0.0741524 -0.127016 -0.0133167 -0.0549422 -0.0339423 -0.0732269 -0.0502979 0.17925 -0.0166174 0.03745 0.0318275 0.0733908 -0.0976676 0.0491665 -0.159377 -0.0144652 -0.129516 0.0287526 -0.0507079 -0.00627025 0.0451229 0.00729416 0.0891891 0.00530877 0.015141 -0.0137207 -0.0754424 -0.0596411 0.0634528 0.144139 -0.0607722 -0.0806241 0.0488576 -0.000621004 0.0291866 0.113396 0.00493265 0.0206137 0.0516872 0.0449782 -0.005498 -0.0445027
824245 -0.0273474 0.0703745 0.0256716 0.0803889 0.0699573 0.056816 0.058208 -0.0307803 0.0584765 0.0185831 -0.0321689 -0.0473369 -0.0334364 -0.0591913 -0.0878412 0.0263531 -0.0515898 0.00206984 -0.0408862 -0.0758704 0.0729769 0.0500271 0.0262216 -0.0766984 -0.119886 0.0124857 -0.00618469 -0.0198502 0.0192866 -0.0341523 0.101462 -0.043013 -0.278668 0.0890681 0.037339 0.0656883 0.136642 -0.0231121 0.0579326 0.1035 0.239858 -0.080305 -0.128085 0.107811 0.0785816 -0.0725012 0.0506088 -0.039758 0.0184056 0.102284 0.000523875 0.0717805 0.0443048 0.193494 0.0148489 0.15021 -0.0572786 -0.0496762 0.164874 -0.0775607 0.0075204 -0.14575 0.095018 -0.0356392 -0.100652 0.087196 0.00561693 0.161012 0.0821682 0.0894763 -0.0943106 0.0496742 -0.136321 0.0903558 -0.0101759 0.0348095 -0.0609862 0.0514784 0.238552 0.16054 0.0837438 -0.00829784 0.0670197 -0.031664 -0.00462437 0.169719 0.0316264 0.0508159 0.0326993 -0.137875 -0.0113343 -0.0235284 -0.0302187 0.0694484 -0.0981235 -0.111017 0.0705042 0.0594604 -0.0621117 0.0902635
1153866 -0.249234 -0.30573 -0.202126 -0.0679075 -0.155093 0.273926 -0.0720887 0.0991355 0.104066 0.253427 0.0976662 -0.0149483 0.19457 -0.154199 0.187807 -0.120647 -0.392107 -0.00703832 0.338063 -0.0688922 -0.177736 -0.113766 -0.367705 -0.195583 0.233086 0.0609103 -0.143151 -0.236304 0.045778 0.0249227 0.0592702 0.129087 -0.419532 -0.00932383 0.234458 -0.234875 -0.0873436 -0.115367 0.0604698 0.14469 0.314052 -0.242879 0.215385 0.357525 -0.213556 0.109035 -0.0503848 -0.0611629 -0.014104 0.187375 0.203323 0.0542064 0.0902408 0.230511 -0.235512 0.0793313 -0.183081 0.00877852 0.291108 -0.0515547 0.060507 0.0951468 -0.220035 0.0119409 0.0105587 0.122419 -0.298588 0.0645825 0.0168571 0.259073 -0.0919289 0.142511 -0.371675 -0.335173 -0.235735 0.0163496 0.0454455 0.153883 0.166658 -0.0143779 -0.00752376 -0.127498 -0.157221 -0.0820638 -0.176539 -0.0652132 0.170361 0.216003 0.138645 -0.227925 0.138789 0.0129485 -0.0364794 0.186185 0.0443087 -0.0204926 0.1117 -0.100875 0.167375 -0.0363691
230879 -0.265011 -0.316269 -0.117079 0.106186 0.0280529 0.192408 0.0828207 -0.270511 0.108311 0.144538 -0.237225 -0.0591451 0.401833 -0.180655 0.160521 -0.138627 -0.286282 0.287093 0.196193 -0.540118 0.0199665 0.055015 -0.347716 0.128725 -0.128506 0.060412 -0.336538 0.249612 0.0401502 0.155034 -0.17194 0.134061 -0.41255 -0.00974791 -0.196032 -0.487521 -0.0974106 0.00309902 -0.0158544 0.0894177 0.15295 -0.0112124 0.432481 0.0321164 -0.080111 -0.0483286 -0.176041 0.0312069 -0.376991 0.0912014 0.0771826 0.3113 -0.142217 0.205405 0.0499854 0.278806 -0.0940915 -0.0984072 0.119993 0.00109354 0.0696693 0.164401 -0.377914 -0.149064 -0.0472804 0.193507 -0.238316 0.0283799 -0.00718872 0.293162 -0.00943042 -0.00163125 -0.207932 -0.232954 -0.1082 -0.0686588 -0.183384 -0.118738 -0.140158 0.033705 0.0441234 -0.0820296 -0.0564376 0.253126 0.133382 -0.173183 0.141237 0.227855 0.00312084 -0.106045 -0.140019 0.0109234 0.042142 0.119341 0.0324519 0.2306 -0.0856405 0.218177 -0.0437314 -0.00360685
653441 -0.190763 -0.48973 -0.117973 -0.0056068 -0.0567793 0.311316 0.2946 -0.129831 0.238195 0.030294 -0.0896058 0.152152 0.447437 -0.141391 0.279032 -0.312667 -0.306041 0.175993 0.321528 -0.448101 -0.223393 0.11939 -0.732338 -0.120756 0.0773678 -0.0662635 -0.901189 -0.0432765 0.447607 0.0347711 -0.381016 0.0596287 -0.35722 0.146058 -0.0428776 -0.323855 0.0411029 -0.0430393 -0.010842 -0.320895 0.232107 -0.284098 0.330794 0.0847034 -0.0866403 0.330319 -0.0044712 -0.0236256 -0.450292 0.247304 0.0308864 0.291537 0.0208822 0.228447 -0.0435783 0.172191 -0.0975371 -0.185852 -0.0121474 -0.132665 0.0315314 0.112386 -0.108826 -0.034557 0.110237 0.382263 -0.0533476 -0.192069 0.231587 -0.192058 -0.0282029 0.241188 -0.464563 -0.31495 -0.114701 0.20687 -0.179234 -0.150986 -0.262967 0.125138 0.0744163 -0.361566 0.0712968 0.0636092 -0.0278072 0.0253261 0.371102 0.572341 0.199305 -0.0487003 0.156673 0.0829787 0.15319 0.0279418 0.151386 -0.0825885 0.529768 0.233194 0.24302 0.446152
35061 -0.0773076 -0.181346 -0.0926764 -0.0457994 -0.026266 0.204004 -0.0068784 -0.00774645 0.0801132 -0.0588311 0.00916089 0.0255486 0.036716 -0.0247685 0.0362224 -0.0966477 -0.128172 0.0911503 -0.00973562 -0.0631743 -0.0142528 0.127651 -0.0991958 -0.0525833 0.0738995 -0.000460599 -0.206903 0.11667 0.0290824 -0.0418816 -0.0871897 0.068677 -0.0902589 0.0217776 -0.0153523 0.00860642 -0.0218291 -0.0121859 0.0962603 -0.00519325 0.189032 0.0119846 0.184139 0.0611753 -0.018264 0.108061 -0.0484985 -0.0627546 -0.153545 -0.037732 0.0911236 0.156766 -0.0662218 0.12167 -0.00522239 -0.0155385 -0.162876 -0.0519 -0.00683124 -0.0365329 -0.0425019 0.0406138 -0.18337 -0.14034 -0.0440018 0.124349 -0.00433662 0.072049 -0.030102 0.1515 -0.169645 0.0259767 -0.341563 -0.0895697 -0.0680058 0.105123 -0.119225 -0.114801 -0.0113643 -0.0230759 -0.0544685 -0.12237 -0.161762 -0.00209067 -0.0952408 -0.126176 0.0368598 0.245413 0.011025 -0.104728 -0.0245052 0.03308 0.0246462 0.0768228 -0.00721252 0.0468211 0.0876349 -0.000319067 0.0148399 -0.0914151
643485 0.00618808 0.168994 -0.0102648 -0.0440463 -0.0990524 -0.371571 0.0209949 0.0822207 -0.120518 0.0411516 -0.229439 -0.0716732 0.0158987 -0.0480773 -0.00645165 0.0180311 0.147881 -0.0776291 -0.0976062 -0.225694 -0.195234 0.0525136 0.00441241 0.00729082 -0.0681477 0.0300041 0.0826077 0.00640219 -0.0140527 -0.238097 0.209209 -0.0992952 0.0775006 -0.0443171 -0.202327 -0.0042121 0.215283 0.0681298 -0.102859 -0.141497 0.17664 -0.0150066 -0.0130792 -0.393836 0.0454218 -0.114694 0.0889408 -0.0898916 0.00680566 0.0826275 0.0414503 -0.159545 0.285211 0.0584526 0.112683 0.0375813 -0.0458016 -0.0766777 -0.0960994 0.0949743 0.0709233 -0.0758973 0.223729 -0.00189014 0.262171 -0.0225357 0.269263 -0.00390504 -0.0602708 0.0595544 0.0362363 0.00493988 0.103062 0.0483462 0.164931 0.151216 -0.18103 0.00503649 -0.0695677 0.20757 -0.252241 0.00936466 0.0155413 0.204577 -0.0723508 0.0715223 -0.229834 0.158196 -0.169931 0.0500197 -0.0652889 -0.0364542 -0.0480781 0.090728 -0.0765828 -0.200267 -0.0347393 0.316509 -0.0455257 0.123438
175909 -0.171552 -0.340082 -0.0395473 0.00212585 -0.162441 0.308705 0.222444 -0.503903 0.529064 0.166827 0.050542 0.0704173 0.163786 -0.129708 -0.0486993 -0.309999 -0.482057 0.0247768 0.21662 -0.432944 -0.331958 0.209596 -0.482227 -0.0965808 0.190707 0.121627 -0.410549 -0.0413197 0.151814 0.282201 -0.485978 0.0296494 -0.361764 -0.159194 0.184941 -0.238898 -0.127259 -0.142863 0.111766 0.135186 0.301565 -0.42472 0.540644 0.376078 -0.109107 0.00908299 -0.256422 0.200127 -0.297179 0.134587 0.0835007 0.245564 -0.321369 0.193458 -0.0171673 0.539547 -0.180545 0.0868967 0.22669 0.0487031 0.0654546 -0.0691668 -0.0858626 -0.197479 -0.176512 0.34452 -0.173798 0.0329937 0.434386 0.00866533 -0.204676 0.170545 -0.585472 -0.355972 0.0457666 -0.0370018 -0.165354 0.00849511 -0.149702 0.160402 0.216438 -0.221026 0.18154 0.0376332 0.246134 -0.0644801 0.400962 0.202113 0.357482 -0.166215 -0.083451 0.0718288 -0.120061 -0.382742 0.0618747 0.0516661 0.455813 0.144307 0.343168 0.364781
601462 -0.267912 -0.240854 -0.240935 -0.18416 -0.127484 0.298164 0.171162 0.0783948 0.216145 -0.00413845 0.0329263 -0.146773 -0.149545 -0.168288 0.0855244 -0.502317 -0.399892 0.0362625 -0.0415762 -0.439615 -0.362868 0.283092 -0.24699 -0.23608 0.17564 -0.067284 -0.353259 0.119668 0.0526287 -0.138269 0.0100159 0.104676 -0.331739 -0.0741969 -0.0806849 0.217201 -0.000592599 -0.255334 0.349951 0.103698 0.705366 0.0144692 0.306055 -0.0665349 -0.0283948 0.162184 -0.0888535 -0.100007 -0.0711074 -0.154101 0.323161 0.31679 0.154058 0.320689 -0.0986906 0.0341432 -0.28136 -0.225918 0.0327344 0.122094 0.0176274 0.122966 -0.0132919 -0.514769 0.0415402 0.28354 -0.00411949 0.252343 0.0711934 0.541422 -0.48256 0.0706846 -0.81945 -0.0281435 -0.255517 0.286581 -0.26166 -0.366948 -0.0303031 -0.047281 -0.355896 -0.496828 -0.0912146 0.13863 -0.436264 -0.201653 0.175409 0.576276 -0.215891 -0.325477 -0.0450257 0.177794 -0.138478 -0.000767428 -0.0674551 0.0786889 0.154825 0.176065 0.2741 -0.0542399
628458 -0.0646771 -0.124093 -0.167074 0.0265903 0.0802621 0.122343 -0.0811395 -0.0515083 0.156461 -0.100758 -0.0768452 -0.0983388 0.0339864 -0.123314 0.0540323 -0.0442013 -0.110288 0.0678007 -0.0583865 -0.0137681 0.0127452 -0.0170441 -0.0520822 0.104399 0.141297 -0.106599 -0.0714585 0.0939476 -0.0449415 -0.000445909 0.0672161 -0.112179 -0.130625 0.0693576 -0.0898394 -0.0534409 0.0436438 0.0170442 -0.129661 -0.0306515 0.0994824 -0.00756147 0.037644 0.0523643 -0.0755212 -0.00766405 -0.0040394 0.0796439 -0.14712 0.0148633 0.0809945 0.125619 -0.00821009 0.18136 -0.0313315 0.101248 0.0144216 -0.0793694 0.0875826 -0.0758814 0.0432156 0.0124815 -0.157833 0.00154336 0.0292145 0.0768115 -0.0606708 -0.0179704 -0.0728114 0.132064 -0.111515 0.0388394 -0.135336 -0.0688439 -0.0739727 0.0346713 0.0237807 0.0555841 0.0313221 0.0673295 0.143398 0.0456387 0.00746112 -0.0125924 -0.12388 -0.0877032 -0.0805342 0.13652 -0.0992749 -0.00891389 -0.0175111 -0.0207748 -0.0318015 0.276743 0.0101843 0.0594168 0.0401132 0.0580927 0.169663 -0.0789685
28489 -0.496102 -0.256369 -0.0473498 0.150427 0.154093 0.362413 0.0712161 -0.157048 0.173933 0.0185423 -0.240067 -0.0849306 0.261525 -0.288659 0.0289115 -0.524728 -0.648245 0.254394 0.137271 -0.53334 -0.23407 -0.121883 -0.449741 -0.0184811 -0.150758 0.0789603 -0.555573 -0.183334 0.148174 0.215637 -0.0604178 0.00632154 -0.621224 0.0728903 -0.150688 -0.129294 -0.0635026 -0.18961 0.161315 0.0846474 0.35869 -0.317985 0.0739359 0.231568 0.0306851 0.0122611 0.0907366 -0.1032 -0.390613 -0.0844159 0.0960305 0.597711 0.142611 0.172679 -0.111047 0.235602 -0.133424 -0.36643 0.161938 -0.0247458 0.129672 0.170608 -0.152306 -0.235828 0.0468764 0.280652 -0.114086 0.0426714 0.134914 0.247567 -0.34835 0.115201 -0.438734 0.00622087 -0.392422 0.220082 -0.0121303 -0.192351 -0.0259136 0.0608717 -0.107003 -0.576135 0.275383 0.147542 -0.225482 -0.0952028 0.345132 0.495442 -0.0516772 -0.308246 0.105032 0.184806 0.0799628 -0.0703787 0.075244 0.139084 0.0852475 0.0965739 0.323821 0.0618588
218410 -0.0490081 -0.135414 -0.199722 0.0223281 0.0655979 0.208465 -0.0430514 -0.0430135 0.16971 0.000882676 -0.015397 0.183685 0.0331561 -0.0208958 0.059594 0.0467493 -0.0674186 0.117953 0.0979782 0.157132 0.201792 0.133649 0.109139 -0.0326616 0.168362 -0.0564221 -0.0322032 0.0591696 -0.0914702 0.117952 0.00239525 0.00478297 -0.114069 0.0486936 0.134337 -0.132852 -0.0588874 0.111422 0.0167689 0.0565772 0.102652 0.00127917 0.169769 0.306018 -0.049911 0.0590535 -0.0900797 0.0691966 -0.0753794 0.0338979 0.0374572 0.0882876 -0.203976 0.0265207 0.134987 -0.000161419 -0.121551 0.0164021 0.0291081 -0.125259 -0.0690734 0.0100852 -0.242601 0.033828 -0.0635485 0.0788828 -0.16798 0.112721 0.0444172 0.113056 -0.107757 0.0243794 -0.334261 -0.304944 -0.140901 -0.0502325 -0.054588 0.0855095 0.0720074 -0.0605402 0.197054 0.0877664 -0.203638 -0.0330714 0.105116 -0.154989 -0.0783323 0.0722456 0.141226 -0.117781 0.012926 0.0683887 0.0115577 0.216042 -0.0837054 0.0267061 -0.0109567 -0.0997902 -0.0151432 0.00433381
278394 -0.28051 -0.521231 -0.278925 0.246027 0.048204 0.108642 0.106856 -0.202446 0.0464711 0.0198305 -0.329804 0.156613 0.544657 -0.281566 0.324837 -0.139582 -0.309142 0.248219 0.38077 -0.619567 -0.0463806 0.200104 -0.518755 0.0058376 0.131009 -0.114497 -0.415669 -0.0475516 0.00797354 0.0544413 0.00302886 -0.0224913 -0.613365 0.0325139 -0.192716 -0.583125 -0.074111 0.260274 0.0254429 0.0263054 0.125465 -0.139095 0.664874 0.322649 -0.267977 -0.132986 -0.109516 0.0138824 -0.314273 0.155199 0.0307235 0.557201 -0.0246731 -0.0249637 0.06919 0.245113 -0.271602 -0.123518 0.401689 -0.14025 0.0891027 0.392227 -0.379811 -0.115056 0.090556 0.368633 -0.0506384 0.0386036 0.024427 0.331782 0.00179862 0.0806177 -0.18106 -0.44071 -0.250573 -0.0615872 -0.114201 0.0553179 -0.197144 0.0656226 0.223154 -0.20634 0.00466897 0.26818 0.00759632 -0.494944 -0.0534833 0.429125 -0.0504001 -0.272599 0.137518 -0.0812545 0.210141 0.256828 0.0347553 0.113893 -0.067865 -0.0516829 -0.109293 -0.156327
1112767 -0.124753 -0.0799994 -0.0353409 0.0689792 0.0349497 0.0774136 0.0345902 -0.158237 -0.0247 -0.0328876 -0.15519 -0.123777 0.116038 -0.0253581 0.022565 -0.0867525 -0.0741631 0.0725738 -0.05516 -0.2393 0.0931599 0.100492 -0.102136 0.030547 -0.0442959 -0.0977102 -0.193619 0.126424 -0.0247791 0.0494568 -0.0491952 0.0519144 -0.100762 -0.0203354 -0.166514 0.0571161 -0.0965666 0.0306431 0.0475306 -0.0164588 -0.025903 0.0077734 0.0230093 -0.0785011 0.10167 -0.116029 0.0165443 0.0253908 -0.0947925 -0.0478473 -0.0412979 0.119301 0.0553788 0.00940584 0.041555 0.0361425 -0.0275015 -0.0840759 -0.027448 -0.00847971 -0.0280508 0.0763546 0.0133126 -0.181147 -0.0451212 0.0807751 0.0364034 0.00975395 -0.092142 0.0771388 -0.0510799 -0.0136796 -0.011181 0.0421153 -0.114022 -0.00883682 -0.0525948 -0.113412 -0.149054 -0.0323669 0.0261209 -0.00984678 0.119831 0.129434 -0.0523398 -0.176533 0.0283072 0.137274 -0.142426 0.0675173 -0.0921444 0.00512305 0.10293 0.00434675 -0.0110864 0.118084 -0.0165932 0.134477 -0.0227703 -0.113785
70444 -0.184131 -0.0537628 0.0925625 0.302429 0.0514585 0.293713 0.271076 -0.0165451 0.0331218 0.0193284 0.210411 0.147558 0.0400327 -0.082821 0.261448 -0.221257 -0.183037 -0.0631916 0.243581 -0.176242 0.0618569 0.0897089 -0.0331718 -0.157551 0.238487 -0.110501 -0.4206 -0.268112 0.0731097 0.163397 -0.0700371 0.145834 -0.187982 0.049948 0.241237 0.0636577 -0.105735 0.224486 0.188543 0.132596 0.00448258 -0.215673 -0.0496651 0.156844 0.0919164 0.142854 -0.00833121 -0.025538 0.127693 0.122623 0.0491281 0.268882 0.115196 -0.310625 -0.0339223 -0.0987334 -0.0745073 0.132172 0.179706 -0.376671 -0.0415898 0.101466 0.0127036 0.00229008 -0.297211 0.327645 -0.155736 0.0677179 0.005034 0.139991 -0.0353839 -0.0169605 0.0429345 -0.0407338 -0.383954 -0.0103272 -0.148745 0.00771039 -0.00617207 -0.0835862 -0.0114424 -0.0910933 0.00484709 0.118667 -0.00866167 -0.130097 0.185336 -0.00272556 0.276458 -0.239338 0.29018 0.116475 0.111802 -0.236451 -0.0285797 0.0318298 0.11093 -0.0203928 -0.123993 0.08187
126920 -0.212975 -0.285813 -0.0510516 0.322209 0.0121768 -0.0445105 0.359822 -0.150761 -0.13526 0.0909355 -0.426957 -0.0077917 0.754722 -0.332521 0.367687 -0.246941 -0.157897 0.0556301 0.274182 -0.670981 -0.190393 0.030742 -0.587355 -0.112897 -0.128383 -0.0683902 -0.571296 -0.0387914 0.196936 -0.0361724 0.0522438 0.0813357 -0.568493 0.0925691 -0.255436 -0.572532 0.187645 0.0950607 -0.105593 -0.101482 0.085525 -0.14302 0.261613 0.0467019 -0.431775 0.0288895 0.139633 -0.0212906 -0.0975028 0.180173 0.0727854 0.46137 0.280441 -0.074365 0.00675759 0.224444 -0.0123533 -0.116532 0.289671 -0.058196 0.18104 0.320027 -0.0626047 0.0783711 0.114501 0.342538 -0.0965255 -0.100018 0.0586188 0.0712652 0.118672 0.126764 0.243947 -0.136295 -0.291115 0.108529 -0.10581 0.134177 -0.329326 0.216183 -0.0113389 -0.47305 0.196088 0.413054 -0.16526 -0.126318 -0.0946783 0.32471 -0.109729 -0.142847 0.20292 0.0335422 0.165727 0.310437 0.0366357 0.0345646 0.0391225 0.0569372 -0.0933825 0.0938747
1123553 -0.368724 -0.235356 -0.382752 -0.0164935 -0.228694 0.274207 -0.0430787 0.00592189 0.271743 0.028579 -0.118421 -0.134834 0.0888992 -0.279298 0.261621 -0.43308 -0.469537 0.159696 0.21481 -0.285892 -0.344685 0.0617842 -0.294912 -0.140561 0.203058 -0.0653295 -0.409733 -0.248451 0.090304 0.0550772 -0.049625 -0.0802725 -0.379246 0.0137259 0.103974 -0.065495 -0.107361 -0.0816288 0.10927 -0.0695656 0.418427 -0.223279 0.214433 0.235157 -0.153978 0.148651 0.0657274 -0.120346 -0.25239 0.0297933 0.185316 0.331914 0.303079 0.233965 -0.081421 0.112203 -0.202002 -0.196338 0.0890421 -0.0970742 -0.00813011 0.183168 -0.113536 -0.097395 0.0875326 0.122479 -0.0708324 0.00257954 0.0105199 0.322482 -0.36493 0.0832633 -0.481714 -0.239316 -0.327467 0.267647 -0.0852545 -0.10576 -0.0364705 0.0407101 -0.230767 -0.152446 -0.0986977 -0.133881 -0.312274 -0.118281 0.13361 0.493121 0.125801 -0.183445 0.141314 0.0259105 -0.0379466 0.0378025 0.175888 -0.0370394 0.241762 0.177677 0.335588 0.0321539
12359 -0.320262 -0.287913 -0.170105 -0.264724 0.00569626 0.204692 -0.110331 -0.061277 0.394381 -0.130302 -0.0802054 -0.0345804 -0.0843641 -0.128246 -0.213328 -0.0840492 -0.416175 0.0394609 -0.00461209 -0.126354 -0.0873065 0.106426 -0.472477 0.163923 0.233859 0.156894 -0.325938 -0.0551689 -0.0839985 -0.0433974 -0.0671119 -0.275894 -0.560521 -0.129975 -0.164414 -0.221382 -0.0641694 -0.0935381 -0.0164653 0.16039 0.4361 -0.353724 0.478 0.147839 0.0148522 -0.142869 0.00368461 -0.196004 -0.347757 0.0507984 0.38626 0.415688 -0.190891 0.575441 0.0524842 0.425626 -0.258503 -0.141314 0.305797 -0.182214 0.201356 0.122945 -0.153208 -0.0887207 0.171411 0.214931 0.230336 0.129332 0.144553 0.18035 -0.354792 0.103931 -0.399988 -0.00858329 0.123658 0.0881108 -0.131235 0.075409 0.0562922 0.418186 0.202481 -0.136676 -0.0312971 -0.125646 -0.172668 -0.310812 0.0232385 0.474795 0.0760937 -0.186602 0.025719 -0.117117 -0.0595186 0.325757 -0.0404429 -0.0459089 0.0559573 0.0603032 0.228295 -0.302633
521183 -0.0977696 -0.296174 -0.0247162 -0.0090295 -0.00933 0.0334995 0.293063 -0.249207 0.33646 0.106589 0.218571 0.118518 0.0436844 -0.165918 0.130324 -0.340128 -0.421661 0.0340854 0.206664 -0.421241 -0.14958 0.284569 -0.374915 -0.195433 0.163144 0.146537 -0.293195 -0.0850537 0.128393 0.153904 -0.198543 0.0943499 -0.423901 -0.126472 0.260929 -0.274922 0.0241298 -0.106882 0.152611 0.232295 0.296723 -0.333939 0.435581 0.333874 -0.175592 0.106037 -0.169696 0.0108357 -0.129822 0.251236 0.130765 0.318948 -0.101399 0.269222 -0.0686397 0.30838 -0.0904923 0.122057 0.249001 0.0306386 0.0936887 0.0117795 -0.079529 -0.25931 -0.0714126 0.321858 -0.143645 0.0635711 0.411798 0.200716 -0.113954 0.193966 -0.390059 -0.239591 -0.111142 -0.0838236 -0.23933 -0.0917577 -0.00696904 0.129486 0.144298 -0.184825 -0.0334612 -0.000969877 0.176751 -0.0594772 0.33792 0.142849 0.267548 -0.359359 0.120154 0.0748755 -0.0662384 -0.372185 0.0826991 0.02071 0.211777 -0.0410279 0.0412278 0.269563
714256 -0.0575862 -0.206521 -0.049486 0.0723017 0.0496064 -0.0907553 0.178018 -0.127951 0.127264 0.0503461 0.0363853 0.109703 0.263853 -0.0935757 0.336583 -0.315188 -0.235237 0.0492484 0.208338 -0.351697 -0.19206 0.050641 -0.446518 -0.00740471 0.350681 -0.0709947 -0.283825 -0.296014 0.170238 -0.0266009 -0.0793569 0.0650758 -0.282839 0.0852341 -0.0328249 -0.318755 -0.00104456 0.131545 -0.0837904 -0.0863949 -0.0762876 -0.22224 0.247832 0.123264 -0.381103 0.0784083 -0.0820196 0.018189 -0.116151 0.210954 0.141963 0.122879 0.0239658 -0.00826439 -0.0716345 0.247485 0.110316 0.0420304 0.125423 -0.160443 0.161162 0.0495455 -0.126824 0.0617779 0.104327 0.191744 -0.0733213 -0.283829 0.11606 -0.0602774 0.14435 0.160163 0.109718 -0.389383 -0.200647 0.0104789 0.0274757 0.0474913 -0.233046 -0.00165251 0.125082 -0.26276 0.0461022 -0.0245173 -0.0164995 -0.119654 0.263146 0.157836 0.078193 -0.0728125 0.337889 0.0869342 0.0133108 -0.0518834 0.186603 0.0537265 0.0997724 0.0496831 0.134782 0.109675
160705 -0.123681 -0.424129 -0.157241 -0.0593015 0.253168 0.250682 0.0237614 -0.141624 0.333892 -0.139608 -0.0949212 -0.065879 0.181222 -0.18714 0.0982841 -0.199504 -0.28407 0.386131 -0.0313835 -0.350507 -0.0673425 0.185722 -0.454084 0.142388 0.183082 -0.132957 -0.554962 0.152392 0.106953 0.0515073 -0.349175 -0.014783 -0.368422 0.0133881 -0.225206 -0.367315 0.0324413 -0.0553907 -0.0213507 -0.062751 0.199665 -0.120108 0.356217 0.19555 -0.043108 0.119078 -0.120881 0.100775 -0.526124 0.0983545 0.151428 0.453887 -0.171789 0.347086 -0.0714944 0.322889 -0.0826648 -0.142193 0.0407766 -0.0312909 0.0337099 -0.0479097 -0.433672 -0.124226 0.222193 0.294081 -0.0754796 0.00949704 0.198598 0.0789628 -0.179196 0.10642 -0.396812 -0.211485 -0.0826158 0.0533779 -0.0324249 -0.15827 -0.186336 0.125068 0.264292 -0.0361259 -0.0131763 0.0575341 0.0992993 -0.262827 0.0755282 0.506688 -0.0953415 -0.0895423 -0.0352777 0.0690799 0.0715076 0.365897 0.117313 0.265933 0.179678 0.0289609 0.0135809 -0.0216723
100197 -0.140639 -0.343242 -0.294164 0.215229 0.178047 0.306623 0.0923916 -0.10156 0.140031 0.00984404 -0.226959 -0.0283152 0.185844 -0.216883 0.02274 -0.121761 -0.0306073 0.0600816 0.0377396 -0.229572 0.0687655 0.179722 -0.0426958 -0.159274 -0.0510643 -0.302937 -0.267032 0.241191 0.125338 0.0245944 0.0237674 -0.186495 -0.338719 0.245643 0.0128266 -0.00757681 0.0217007 -0.0769262 0.0173018 0.045982 0.0884511 0.0940879 -0.0300465 0.311375 -0.0951964 -0.117404 0.00729999 0.17773 -0.139279 -0.151133 -0.0567021 0.21438 0.0936168 0.0328232 0.130467 0.0405077 -0.101888 -0.234495 0.144529 -0.100187 -0.0631963 0.0887249 0.135441 -0.14733 -0.0543596 0.263689 -0.116546 -0.0188338 0.0661559 0.0920402 -0.106939 0.0768185 -0.401973 -0.178831 -0.117356 -0.0360905 -0.110242 -0.0175996 -0.0432815 0.0403802 0.345151 -0.0130718 0.215207 0.120689 -0.175457 -0.115275 -0.0558394 0.346729 -0.0488688 -0.0696682 0.0451731 -0.0349792 0.106362 0.191102 -0.1434 -0.177733 0.152606 0.0232987 0.249584 0.123604
14428 -0.026402 -0.169752 -0.115161 -0.124727 -0.293545 0.149523 0.0601876 -0.219945 0.249119 0.110417 0.0304119 0.100724 0.163323 -0.0251373 0.128839 -0.218705 -0.295642 0.110155 0.389943 -0.252957 -0.177372 0.0411347 -0.418725 -0.05233 0.0250797 0.0139696 -0.284974 -0.117526 0.170629 0.199617 -0.181773 0.233944 -0.0752515 -0.154053 0.0885692 -0.0678123 -0.130462 -0.276474 0.179484 0.103165 0.15059 -0.0696302 0.459815 0.114513 -0.224696 0.1624 -0.104715 0.0907957 -0.103906 0.0521756 -0.067148 0.0374813 -0.208875 0.0519739 -0.157616 0.12682 -0.0492413 0.119154 0.00764984 0.0162024 0.0368863 0.0686593 -0.236698 -0.102233 -0.153347 -0.0464859 -0.114364 0.101224 0.0430156 0.0568835 0.0113007 0.159787 -0.295979 -0.369687 -0.318887 0.107868 -0.0733348 0.00174185 -0.089655 -0.168034 -0.0565094 -0.29671 0.0641312 -0.0957133 0.033737 0.000467998 0.434787 0.186353 0.143898 -0.043624 -0.026358 0.0338644 -0.0225117 -0.167961 0.26921 0.143488 0.339075 -0.0662981 0.178473 0.152506
1102407 -0.156433 -0.384571 -0.323728 0.198443 0.0632579 0.167845 -0.0526314 -0.158295 0.111037 -0.0937879 -0.156364 0.0485978 0.100515 -0.29449 0.121315 -0.159141 -0.022483 -0.00657559 0.0781066 -0.124614 0.0971678 0.231155 -0.175702 -0.0591799 0.112947 -0.38262 -0.240298 0.220354 0.0963576 -0.0276137 0.169683 0.00897616 -0.121528 0.166125 -0.0695096 -0.0704815 0.117488 0.0882596 -0.00382737 -0.00791644 0.186827 0.0956694 0.0626221 0.140369 -0.119243 0.0224583 -0.0287567 0.175158 -0.0927186 -0.0723775 0.044089 0.154677 -0.0135311 0.0945113 0.137615 -0.0746905 -0.0519521 -0.0845199 0.139733 -0.145259 -0.0736072 0.00932696 -0.10906 -0.1465 0.0442184 0.256059 0.0499443 0.0281559 -0.0586969 0.145489 -0.063874 0.0418821 -0.323516 -0.109103 -0.211763 0.0749412 -0.125332 -0.018657 -0.0521538 -0.0319195 0.274549 -0.0862279 0.0990416 0.198365 -0.343428 -0.195046 0.0363334 0.358547 -0.309659 -0.0662209 0.0945476 -0.0803449 0.0681844 0.302539 -0.204041 -0.0214652 0.08208 0.00356675 0.155246 0.0171711
16470 -0.0956312 -0.208355 -0.113642 -0.108556 -0.0974375 0.140671 -0.0932145 0.0151458 0.0541955 -0.0836567 -0.116931 0.0202439 0.0500888 -0.168074 0.114591 -0.194322 -0.242848 0.174233 0.0954905 -0.0964914 -0.172509 -0.0130689 -0.279743 0.0175934 0.148554 0.0180335 -0.172704 -0.0416156 0.10754 -0.0279905 -0.0292981 -0.0385434 -0.216279 -0.0158622 -0.158279 -0.0536318 -0.0469812 -0.152048 0.0756984 -0.0789579 0.213169 0.056139 0.246768 0.144096 -0.226449 0.000940331 -0.0158447 -0.0571163 -0.146009 -0.158561 0.129896 0.318839 -0.00176195 0.125218 -0.112629 0.0306904 -0.0526392 -0.164498 0.00613234 0.0968297 0.0859895 0.228009 -0.154376 -0.0120959 0.112866 0.0535574 -0.0264137 0.0198888 -0.106626 0.101538 -0.113492 0.0368342 -0.235265 -0.132946 -0.164118 0.15249 0.0778168 -0.0958208 -0.13019 -0.107026 -0.141384 -0.229452 0.0428679 -0.139067 -0.2574 -0.286965 0.0840032 0.252034 -0.14645 -0.0328903 0.0733305 0.0100372 -0.000816367 -0.0282706 0.192376 0.0587611 0.0677534 -0.129726 0.215438 -0.180444
120039 0.140257 -0.146974 -0.198352 -0.0317707 -0.267565 -0.020656 -0.102811 -0.166821 0.0908819 0.305458 -0.164459 -0.00990011 0.0767177 -0.058204 0.0932337 -0.139764 -0.047827 0.0642002 0.107175 -0.299315 -0.30673 0.0567395 -0.135108 0.00543907 0.199568 0.256742 0.150691 0.0499975 0.0652658 0.00126084 -0.0180645 -0.00397613 -0.202209 -0.0743204 0.0241056 -0.233747 0.115898 -0.118992 -0.0630958 0.0981544 0.489706 0.0468312 0.44746 -0.00184478 -0.363897 0.118216 -0.0458981 -0.0551542 -0.167318 0.257697 0.0144627 -0.0338763 -0.142319 0.318484 0.0531217 0.269276 -0.0630714 -0.100402 0.114727 0.244578 0.142486 0.10198 -0.175205 -0.0444863 -0.043924 -0.0167262 -0.136338 0.0436099 0.0832672 0.293358 -0.123347 0.0437293 -0.33076 -0.268134 0.160635 0.122978 -0.0498147 -0.0906917 0.083273 0.283264 -0.00391019 -0.097418 -0.206833 0.0865402 0.229103 0.100038 -0.0559992 0.0745873 0.0644176 -0.0959979 -0.252907 -0.0118369 -0.226194 -0.139531 0.110963 -0.100489 0.155099 0.263117 0.106147 0.278126
423463 -0.404269 -0.580309 -0.413245 0.280093 0.0150833 0.568258 0.068368 -0.223547 0.121156 0.1942 -0.553311 -0.157918 0.564953 -0.20681 0.0757979 -0.165046 -0.0689238 0.0906632 0.380237 -0.525571 -0.217561 0.102139 -0.497267 -0.045946 -0.195238 -0.173591 -0.616684 0.367893 0.221209 0.0982528 -0.0638457 -0.096992 -0.415064 0.0428566 -0.159975 -0.206358 -0.1226 -0.16673 0.0941166 -0.0254685 0.196788 0.123742 0.460265 0.444624 -0.329306 0.104619 0.127207 0.215353 -0.35025 -0.205441 -0.158685 0.391975 0.0143636 0.138269 0.0156656 0.173879 -0.180705 -0.223647 0.199805 0.0130168 -0.145343 0.562611 -0.0868704 -0.160657 -0.0976538 0.239914 -0.241434 -0.090593 0.128048 0.158651 0.022043 0.100662 -0.3805 -0.218953 -0.161052 0.113619 -0.109321 -0.208595 -0.379731 0.0528101 0.168136 -0.271939 0.149878 0.303038 -0.245192 -0.204613 0.0727767 0.574699 -0.121552 0.0129679 -0.171728 -0.150131 0.0350086 0.199484 0.0286081 0.111353 0.27507 0.0776174 0.330611 0.0886358
1128227 -0.230339 -0.385153 -0.113227 0.0385862 -0.0456968 0.0489968 0.0647471 -0.00348219 -0.0690321 0.219106 -0.0443851 -0.0174972 0.208025 -0.115854 0.196279 -0.256985 -0.190043 0.0944751 0.130639 -0.466362 -0.319326 0.116226 -0.229283 -0.153821 0.056613 0.154541 -0.178291 0.029552 0.132246 0.0231897 -0.152551 0.145341 -0.292968 -0.128001 0.025793 -0.353979 0.0167339 -0.149111 0.216785 0.147549 0.256125 0.0256814 0.368015 0.156163 -0.215097 0.110913 -0.0773802 -0.0165824 -0.0316112 0.0101767 0.133317 0.160993 0.128533 0.0916891 -0.0934462 -0.0618515 -0.2039 -0.0272772 0.136723 0.208083 -0.0554743 0.296439 -0.16728 -0.242147 0.0933246 0.18622 -0.169261 0.0163999 0.121281 0.323997 -0.153077 0.0213708 -0.212724 -0.146148 -0.115605 0.0465835 -0.140962 -0.170751 -0.139407 0.0857384 -0.220979 -0.341226 -0.223909 0.192953 -0.0170045 -0.304425 0.0597745 0.28288 -0.0254122 -0.199917 0.0619577 0.0750842 -0.0482418 -0.125543 0.0420606 0.157085 -0.122647 -0.0738632 -0.0396202 -0.0868143
59715 -0.236139 -0.345299 -0.188052 0.121882 0.0777111 0.214833 0.279172 -0.150719 0.336728 -0.0231628 0.0879703 -0.0402355 -0.0384635 -0.0956943 -0.00820045 -0.492421 -0.375616 -0.128175 0.00989245 -0.553597 -0.268399 0.470801 -0.374571 -0.108636 0.456246 -0.143701 -0.547623 0.0328896 0.015455 -0.173389 -0.131638 0.0437248 -0.378419 -0.0543502 0.132106 0.253171 -0.175843 0.107837 0.142144 -0.00768603 0.448539 -0.295307 0.340802 0.0449154 0.0299208 0.140881 -0.243441 0.0244818 -0.148286 0.186822 0.133893 0.517161 0.0692713 0.0821469 0.126264 0.254132 -0.263781 -0.046152 0.218834 -0.206526 0.0667393 0.040435 -0.0823514 -0.393942 -0.180151 0.633566 -0.024122 0.135625 0.103246 0.409001 -0.42183 0.0642424 -0.561247 -0.0237968 -0.209848 0.199567 -0.436325 -0.399891 -0.185235 0.142026 0.0251842 -0.321114 0.0207893 0.21671 -0.197433 -0.379177 0.240833 0.686602 -0.162238 -0.317413 0.082704 0.0654008 -0.0291938 -0.009929 -0.0363091 0.0704553 0.284495 0.446848 0.203816 0.0999
628751 -0.0866839 -0.105537 0.0161024 0.110648 0.173287 0.187134 -0.0042425 -0.0401568 0.137535 -0.158953 0.0361289 -0.0213619 0.00470605 -0.0965823 0.0769576 -0.207875 -0.212545 0.111867 -0.0960757 -0.0554898 0.0781207 0.0456764 -0.0941194 0.0502502 0.210742 0.000693025 -0.239685 -0.0252643 0.0393037 0.0733241 -0.214806 0.0249208 -0.209101 0.0205404 -0.0462193 -0.0154319 -0.136781 0.0572063 0.0648876 0.0577707 -0.0120326 -0.0881606 -4.30224e-05 0.100682 0.0426103 -0.016505 -0.0941483 0.0211206 -0.130706 -0.0608831 0.0910305 0.312298 0.00689419 0.00137631 0.0310747 0.0478089 0.0199349 -0.100486 0.0677178 -0.115819 0.047642 0.0550184 -0.153601 -0.10659 -0.0205698 0.299372 -0.0869632 -0.139685 -0.00157046 0.0485204 -0.0887715 0.0432389 -0.0211194 -0.014211 -0.115696 0.000309992 0.045401 -0.162582 -0.0965146 0.00150394 0.0886932 -0.069011 0.0339507 -0.10112 0.00873016 -0.238103 0.103598 0.0852391 -0.0140501 -0.0542294 0.0958031 0.12013 0.134564 -0.114199 0.0969539 0.140212 0.0141777 -0.00749939 0.0609364 -0.173494
6344 -0.15751 -0.193196 -0.239798 0.239217 -0.027898 0.194276 0.016739 -0.19888 0.279734 0.164188 -0.0562186 -0.00532159 0.14368 -0.150836 0.142732 -0.100678 -0.248969 0.0653823 0.272905 -0.203623 -0.216776 0.106679 -0.222445 0.0600066 0.383764 0.0816058 -0.183157 -0.18615 -0.166228 0.139001 -0.0675324 -0.170033 -0.466737 -0.110796 0.190039 -0.187182 -0.173092 0.207503 0.0683413 0.13217 0.320953 -0.271269 0.550975 0.491337 -0.294855 0.0428364 -0.0228294 0.0906157 -0.16379 0.221854 0.0528329 0.423604 -0.133874 0.10104 -0.0549974 0.402148 -0.180196 0.0685088 0.356968 -0.135738 0.0979779 0.232569 -0.250993 0.101446 -0.209339 0.272792 -0.299269 0.11266 0.238114 0.318927 -0.0531973 0.048146 -0.140418 -0.344733 -0.127818 0.0231182 0.0109123 0.111544 -0.0913226 0.134599 0.195916 0.0395353 -0.0773375 -0.0375172 0.142542 -0.219753 -0.00984454 0.110682 0.221092 -0.266084 -0.00466381 -0.0703785 -0.208458 -0.0435305 0.159652 0.0800006 0.113356 0.0736751 0.148048 0.10813
642894 -0.272398 -0.272367 -0.191359 0.168356 0.0332786 -0.176472 0.195714 -0.122224 0.196456 -0.0102579 -0.300514 0.0772313 0.370937 -0.431033 0.213588 -0.0918501 -0.327292 0.0321196 0.295002 -0.76862 -0.208399 0.201656 -0.559755 -0.104147 0.0336792 -0.118806 -0.268376 -0.214006 -0.0141503 0.0467388 0.26004 -0.0852991 -0.57382 0.044372 -0.0580533 -0.422063 0.204775 0.159078 -0.141256 -0.00335751 0.339629 -0.209925 0.594831 -0.0228947 -0.19196 -0.185791 -0.0577381 0.0495406 -0.324254 0.382762 -0.00464057 0.460722 0.237601 0.169479 0.003386 0.277456 -0.0977767 -0.169624 0.347779 -0.00291363 0.377911 0.166104 -0.131189 -0.247525 0.247777 0.457739 -0.0223915 0.087358 0.128224 0.572517 -0.0317471 0.145359 -0.195126 -0.400888 -0.244042 0.121576 -0.30959 0.106898 -0.108255 0.15965 -0.0429432 -0.22273 0.215653 0.382427 -0.105908 -0.0668778 0.031806 0.336148 -0.142556 -0.318984 0.197095 0.0346927 -0.102039 0.218548 0.0196768 -0.0995736 0.0890259 0.0692114 0.0923673 0.207141
1107067 -0.150963 -0.162373 -0.183383 0.232542 0.0813649 0.200926 0.00990763 -0.109512 0.108731 -0.0349588 -0.195242 0.0753843 0.116626 -0.0971479 0.252806 -0.122008 -0.259043 0.119702 0.202912 -0.295613 -0.0662337 -0.0473002 -0.101882 0.184316 0.361545 0.10311 -0.273231 -0.297488 -0.115432 0.205224 -0.0398352 0.0617342 -0.351982 -0.164419 0.0334362 -0.282374 -0.119132 0.23416 -0.00198794 -0.0341236 0.195055 -0.228255 0.406877 0.170617 -0.22511 0.0585733 -0.0430002 0.108838 -0.102822 0.228474 0.125428 0.507637 -0.0243538 -0.107665 0.116658 0.118511 -0.149204 -0.0278123 0.259027 -0.147201 0.0928397 0.322216 -0.347474 0.143315 -0.129428 0.270568 -0.384124 0.0635396 -0.0207974 0.284758 -0.0440823 0.0528863 0.0220461 -0.246296 -0.236815 0.0202498 0.0866699 0.0320637 -0.142926 0.159952 0.0106949 -0.0257792 -0.11344 0.0855213 0.286331 -0.351463 -0.128758 0.120249 0.131651 -0.312466 -0.00161985 0.0514822 0.0368052 0.0825623 0.139576 0.24916 -0.0665601 0.105926 -0.0255106 0.0396317
62347 -0.0582852 0.0518505 0.0288219 0.00321658 0.0374834 0.0959669 0.018428 0.0531301 -0.0191855 0.0540962 0.0398659 0.0174745 -0.0388443 0.0609758 -0.0605846 -0.0649951 -0.0433067 0.0697779 0.042175 0.0153566 -0.0568021 -0.0776134 0.0244089 0.012746 -0.0910474 0.0549493 -0.0744043 -0.0118666 0.021753 -0.0121077 -0.032434 0.0490418 -0.00261796 0.0770813 -0.0829241 0.0762694 -0.00718612 -0.0277118 0.0783072 -0.0493786 0.0350817 0.034236 -0.0642709 0.0223448 0.074742 0.0880039 0.0259227 -0.0880791 -0.00577429 -0.081455 0.000793136 0.0167279 -0.0109379 -0.0549387 -0.0481852 -0.0386558 -0.0282805 -0.0503336 -0.0687715 0.0017714 -0.0511799 -0.0258729 -0.0338433 -0.0199331 -0.0294261 -0.047502 0.00691114 0.0477135 0.0256916 -0.0226142 -0.068716 0.0023737 -0.12869 0.0474802 -0.0674862 0.0793044 0.0271368 -0.0927035 0.0567186 -0.0241512 -0.0943706 -0.1499 -0.00355996 0.0362145 -0.0697626 0.0196666 0.0533296 0.116459 -0.0165559 -0.041031 0.00223421 0.114857 -0.0117972 0.024172 -0.019715 0.057294 0.0337774 0.000425384 0.0333567 0.0067389
248431 0.111065 0.285112 -0.0437255 0.295284 -0.0593473 0.0498177 0.0628455 0.16441 -0.0801028 -0.235928 -0.0640327 -0.19666 0.036472 0.195573 -0.025027 0.334767 0.401473 -0.290822 -0.0540213 0.208568 0.0100967 0.0772669 0.397177 0.121496 0.0200631 -0.307418 0.142332 0.167936 -0.329338 -0.234867 0.352154 -0.161347 0.317931 -0.0357254 0.175742 0.551279 -0.0940026 0.085394 0.0871374 0.0377538 -0.0279225 0.0616593 0.00563301 -0.160228 0.0229544 0.143435 0.237962 0.0912075 0.266121 -0.07903 -0.315623 -0.00244794 0.220861 -0.210051 0.0865418 -0.112507 -0.0254335 0.19148 0.174588 -0.392494 -0.210764 0.0897773 0.173339 0.143577 -0.342077 0.00918698 0.248182 0.0344006 -0.115788 0.137381 0.128555 0.00638478 0.436689 0.301628 0.0409436 0.199379 -0.188172 0.115284 -0.0381594 0.0947569 -0.0571697 0.180642 -0.0323744 -0.0921514 -0.165714 0.116359 -0.349382 -0.0256136 -0.0379597 0.124529 -0.139307 -0.204095 -0.125268 0.177226 -0.110507 -0.0143681 0.0348132 0.263821 -0.0176862 -0.180504
166825 -0.0933701 -0.603124 -0.328342 -0.159816 0.0348544 0.312236 0.0802142 -0.302927 0.506666 -0.0165677 0.217501 0.168675 -0.0158258 -0.257937 0.0424811 -0.359793 -0.413642 0.0858045 0.0594751 -0.266395 -0.152369 0.328477 -0.289921 -0.14615 0.498523 -0.0401087 -0.360639 -0.00462503 0.11297 0.0374802 -0.236234 -0.248239 -0.454109 0.0740225 0.289331 -0.298883 0.0996577 -0.16121 0.0854563 0.259004 0.376161 -0.237547 0.404682 0.40721 -0.215382 0.0902164 -0.231125 0.148156 -0.261067 -0.00228635 0.327705 0.22089 -0.174286 0.387104 0.0514059 0.262759 -0.148179 -0.0773409 0.257854 -0.0741719 0.106084 -0.000454223 -0.060574 -0.150306 -0.0157509 0.358191 -0.148439 0.00489463 0.293095 0.205531 -0.327701 0.224046 -0.779705 -0.390237 0.00129853 -0.0771054 -0.265314 -0.0224096 -0.112278 0.177836 0.49589 -0.0915757 -0.0456129 -0.0810286 -0.0247 -0.320204 0.143712 0.407891 0.313763 -0.286203 0.157361 -0.00417737 -0.0869481 -0.0716765 -0.0276491 -0.0763656 0.258376 -0.00775265 0.401218 0.19224
194223 0.0108348 -0.491848 -0.259825 -0.0661581 -0.12456 0.174575 0.103284 -0.322689 0.202786 0.0286088 -0.286581 0.224071 0.613703 -0.224208 0.177806 -0.300062 -0.319916 0.270243 0.174724 -0.441847 -0.260143 0.225261 -0.58304 0.0419752 0.156559 0.0452741 -0.558468 -0.00616969 0.258972 0.00950459 -0.353164 -0.171865 -0.316274 0.0835244 -0.277879 -0.550669 0.0917026 0.0757296 -0.0786689 -0.325899 0.0365902 -0.153027 0.412514 0.159482 -0.355332 0.134173 -0.040675 -0.0961397 -0.636639 0.196025 0.0507244 0.409753 -0.0966524 0.0993695 -0.0448937 0.376495 -0.0397782 -0.207442 -0.0217132 0.143046 0.240095 0.144111 -0.167423 0.12999 0.263923 0.139409 0.0612992 -0.0382754 0.13227 -0.102237 -0.0987651 0.119028 -0.28869 -0.499777 0.0554353 0.161808 0.0274691 -0.0739158 -0.353635 0.0765455 0.0977155 -0.355853 0.0950778 0.0560965 0.0573536 -0.186063 0.0300894 0.597655 0.0479934 -0.00438278 0.0761058 0.00397115 0.124794 0.159232 0.246009 -0.0778671 0.390475 0.0943551 0.161294 0.170739
1111614 -0.0495658 -0.320341 0.135397 0.0201252 0.0795418 0.0541791 0.169341 -0.206438 0.207874 -0.117952 0.159185 0.0628587 0.130739 -0.107718 0.0586374 -0.213497 -0.284228 0.12325 0.0255384 -0.305595 -0.0067531 0.1554 -0.303649 -0.0881441 0.14995 0.0590047 -0.349745 0.0018271 0.147326 0.034028 -0.295601 -0.00934779 -0.42757 0.0244373 0.169794 -0.208974 -0.00238866 -0.0695736 0.0545981 0.109364 0.0424994 -0.212896 0.188233 0.287811 -0.128939 0.0766205 -0.195862 0.0342421 -0.143011 0.13472 0.103961 0.41137 -0.10946 0.142321 -0.0628081 0.284561 -0.0251085 0.0517613 0.212827 -0.0350123 0.0616851 -0.026573 -0.115082 -0.100043 -0.0776121 0.388427 -0.0744777 -0.0410755 0.293568 0.00506407 -0.0672025 0.11535 -0.170329 -0.019343 -0.0711861 -0.0764236 -0.063426 -0.0710491 -0.0668211 0.135836 0.260624 -0.130403 0.0267593 -0.0693393 0.148257 -0.174201 0.186985 0.107701 0.0939928 -0.182917 0.117815 0.0658639 0.122924 -0.253119 0.149337 0.105852 0.158419 -0.13214 -0.0870987 0.0274847
239800 -0.0226818 -0.102563 -0.321953 -0.267124 -0.246395 -0.0313822 -0.180043 -0.156747 0.200006 0.0596912 -0.288344 -0.11972 -0.0193334 -0.0220668 -0.0375167 -0.136602 -0.115982 0.00797673 -0.0775153 -0.157813 -0.260893 0.0503016 -0.23136 0.0375816 -0.0200949 0.112542 -0.0445837 0.140004 -0.00872193 0.0392634 -0.0233192 0.00743915 -0.0246363 -0.208925 -0.126325 -0.124993 0.0851004 -0.188074 -0.0824501 -0.100141 0.368575 0.112083 0.403588 -0.179673 -0.200204 -0.0170539 -0.100221 0.0322983 -0.26964 -0.0230818 0.136013 -0.0210038 -0.125829 0.35989 0.130722 0.172874 -0.0341527 -0.154866 -0.147494 0.269578 0.138766 0.0107802 -0.11571 -0.159625 0.195096 -0.179024 -0.00152257 0.0577197 -0.0404579 0.179111 -0.211991 0.0714362 -0.470584 -0.295651 0.0681134 0.143082 -0.114476 -0.0596967 -0.102888 0.150433 -0.194522 -0.0231935 -0.0549143 0.0218786 0.0104459 -0.0538169 -0.0880304 0.325052 -0.0393378 0.0560307 -0.196954 -0.00131951 -0.229584 0.209697 0.174495 -0.001381 0.0567351 0.233975 0.329742 0.0460856
6917 -0.0643384 -0.242376 -0.166052 -0.0100772 -0.15703 0.126816 0.107596 -0.169342 0.216422 0.00946289 0.0669613 0.132293 0.161177 -0.173728 0.219567 -0.255013 -0.323551 -0.0796668 0.190035 -0.303637 -0.111962 0.18435 -0.361099 -0.111164 0.402906 -0.139997 -0.337199 -0.334499 0.0579579 0.123632 -0.0772968 0.0972884 -0.138496 -0.0962098 0.252549 -0.0877999 -0.0903609 0.116372 0.135189 0.0823387 0.0920573 -0.244946 0.318381 0.0910816 -0.24619 0.103146 -0.166463 0.109432 -0.0201361 0.130379 0.0459911 0.202568 0.0204207 -0.0951164 -0.0335816 0.0846849 -0.121765 0.125772 0.127839 -0.127193 0.114802 0.103611 -0.119193 -0.0316795 -0.0393421 0.353997 -0.121828 -0.0761673 0.0604378 0.196409 -0.0254517 0.0798363 -0.156122 -0.3679 -0.27759 0.0239179 -0.0846608 -0.0154742 -0.154451 -0.229483 -0.0139711 -0.1678 0.0138576 0.0436019 -0.0433678 -0.188388 0.279914 0.158546 0.0650751 -0.228522 0.189429 0.020282 -0.00704358 -0.159402 0.131113 0.0923179 0.169262 -0.0190877 0.164791 0.173991
1113438 -0.335033 -0.285168 -0.0731431 0.143048 -0.0206625 0.110806 0.337241 0.0604069 0.0235389 0.114029 -0.0407771 -0.0942087 0.163272 -0.138624 0.334983 -0.359184 -0.352717 0.11566 0.283759 -0.688148 -0.373264 0.159245 -0.258222 -0.135338 0.324134 0.078603 -0.421456 -0.133797 0.163882 -0.183658 -0.237422 0.0885196 -0.579831 0.000629699 -0.0302789 -0.196229 -0.176758 0.23861 0.236357 -0.0331648 0.348842 -0.305277 0.329614 0.143837 -0.0407949 0.163196 -0.119678 -0.223873 -0.235716 0.207187 0.149478 0.439714 0.348445 0.0677949 -0.0268518 0.153039 -0.219878 -0.127025 0.226519 -0.118464 -0.0432492 0.243578 -0.16956 -0.274067 -0.105848 0.470958 -0.198395 0.141001 0.151944 0.408361 -0.248775 0.138379 -0.30351 -0.123012 -0.227205 0.0567035 -0.264328 -0.278083 -0.180508 0.193763 -0.209081 -0.40777 -0.154692 0.151324 -0.102519 -0.356815 0.172773 0.615502 0.0934156 -0.338605 0.132676 0.238185 0.0493812 -0.121575 0.0388905 0.00395567 0.205793 0.23151 0.0129947 -0.0532338
940 -0.317295 -0.212648 -0.200399 0.0841598 0.100141 0.402881 0.203391 -0.17807 0.384187 0.0690225 -0.0855906 -0.00423748 0.0842993 -0.11296 -0.0241542 -0.239435 -0.32278 0.0352772 0.275348 -0.330805 -0.0853469 0.0573162 -0.177636 -0.0248443 0.0917218 -0.0863278 -0.335207 -0.103165 0.17749 0.129239 -0.0924766 -0.0591846 -0.470521 0.161375 0.149337 -0.0238742 -0.0191928 -0.152093 0.0797732 0.0362054 0.268478 -0.140772 0.0344211 0.220786 0.115131 0.0433122 -0.0493462 0.0765472 -0.206135 0.138238 0.0406787 0.283835 0.0612192 0.229053 -0.0130504 0.159202 -0.132478 -0.161568 0.179895 -0.122803 0.0463257 -0.0431272 -0.0381376 -0.147844 -0.105241 0.34654 -0.1846 0.138839 0.106774 0.171486 -0.223995 0.0627014 -0.563678 -0.186445 -0.188831 0.150211 -0.102336 -0.109386 0.116234 0.114945 0.102908 -0.188994 0.175602 0.0442623 -0.0286568 0.0440879 0.318066 0.428174 0.119665 -0.264567 -0.0759423 0.0661493 -0.0472078 0.135525 -0.0763008 -0.112592 0.283098 0.253554 0.346741 0.322894
1115701 -0.128352 -0.348297 -0.427834 -0.0566127 -0.0401178 0.132498 0.000768023 -0.179214 0.127643 0.149103 -0.218395 -0.00872437 0.31607 -0.349253 0.202127 -0.208558 -0.193965 0.0186523 0.240288 -0.300169 -0.132935 0.117563 -0.267626 -0.0788588 0.107123 -0.0750939 -0.190163 0.045809 0.202623 -0.0405585 0.0203027 0.0765537 -0.20729 0.0313595 -0.00238927 -0.426368 0.110442 0.0272444 -0.0419872 -0.0464966 0.218114 0.0548351 0.206899 0.0959071 -0.374641 0.0770984 -0.0205363 0.0719826 -0.247046 0.100227 0.0948879 0.0319936 0.152992 0.160345 0.0135833 -0.0577433 -0.0308374 -0.207366 0.145939 0.0390165 0.154876 0.247183 -0.189803 -0.147538 0.177839 0.223785 -0.161901 -0.134569 -0.0800222 0.311178 0.0393244 0.133223 -0.179889 -0.324018 -0.128154 0.157587 -0.11072 -0.107166 -0.219303 0.0978009 -0.0851019 -0.227184 -0.158884 0.156503 -0.155109 -0.130758 0.0638124 0.44191 -0.115307 -0.0824999 0.148542 0.0637559 -0.049571 0.20418 0.0509114 -0.118314 0.112627 0.18799 0.263076 0.102766
1110579 -0.16399 -0.389667 0.140839 0.117379 0.138438 0.151449 0.248372 -0.254257 0.22072 -0.249059 0.135223 0.0724254 0.254482 0.006155 0.0797448 -0.0740809 -0.440162 0.276902 0.086083 -0.411327 0.0306569 0.246851 -0.365794 -0.0769325 0.181261 0.0571092 -0.626178 -0.0871556 0.0774028 0.184196 -0.48634 0.089288 -0.492871 0.0187654 0.0139323 -0.386946 -0.19095 -0.018496 0.164117 0.03755 -0.12741 -0.282777 0.488323 0.325127 -0.145122 0.136003 -0.216336 -0.0120316 -0.347992 0.168565 -0.0139262 0.538196 -0.0877376 0.102902 0.0561215 0.202677 -0.116878 0.0554812 0.1685 -0.144747 -0.019244 -0.0247585 -0.304373 -0.124659 -0.131071 0.324092 -0.0686151 0.0729234 0.372305 0.0109084 -0.164753 0.0822949 -0.291856 -0.168782 -0.155135 -0.0401211 -0.159421 -0.064467 -0.122372 0.0994617 0.260058 -0.243404 -0.0137871 -0.124023 0.258373 -0.328047 0.214369 0.303079 0.185192 -0.243053 0.144035 0.129913 0.223835 -0.178537 0.107249 0.206502 0.18756 -0.139371 -0.0659561 -0.00664039
1123087 -0.238385 -0.55689 -0.417951 0.0261682 -0.0664648 0.178814 -0.0428648 -0.250584 0.291653 -0.15812 -0.287909 -0.0432313 0.452193 -0.20388 0.141723 -0.0968051 -0.263695 0.237543 0.275898 -0.239498 -0.209099 0.0364378 -0.561487 0.145399 0.0959147 -0.0699296 -0.5003 0.220516 0.0476223 -0.0462636 -0.0964758 -0.196219 -0.512717 0.16998 -0.194646 -0.500361 -0.0732627 -0.134347 -0.226371 -0.225628 0.186528 -0.115656 0.646467 0.29591 -0.489191 -0.0158817 -0.0456373 -0.00806705 -0.500218 0.00625115 0.148818 0.372989 -0.157258 0.320187 0.00920242 0.337485 -0.0925542 -0.0926479 0.283055 -0.0201082 0.0801178 0.170314 -0.346256 0.00943893 0.0764178 0.146486 -0.00229825 -0.0476173 0.0547484 0.0960922 -0.176582 0.135702 -0.429455 -0.331226 -0.0120764 0.120114 -0.150666 0.134206 -0.27023 0.292693 0.372765 -0.202844 0.11866 -0.0144246 -0.268278 -0.236469 -0.098315 0.579168 0.0833254 0.0735785 -0.0556035 -0.125974 0.0217289 0.633571 0.124991 0.0210808 0.22854 0.0437516 0.388676 -0.105779
77758 -0.0182315 -0.228166 -0.399686 -0.258283 -0.0995697 -0.0842313 -0.0986203 -0.192035 0.21701 0.184314 -0.216094 0.014783 0.237169 -0.189975 0.00491832 0.00728162 -0.159878 0.112773 0.183007 -0.29266 -0.283739 0.0250144 -0.497102 0.199301 -0.141809 -0.0158273 -0.14143 0.0487145 -0.0436807 0.0397922 0.0844238 -0.0377426 -0.149737 -0.0790035 -0.205287 -0.369321 0.157133 -0.265845 -0.122831 -0.0110246 0.364708 -0.107963 0.501574 -0.166548 -0.134944 -0.0325853 -0.0182329 -0.0110884 -0.234256 0.0648354 0.10332 -0.0773754 -0.0784049 0.410556 -0.0145041 0.391082 -0.191964 -0.104504 0.0908962 0.201644 0.245215 -0.0472583 -0.166211 0.0319655 0.224068 -0.0689491 0.0455885 0.154056 -0.0408519 0.252986 -0.0672906 0.0839252 -0.320314 -0.255104 0.0717841 0.0897864 -0.217434 0.0636917 -0.0190664 0.239146 0.0323348 -0.0460443 0.00191458 0.222458 -0.10652 0.0196813 -0.0167379 0.383034 -0.0833884 -0.00974502 -0.180406 -0.246395 -0.15402 0.484246 -0.00653391 -0.0124479 0.0536475 0.279099 0.207594 0.102701
160732 -0.0366262 -0.323976 -0.21257 0.196554 -0.0334539 0.0846401 0.0270757 -0.131497 0.226648 0.0761264 -0.0922592 0.137012 0.289816 -0.261638 0.251161 -0.198944 -0.204892 0.0300718 0.265007 -0.218791 -0.0250313 0.138421 -0.404885 0.0569564 0.435178 -0.0560861 -0.31279 -0.0964987 0.0307296 0.100611 -0.07874 -0.0542536 -0.264947 -0.0382098 0.0647494 -0.239059 0.0153336 0.195874 -0.0512133 -0.0314052 0.0638947 -0.130772 0.3419 0.182661 -0.369147 0.0385215 -0.126456 0.0647643 -0.197931 0.267425 -0.0148564 0.327449 -0.0610526 0.106908 0.0913471 0.220299 -0.0292783 -0.0128317 0.197136 -0.115723 0.129992 0.22459 -0.1667 0.112583 0.0157192 0.299073 -0.162691 -0.205772 0.0715287 0.0949395 0.032959 0.0976848 -0.0661179 -0.443533 -0.176341 -0.0735167 -0.0557749 -0.0254001 -0.209449 0.0111504 0.255241 -0.0153916 -0.023768 0.0950521 -0.00259766 -0.215428 0.104429 0.106784 -0.0235962 -0.0926678 0.129777 -0.0940681 0.00510336 0.0021032 0.176393 0.0739244 0.209989 0.0537241 0.0999172 0.0442444
69296 -0.188205 -0.154524 -0.0997498 0.308294 -0.0458873 0.0190467 0.205116 -0.172848 -0.0414573 0.249012 -0.105576 -0.0618677 0.205952 -0.227634 0.273704 -0.245427 -0.287953 0.0280456 0.25955 -0.529994 -0.349817 0.0749571 -0.251338 -0.0769446 0.0869888 0.220285 -0.0594273 0.0274482 -0.00507829 -0.148895 0.0340578 0.264548 -0.503715 -0.106983 -0.0561088 -0.226586 -0.0545197 0.056531 0.254826 0.248987 0.420874 -0.0929294 0.515063 0.264346 -0.271468 0.0961227 0.01595 -0.0666993 -0.0573524 0.15104 0.0751403 0.328242 0.116299 -0.0522613 -0.0773639 0.217822 -0.124603 0.00658739 0.368188 -0.00991744 0.146663 0.388161 -0.318013 -0.191309 -0.163273 0.256552 -0.273902 0.139018 0.0692943 0.537671 -0.0711622 0.0163706 0.0506171 -0.140434 -0.254746 0.163189 -0.266097 -0.156302 -0.096421 0.162804 -0.226191 -0.459084 -0.225318 0.231966 0.0211742 -0.232454 0.0636907 0.219522 -0.0155776 -0.242817 0.0439461 0.117509 -0.0919286 -0.199932 0.087813 0.100244 -0.108218 0.178861 -0.0601526 -0.0548013
578845 0.049838 -0.298824 -0.278847 -0.061489 -0.0453628 0.410314 0.257699 -0.155036 0.259549 -0.0146678 0.299011 0.198308 0.134246 -0.0821721 0.257447 -0.243977 -0.15404 -0.0855104 0.0693551 -0.144571 -0.0619313 0.334201 -0.191463 -0.212113 0.440204 -0.225406 -0.440319 -0.122184 0.0738884 0.058982 -0.254095 0.160136 -0.070616 0.0366901 0.365345 -0.0206885 -0.123153 0.0869725 0.225013 0.218702 0.107384 -0.0622705 0.339507 0.205469 -0.253726 0.246471 -0.144829 0.0870661 -0.0188031 0.0945318 0.128336 0.204608 -0.1235 -0.138891 -0.00943149 -0.0193593 -0.244557 0.181584 0.0808388 -0.192502 0.0246769 0.0866911 -0.189398 -0.0915933 -0.216542 0.414579 -0.264903 0.0291198 0.00151029 0.181251 -0.238766 -0.0949276 -0.375735 -0.353416 -0.186428 0.0529008 -0.24423 -0.0716934 -0.136209 -0.292093 0.00281075 -0.184447 -0.252264 0.0126069 0.0242644 -0.129263 0.17904 0.195598 0.302512 -0.29329 0.233949 0.00647835 -0.019518 -0.0381941 0.0608998 0.0351458 0.160956 0.0376152 0.0328587 0.195012
134307 0.0452479 -0.019941 -0.0426467 -0.199768 -0.189504 0.0455859 0.160808 -0.142363 0.262415 0.143761 -0.0859321 -0.131657 0.0352965 -0.0152894 -0.13789 -0.199203 -0.318246 -0.0264101 0.0783774 -0.324351 -0.335759 0.150695 -0.385282 -0.0644989 -0.00739976 0.112493 -0.0971573 -0.0883675 0.120527 -0.154493 -0.0165313 0.0707419 -0.280757 -0.126273 -0.0537509 0.0927465 0.0829804 -0.31975 0.141005 0.139457 0.397772 -0.0820243 0.237403 -0.0605678 -0.142811 0.11289 -0.0792306 -0.0261034 -0.0783393 0.160684 0.0773109 0.113822 -0.0511334 0.298157 -0.124247 0.311091 -0.0170426 -0.0308884 0.0166131 0.0797178 0.180005 -0.0729692 -0.0368919 -0.157942 0.0245762 -0.0097821 -0.0602358 0.131725 0.197505 0.141914 -0.0845626 0.170173 -0.31622 -0.0988503 -0.0343505 0.265968 -0.156497 -0.116102 -0.0484551 0.159103 -0.154315 -0.271842 -0.00426608 -0.188728 -0.0514508 0.0521355 0.282407 0.369104 -0.121546 -0.0265745 -0.0562585 0.031563 -0.160704 -0.0633848 0.211117 -0.0352411 0.257347 0.274149 0.262194 0.119105
936 -0.10576 -0.353367 0.0490429 0.0778164 -0.0821473 0.237827 0.104608 -0.209735 0.169158 -0.112659 -0.0159866 0.155702 0.211731 -0.00362075 0.0451559 -0.142802 -0.200789 0.132344 0.215551 -0.0878665 0.0185147 0.130398 -0.176501 -0.14446 0.0347039 0.0362859 -0.346097 0.0942495 0.159416 0.171055 -0.218239 -0.0566074 -0.293198 0.114604 0.122928 -0.169798 0.0309378 -0.0887297 0.0150603 -0.104968 0.141104 0.0397895 0.2933 0.307959 -0.241761 0.118988 -0.0377146 0.0437752 -0.194334 -0.0278773 0.0518706 0.350841 -0.138886 0.0568326 -0.0179004 0.0973718 -0.0117196 0.0739326 0.158112 0.0591001 0.0183481 0.166326 -0.0403361 -0.102459 -0.279543 0.20878 -0.0525874 -0.088767 0.258852 0.0680553 -0.00321641 0.114322 -0.2701 -0.143828 -0.147648 0.0577087 -0.158728 -0.0556995 -0.137771 0.0605847 0.16469 -0.235891 0.0230333 -0.0613235 0.0109471 -0.0407795 0.111455 0.110818 0.207152 -0.0853523 0.000507401 0.103327 -0.0688083 -0.103113 0.0946791 -0.00428097 0.320974 -0.266006 0.186123 0.0309912
46079 -0.331545 -0.455386 -0.26311 0.317722 0.222013 0.43875 0.186117 -0.252326 0.114392 0.145217 -0.206249 0.0390392 0.20145 -0.301074 0.264872 -0.332651 -0.194981 -0.0438303 0.20876 -0.531421 -0.0264354 0.0880911 -0.147532 -0.14255 0.143902 -0.0565331 -0.479467 0.0409856 0.227743 0.311256 -0.0347719 -0.00837515 -0.357089 0.0469834 0.0188437 -0.199576 0.0243637 0.116946 0.0598858 0.177405 0.0371088 -0.0326124 0.08463 0.397901 -0.093333 -0.0682418 -0.0467452 0.231968 -0.163202 -0.147071 0.115354 0.412165 0.0582929 -0.178164 -0.016243 -0.0476854 -0.0622523 -0.134862 0.0976045 -0.00684887 0.0383012 0.409314 0.029921 -0.102212 -0.0353374 0.347608 -0.476111 -0.130683 0.0797585 0.226604 0.0206817 0.0317076 -0.156737 -0.346753 -0.386775 -0.0513363 -0.119968 -0.198946 -0.270198 -0.149492 0.132633 -0.187122 0.115886 0.418763 -0.0889002 -0.383221 0.160741 0.181659 0.0835908 -0.219463 0.217465 0.0261236 0.0994633 -0.147369 -0.10638 0.070943 0.0562303 -0.141959 0.272271 0.198617
1109208 -0.115263 -0.175764 -0.106485 0.0834821 0.0755101 -0.00453892 -0.060229 -0.104239 0.080982 -0.0257442 -0.0156851 -0.00998964 0.0334561 -0.0754924 0.112247 -0.116644 -0.170024 0.0687462 0.0968267 -0.0831128 -0.121925 -0.0173083 -0.225041 0.0955019 0.184393 0.0425481 -0.199577 -0.0972694 -0.0330904 0.042071 -0.0519998 -0.0980393 -0.208987 0.000705391 0.0233758 -0.197749 -0.0840696 0.0477966 -0.0904778 -0.0580554 0.0117427 -0.153727 0.165952 0.161436 -0.171954 -0.0276632 -0.0723743 -0.0364953 -0.10539 0.0675845 0.11903 0.223647 0.0209061 0.0627608 0.0297838 0.169102 0.0106239 -0.0370242 0.135855 -0.0041393 0.039384 0.0963285 -0.138498 0.0360964 0.0488456 0.122018 -0.108748 -0.066384 0.0290369 0.0603574 -0.0622717 0.0223703 -0.0525883 -0.0803756 -0.0713689 -0.0768375 0.019574 0.00923744 -0.0739403 0.0747868 0.185389 -0.00959097 0.0353784 -0.0199542 0.0152415 -0.14842 -0.00857881 0.132572 0.0372415 -0.0418123 0.0996986 -0.0434204 0.0348262 0.0727117 0.107499 0.0646492 0.020025 -0.0318608 0.0616684 -0.0935419
1135082 -0.162565 -0.37601 -0.0995075 0.062234 0.127552 0.208238 0.0840054 -0.0399645 0.227294 -0.0581021 -0.104257 0.0858554 0.294537 -0.129824 0.133882 -0.206556 -0.0963747 0.335699 -0.0194811 -0.327969 0.0823559 0.0193492 -0.208237 -0.0555238 -0.174624 0.00105213 -0.407637 0.110441 0.322502 0.211168 -0.267953 -0.158086 -0.339364 0.245515 -0.00181566 -0.264541 0.140823 -0.103873 -0.0624322 -0.160673 -0.0158692 0.0816045 -0.0439915 0.206856 -0.0748123 -0.0126756 -0.0576679 0.0172606 -0.326191 -0.0517024 -0.0122739 0.302944 -0.18946 0.159599 -0.0952742 0.0585261 0.158955 -0.201448 -0.0699765 0.102038 0.0513095 -0.026587 -0.0846931 -0.0696698 0.182994 0.104726 -0.218427 -0.11331 0.150523 -0.0471179 -0.148762 0.0302022 -0.387465 -0.289395 -0.117779 -0.000377296 -0.0607827 -0.131498 -0.105589 0.0873471 0.203472 0.0188867 0.196433 0.047953 0.0630231 0.0955391 0.0763532 0.0945881 0.121215 -0.107845 0.0482506 0.0740709 0.108299 0.0614751 0.190037 0.0642113 0.0402834 -0.134302 0.0557838 0.280805
13652 -0.0746125 -0.361531 -0.243528 -0.0351216 0.101119 0.413073 0.0249553 -0.103644 0.430098 -0.182314 0.1096 0.0196439 0.136211 -0.226937 0.146397 -0.170083 -0.272808 0.267063 0.113342 -0.0728693 -0.0256288 0.156888 -0.296654 0.0487776 0.250155 -0.0220336 -0.547086 -0.0176335 0.160318 0.00677581 -0.375936 -0.0358518 -0.40026 0.181074 0.0992917 -0.269154 -0.0450314 0.0877036 0.0617326 -0.110384 0.257916 -0.117252 0.31503 0.455483 -0.204072 0.191049 -0.16186 0.101474 -0.395046 0.113801 0.18485 0.461969 -0.229689 0.262481 -0.0558621 0.234551 -0.186577 -0.0787675 0.0465403 -0.0866784 -0.0510117 0.033982 -0.492343 -0.022301 -0.0386962 0.369076 -0.219151 0.0996604 0.22046 0.105476 -0.249252 0.0700925 -0.570058 -0.337019 -0.128712 0.0411201 -0.0657757 -0.00395253 -0.0602375 0.063848 0.301091 -0.0644765 -0.088465 -0.0504712 0.0584161 -0.16723 0.0837332 0.399805 0.128768 -0.200592 0.0833931 0.147789 0.102293 0.283812 0.10614 0.122511 0.357063 -0.0693259 0.0534082 0.0513566
3223 -0.11429 -0.281694 -0.24843 0.260506 0.0750437 0.350519 -0.0387761 -0.100462 0.067413 0.10859 -0.0985355 0.122921 0.22422 -0.200204 0.273542 -0.0889313 -0.264318 0.245666 0.433097 -0.0842998 -0.121248 -0.0973777 -0.150195 0.153182 0.403948 0.127074 -0.355355 -0.417851 -0.0342354 0.214755 -0.24689 0.122729 -0.411598 -0.0609176 0.15816 -0.536741 -0.285717 0.226115 0.171365 0.112055 0.100993 -0.213148 0.581429 0.636115 -0.391087 0.248346 -0.0394 0.0617343 -0.153283 0.145057 0.0590735 0.40378 -0.190671 -0.110271 0.00519943 0.0718876 -0.29328 0.0563149 0.327783 -0.183171 -0.109288 0.424025 -0.621354 0.30773 -0.218271 0.302452 -0.467127 0.133311 0.0463758 0.0902082 -0.0417907 0.0537882 -0.121614 -0.318753 -0.182406 -0.0355151 0.269481 0.130632 -0.0103067 -0.0414636 0.144183 -0.0422878 -0.247541 0.0583683 0.28978 -0.431375 0.00784698 0.148578 0.296657 -0.301459 0.0277248 -0.000873084 0.0498568 -0.0588559 0.114864 0.280275 0.0356693 -0.202824 -0.0911309 0.0521384
31479 -0.200648 -0.446392 -0.392827 0.214177 0.0938541 0.300092 0.00701897 -0.0414704 0.185667 0.169796 -0.276043 0.0130571 0.204032 -0.177309 0.172774 -0.249104 -0.179976 0.0986557 0.290963 -0.378108 -0.262109 0.179608 -0.178853 0.0690535 0.480685 -0.0345423 -0.353947 -0.0748934 -0.0588501 0.0761349 -0.00100707 -0.0974641 -0.356829 -0.00123775 0.119994 -0.339401 -0.0979215 0.119929 -0.00242536 0.0342553 0.32299 0.005673 0.614762 0.366184 -0.449635 0.184615 -0.127854 0.161758 -0.201181 0.16164 0.128659 0.40115 -0.144061 0.0797164 0.140769 0.116225 -0.251461 -0.0926296 0.198335 -0.0411146 -0.0728496 0.388814 -0.3847 0.0302596 0.000453413 0.371685 -0.365247 0.0396325 0.135872 0.288947 -0.162554 0.0512926 -0.481873 -0.450803 -0.163417 0.0976491 0.0499706 -0.0529448 -0.124077 0.0717398 0.183016 -0.00243832 -0.185469 0.266544 0.0629969 -0.343137 -0.10396 0.433815 -0.0163283 -0.285698 -0.0731418 -0.0281035 -0.113896 0.130312 -0.0365683 0.209762 0.0373481 0.0896633 0.146175 0.171926
14531 0.00529244 -0.120644 -0.336074 -0.0211265 -0.0223184 0.176103 -0.0151639 0.0187918 0.226044 0.0449043 -0.0213458 0.00171849 -0.0411537 -0.142775 0.118261 -0.0753344 -0.108222 0.0632632 0.0904548 -0.0684374 -0.136546 0.0890029 -0.0860554 0.0872585 0.297419 0.0149416 -0.0768784 -0.0382271 -0.0970717 -0.0449504 0.00459745 -0.0202293 -0.176168 -0.02753 0.0736832 -0.120405 -0.0180399 0.112578 0.0276372 0.0331953 0.354148 -0.0363493 0.415547 0.131728 -0.23334 0.0792521 -0.06646 0.0499036 -0.168286 0.150691 0.134325 0.170889 -0.111168 0.201668 0.0440051 0.119696 -0.205112 -0.0145116 0.189647 -0.048112 0.0245311 0.0907674 -0.328643 0.0538291 0.00351911 0.160462 -0.202526 0.195189 -0.000869943 0.285196 -0.198784 0.041542 -0.432903 -0.259995 -0.0484277 0.111551 -0.0339046 0.0462441 0.0740864 0.132042 0.0526862 0.108295 -0.243531 0.0615675 0.0342381 -0.121411 -0.105313 0.24344 0.0432183 -0.201256 -0.134437 -0.0197698 -0.123678 0.270373 0.0395527 0.0296175 0.0918415 0.18422 0.039545 0.0286291
990075 -0.0357754 -0.0996819 0.0226209 -0.0451256 0.0606282 -0.0923323 0.12033 -0.0821075 0.269078 -0.0969433 0.112489 0.0871497 -0.16406 0.0014062 -0.0433056 -0.134162 -0.248833 -0.0126757 -0.0119774 -0.200283 0.072914 0.118541 -0.130514 0.0110107 0.30959 0.106412 -0.0130751 -0.188572 0.014502 0.06994 -0.0632215 -0.13972 -0.340591 -0.031546 0.0653831 -0.078971 0.044535 -0.0154509 -0.0896737 0.0316493 0.124428 -0.225009 0.170563 -0.012186 0.0514561 -0.202179 -0.184359 -0.0387441 -0.0801829 0.184755 0.188374 0.143232 -0.0112429 0.256762 0.166065 0.223679 0.0822887 0.0260338 0.25757 -0.115215 0.196756 -0.198975 0.131836 -0.0300197 -0.0358535 0.250513 0.0484976 -0.063656 0.139419 0.0519224 -0.0705158 0.08595 -0.13303 -0.0769767 0.0995053 -0.077588 -0.0454714 0.00297708 0.0178995 0.253523 0.22191 0.0475098 0.112482 -0.150519 0.150496 0.00349614 0.0730454 0.0137473 0.174464 -0.157268 0.0302045 0.0233363 -0.0681464 -0.171563 -0.0463719 -0.0879097 0.0936237 0.125719 0.183056 0.0783845
123556 -0.247937 -0.407331 -0.495621 -0.00669038 -0.0935309 0.201241 -0.330262 -0.433088 0.420516 -0.0524482 -0.289207 -0.120423 0.222105 -0.33192 0.0649226 -0.0478389 -0.361094 0.176982 0.196935 -0.426657 -0.183916 0.0762222 -0.551421 0.174824 0.160424 -0.0739012 -0.342814 0.0838759 -0.164628 0.246317 0.0525745 -0.0276738 -0.292441 -0.308953 -0.0792135 -0.347697 -0.185933 -0.116282 0.0527999 0.144042 0.372787 -0.196544 0.851917 0.360325 -0.323454 -0.128457 -0.101887 0.294216 -0.40115 -0.0643391 0.0759911 0.315046 -0.186675 0.325563 -0.0311641 0.34626 -0.234934 -0.000190953 0.22004 -0.0263396 0.116424 0.225706 -0.463608 -0.230952 -0.000896203 0.102453 -0.101778 0.0363259 -0.00808436 0.610093 -0.010479 0.0353463 -0.364825 -0.403536 -0.207949 0.0278038 -0.150859 0.0604468 -0.278125 -0.089445 0.173717 -0.000280331 0.00537116 0.177993 -0.102139 -0.484842 0.0342705 0.377756 -0.123885 -0.068635 -0.0640903 -0.168099 -0.136727 0.317183 0.145545 0.253806 0.0621698 -0.0986613 0.36008 -0.133629
578780 -0.243474 -0.224297 0.116471 0.305912 0.181025 0.118258 0.163476 -0.055239 -0.217209 0.0594474 0.057489 0.092129 0.153836 -0.0717481 0.328592 -0.294925 -0.27529 0.0980391 0.141839 -0.280246 0.0444048 0.0684312 -0.113617 -0.0265649 0.353176 0.0787082 -0.278172 0.0401763 0.0246814 -0.061559 -0.0940585 0.256152 -0.199194 -0.0582855 0.019878 -0.160419 -0.0850986 0.247507 0.101926 0.00334989 -0.0611273 -0.118262 0.0372561 0.0424747 -0.0538075 0.19016 -0.192853 -0.0526745 -0.0359702 -0.00934253 0.154271 0.442928 0.169668 -0.279757 0.0243245 -0.0231192 0.016907 0.055838 0.11289 -0.205188 -0.0651197 0.244443 -0.324196 -0.0702046 -0.103608 0.476492 -0.283218 -0.144701 -0.0293719 0.220959 0.0243684 0.0472698 0.0441704 -0.117304 -0.333182 0.0256199 -0.0770141 -0.212778 -0.193847 -0.122993 -0.160204 -0.207346 -0.150184 0.195019 0.0630121 -0.449242 0.0936126 0.198141 -0.132006 -0.203901 0.124012 0.261713 0.120235 -0.206806 -0.00918743 0.246184 0.0191357 0.0402411 -0.16586 -0.25324
