2708 100
35 -1.141443 -1.489680 -0.822394 0.532955 0.447621 1.872457 0.925651 0.203357 0.274213 0.045074 0.553122 -0.611377 -0.257433 -0.326664 0.406153 -1.298979 -0.760628 -0.496062 -0.545984 -1.315903 -0.531196 1.850340 0.646149 -1.468969 1.755958 -0.225229 -1.097227 1.614227 -0.198420 -0.462746 -0.250020 0.651525 -0.801358 -0.330275 1.013023 1.627047 -0.977168 -0.345918 1.732605 1.288818 1.955219 0.347865 1.011894 0.790484 -0.178824 1.110878 -0.866547 0.462809 0.107100 -0.689673 0.780482 1.596916 1.070724 0.011645 0.139018 -0.850757 -1.596350 -0.133166 0.284148 -0.002278 -1.103071 1.660235 -0.445969 -2.292303 -1.325855 2.757462 -1.294717 0.549015 0.007447 2.597059 -1.325969 0.177468 -2.299365 -0.100925 -1.425118 0.566276 -1.727883 -1.815025 -0.460162 -0.409286 -1.289914 -1.728380 -1.394540 0.770783 -1.373412 -2.003363 0.304490 1.981151 -0.524963 -1.533504 -0.054484 0.899585 -0.295659 -0.979424 -0.825099 0.909068 0.353767 0.425047 0.475128 -1.169641
6213 -1.978773 -0.100404 0.743021 0.810138 0.758916 0.804601 -0.163145 0.122219 -0.072725 0.659024 0.590672 0.035079 -0.164955 -1.346229 0.540884 -2.594756 -2.826319 0.904337 0.830134 -0.481945 -1.120264 -1.871822 -1.233218 -0.100030 0.028094 1.275335 -0.627090 -1.835190 1.090766 0.260168 -0.244888 0.206542 -3.066011 0.907511 -0.010800 -0.518514 0.131690 -1.415820 0.781454 0.672854 1.767782 -0.661487 -1.452183 1.726002 -0.790607 0.399856 0.314845 -1.743880 -0.195629 -0.008918 0.889044 2.164100 0.688496 0.619127 -1.306966 0.373003 0.092587 -1.537570 1.277556 0.014087 0.777059 -0.063238 -0.848684 -0.238102 0.061577 0.833795 -0.976661 0.400679 -0.341572 0.746895 -1.923455 -0.101403 -1.277303 0.863966 -1.886779 1.071908 1.052249 -0.842617 1.882847 0.829510 -0.581534 -2.551469 0.575033 -0.249624 -0.919402 0.132963 1.764965 1.004823 -0.309797 -1.511905 1.038214 0.758076 0.315267 -0.985894 1.185460 0.132180 -0.405106 -0.005077 0.411369 -0.165335
1365 -1.074431 -0.843006 -0.197198 0.145358 1.446914 1.442274 -1.036995 -0.551866 1.374143 -1.404319 -0.713082 -0.164068 -0.865416 -0.311398 -0.654557 -0.257318 -1.558376 2.045166 -0.680484 -0.102900 0.376827 0.137418 -0.800322 1.747379 0.206565 0.180787 -2.115859 0.215914 0.233928 0.011113 -1.531047 -0.861916 -1.917882 0.810949 -1.715987 -1.471748 -0.160894 0.455405 0.064068 -0.566059 0.645594 -0.154895 0.477445 0.809742 1.213550 -0.136638 -0.465352 -0.503617 -2.669645 -0.356374 0.844859 2.367470 -1.283412 1.602159 0.503878 0.892381 -0.730501 -1.358521 -0.055401 -0.593824 -0.248973 -0.492956 -2.419860 -0.241395 1.010269 0.403668 0.174353 1.225397 0.250875 -0.241705 -2.137802 -0.178953 -2.630576 0.381857 -0.098901 0.446420 0.764618 -0.392111 0.451681 0.431784 1.698775 0.334446 0.232016 -0.239091 0.573749 -1.828084 -0.462714 2.360389 -0.736911 -0.432390 -0.908188 0.463060 1.210063 1.672735 -0.016029 1.054335 0.339864 -0.332290 -0.028511 -1.293057
3229 -0.340098 -0.732139 -1.440481 -1.019094 0.688106 1.213994 -1.527370 -0.824930 0.910292 -0.795949 -0.508530 0.330244 0.071693 -1.330370 -0.524182 -0.485229 -0.959642 1.067081 -1.220206 0.964009 -0.083485 0.152987 -1.328615 0.416604 0.775513 -0.454419 -0.804454 0.392381 -0.238815 0.126478 -0.925143 -0.315235 -0.009251 0.200119 -1.859597 -0.535328 0.075954 -0.457128 -0.373428 -0.098638 0.258096 0.167727 -0.043952 0.239841 0.399401 -0.925583 -0.626081 -0.034136 -1.535926 -1.643843 1.390604 1.367194 -0.704229 0.317574 -0.230743 0.261441 -1.198171 -1.050036 -0.929539 0.905864 0.581406 0.492424 -1.594326 -0.864686 1.590511 0.877760 0.222078 0.027956 -1.114283 -0.728480 -1.329638 -0.229473 -1.950737 -0.505315 -0.200129 0.318913 0.550974 0.129093 -0.610042 -0.574416 0.513563 -0.371317 0.379567 -0.052275 -1.261379 -2.094125 -0.336363 1.599349 -0.964384 0.143859 -0.301210 0.233018 0.440160 1.990757 0.145472 0.650016 0.218788 -0.588481 0.655344 -1.809478
2440 0.607352 -1.409805 -1.816886 -1.012025 -0.928953 0.914477 0.836676 -0.026739 1.426560 0.323229 1.229901 1.538596 0.776031 -0.891469 1.425161 -1.370770 -1.885937 -0.234780 1.992665 -0.379141 -0.414491 1.007655 -1.971631 -0.388778 3.204422 -1.378260 -1.295410 -2.513550 0.091491 0.543513 -0.125016 1.151363 0.202668 -0.353400 2.292425 -0.318192 -0.681662 0.837877 0.978812 0.277260 -0.113368 -1.319033 1.768968 1.131590 -2.166039 1.605917 -1.283058 0.797375 0.419483 0.991792 0.464654 0.061786 -0.494828 -0.782566 -0.779728 0.077774 -0.761344 1.486534 0.436007 -1.135109 0.142543 0.371774 -2.118524 0.418304 -0.380984 1.386772 -1.713243 0.135917 -0.080710 0.816392 0.021857 0.880909 -2.024095 -3.321609 -2.407859 -0.164191 0.513657 0.840968 -0.103017 -2.149258 -0.114797 -0.513241 -0.804474 -0.343613 -0.363759 -0.987991 1.962597 1.075447 0.564898 -1.751969 1.683044 -0.054116 0.052382 0.749352 0.980505 1.274148 1.329542 -0.856867 0.375352 0.556188
910 -0.682235 -1.919062 -1.730788 -0.237702 -0.075996 1.008617 -1.247789 -1.057311 1.164953 -0.815581 -2.245393 -0.894951 0.720372 -0.085224 -0.733801 0.551904 0.159913 0.890578 -0.311660 0.094040 -0.993394 -0.244645 -1.141393 0.676818 -0.482649 -0.582728 -0.522893 1.261110 -0.306926 -0.036464 -0.944360 -0.794890 -0.279397 -0.555957 -1.241496 -0.542030 -0.300009 -1.524952 -0.459910 -0.595319 1.004208 0.303868 1.563726 1.148429 -0.379489 -0.240770 0.354497 0.919088 -1.875685 -0.907406 -0.633419 1.015640 -0.896231 1.913249 0.217993 0.779438 -0.653833 -1.172504 0.237827 1.324536 -0.148187 1.121345 -0.552470 -0.688976 0.402508 -0.037160 -0.327221 0.010443 0.360870 -0.165985 -1.226859 -0.044013 -1.887832 -0.069516 1.250657 -0.020007 0.302950 -0.316390 -1.067193 0.998954 0.997654 -0.074235 1.361960 0.345498 0.188492 -0.720663 -0.474409 1.277327 -0.778446 0.926030 -1.984598 -0.909601 -0.128934 1.333971 0.326481 0.646023 0.848392 -0.035108 1.485945 0.297787
114 -2.319830 -0.039319 0.359203 1.561445 1.102316 1.200808 0.563526 0.074108 0.520328 0.647618 -0.199812 -0.661093 -0.090866 -1.717095 0.809190 -3.363615 -2.701052 0.200432 0.500524 -1.413849 -1.236580 -1.099033 -1.323188 -0.341635 0.567818 0.791209 -1.528566 -1.511173 1.067445 0.656677 0.088681 -0.483752 -2.844793 0.542782 -0.418192 0.323920 0.075561 -0.869225 0.588050 0.499489 1.515760 -0.727670 -1.684631 1.259872 -0.385846 -0.258334 0.302049 -0.697283 -0.104161 -0.279176 0.939233 2.292283 1.384989 0.342822 -0.682808 0.708075 0.743523 -1.739386 1.056554 -0.118292 0.932344 0.283074 0.606316 -0.555197 0.235566 1.526753 -0.788841 -0.795150 0.129882 0.689534 -1.435436 0.171890 -0.490537 0.440977 -2.012419 1.040254 0.640924 -1.194627 0.470948 0.636544 -0.423909 -2.084880 1.682301 0.305062 -1.695558 -0.069602 1.460086 1.096363 -0.457968 -1.102094 1.266034 1.061102 0.140778 -1.702989 0.692564 0.186173 0.134603 0.941951 1.732252 0.276725
4330 -1.399145 -0.829408 -1.951884 0.330821 0.613191 0.651084 -0.839174 -0.606234 0.296813 0.369295 -2.616361 -0.552706 0.868662 -0.794709 -0.446160 -0.490200 -0.346588 0.444630 0.755338 -0.922510 0.517659 -0.429597 -1.098782 1.546701 -0.555266 0.253184 -0.666417 0.188167 -0.029891 -0.370749 1.251538 -1.423768 -2.244215 0.754374 -1.175524 -1.108955 0.804385 0.647134 -1.596864 -0.928145 0.674306 0.074922 0.279415 -0.280745 -0.400109 -0.795024 0.570087 -0.266638 -1.773172 0.571624 0.824713 1.029853 -0.062715 2.003918 0.338772 1.275962 -0.588742 -1.805026 1.003478 -0.065186 1.051723 1.217447 -0.713485 0.500215 1.141200 -0.029092 -0.490423 0.187037 -0.729971 0.898171 -0.595626 0.153870 -1.572140 -0.478473 -0.059580 0.031784 0.195681 0.260232 -0.142320 1.324551 1.471329 1.317247 0.822825 0.801150 -0.524071 -0.721383 -1.213399 1.668382 -0.613564 -0.028571 -1.483981 -1.222067 0.449361 2.906731 0.034181 -0.464960 -0.359126 1.473842 0.711590 0.179215
1272 0.285913 -0.215805 -2.048994 -1.386775 -0.772272 0.745966 -0.756811 0.505432 1.572336 0.399016 0.472386 0.608724 -0.297646 -1.233162 0.638195 -0.454830 -1.461118 0.109674 1.483364 0.705125 -0.664498 -0.106814 -0.733594 0.078480 2.060334 -0.937970 0.509107 -1.956233 -0.506970 0.056419 0.739869 0.147677 -0.414581 -0.070543 1.805911 -0.014090 -0.057843 0.223454 0.224136 0.452427 1.584864 -0.635178 1.271756 0.826196 -1.127049 0.770563 -0.359369 0.330625 -0.337731 0.841581 0.440899 -0.434409 -0.330356 0.791630 -0.712723 0.332160 -0.744490 0.115194 0.560342 -0.710466 0.613352 -0.193181 -1.916781 0.162804 0.398206 0.482579 -1.338819 0.611865 -0.640130 1.566551 -0.551169 0.562380 -2.325607 -2.433068 -1.324570 0.373120 0.665745 0.882161 1.183868 -0.994074 -0.108763 0.255224 -0.906699 -0.577379 -0.401737 0.061512 0.925786 0.691545 0.225772 -1.247563 0.681003 0.045041 -0.910636 1.495062 0.599940 -0.049790 0.683488 0.215059 1.057677 0.666531
19621 -0.347310 -1.027519 -0.829665 0.112203 1.292889 1.877168 -0.759214 -0.211367 1.893568 -1.840458 -0.725152 -0.427100 -0.259109 -0.226333 -0.615222 0.329683 -0.404918 1.611060 -1.042076 0.186593 0.386174 0.685115 -0.268118 0.804958 0.452216 -0.865767 -2.266492 1.308322 -0.088736 -0.102291 -1.038675 -1.032232 -1.189842 0.638365 -0.967794 -0.342998 -0.044329 -0.017707 0.110818 -0.517222 1.292071 0.646386 1.252250 1.284523 0.325926 0.300567 -0.466450 0.617624 -2.161768 -0.802088 0.081690 2.482421 -1.227981 1.315209 0.741769 0.562472 -0.438520 -1.016103 -0.495660 -0.878649 -0.669629 -0.355935 -1.691530 -0.572890 0.247726 0.976447 0.167032 0.631965 0.706716 0.096937 -1.629767 0.131405 -2.836816 -0.198170 0.119014 0.668454 -0.131500 -0.302869 -0.303229 0.223179 1.510012 0.190121 0.147231 -0.280700 0.138589 -1.222355 -1.124614 2.367395 -0.875086 -0.154183 -0.570170 0.821939 0.303116 1.954932 -0.159616 0.841774 1.118258 -0.379139 0.750191 -0.682989
3231 0.311629 -0.314050 -1.537317 0.301804 -0.009521 1.198888 -0.045048 0.261534 0.855753 0.886231 0.220530 0.531149 0.165335 -0.202195 0.908394 0.129495 -0.402289 0.380509 1.357738 0.282220 -0.572322 0.093702 -0.321093 0.304652 1.819619 0.509543 -0.240782 -1.380988 -0.433559 -0.057966 -0.083369 0.165820 -1.193979 -0.131591 1.280416 -1.671430 -0.557262 1.019074 0.306556 0.464044 1.239950 -0.545078 2.695741 1.859627 -2.011363 0.964391 -0.309822 0.347048 -0.144358 1.254882 0.576268 0.766338 -0.951073 0.277711 0.162104 0.460292 -1.296295 0.315262 1.284594 -0.511850 -0.364054 1.068174 -2.495541 1.317756 -0.630377 0.511579 -2.266510 1.030262 0.242281 0.942203 -0.294399 0.332537 -1.856777 -1.886645 -0.334784 0.028964 0.340810 1.039097 0.641711 0.343427 0.774360 0.842339 -1.915285 -0.090058 1.201828 -0.625543 -0.756931 0.567330 1.552163 -1.409889 -0.421148 -0.117541 -0.640489 1.263234 0.370775 0.353399 0.203305 0.297273 -0.384985 0.412767
887 -1.155059 -0.275610 0.251671 0.548027 0.257731 0.895641 -0.309246 0.506402 -0.273109 0.372494 0.790957 0.163527 -0.681734 -0.609354 0.231091 -1.299330 -1.420226 0.568210 0.532881 -0.095298 -0.595899 -0.549671 0.230577 -0.723317 0.675127 0.705647 -0.378628 -0.884103 0.421375 -0.111241 -0.036532 0.316470 -1.512406 0.617162 0.871344 0.463431 -0.439684 -0.609238 1.110801 0.512049 1.331797 -0.079282 -0.452533 1.422923 -0.476075 0.879896 -0.175023 -0.961773 0.057023 -0.404169 0.311634 1.344990 0.895292 -0.092055 -0.584417 -0.874937 -0.710158 -0.582584 0.456108 -0.176435 -0.437421 0.301146 -0.702049 -0.552410 -0.679432 0.848238 -1.067931 0.725272 -0.598397 1.294308 -1.502375 -0.066029 -1.957205 0.557148 -1.422564 0.925185 0.139384 -1.082796 1.366993 -0.088157 -1.135791 -1.598039 -0.659767 -0.089634 -0.977892 -0.719960 0.984055 1.044452 -0.179851 -1.433330 0.584579 0.792162 -0.183891 -1.212146 0.456401 0.076932 0.003834 -0.405136 0.134509 -0.388518
4584 -1.856855 -0.278014 0.796865 0.626886 1.064224 1.077242 -0.301604 0.022431 0.638951 -0.232957 0.283710 -0.291607 -0.929783 -0.625161 0.005291 -2.271918 -2.539872 1.114697 -0.331513 -0.321505 -0.607910 -0.611135 -0.704545 0.454959 0.521579 0.838754 -0.676152 -0.465774 0.459108 0.129817 -0.901123 -0.017454 -2.328602 0.557705 -1.021842 -0.032776 -0.580382 -0.741833 0.716127 0.433916 1.370982 -0.255114 -0.671123 1.135703 0.633202 -0.430598 -0.272978 -1.095913 -0.911716 -0.703419 1.070216 2.096020 -0.035815 0.667071 -0.243144 0.544236 0.318742 -1.422099 0.545735 -0.163184 0.135199 -0.375372 -0.797708 -1.176538 0.179466 0.865050 -0.092271 0.202046 -0.058126 0.406370 -2.069884 0.040648 -1.476240 0.820593 -1.028205 0.871741 0.740528 -1.590895 0.781425 0.548694 0.074156 -1.781050 0.700025 -0.588265 -0.791653 -0.838681 1.116541 1.448082 -0.774979 -0.648499 0.257714 1.273966 0.309547 -0.944967 0.380198 0.616266 -0.333825 0.349196 1.011773 -1.249027
6214 -1.389244 0.533272 0.281739 0.284864 0.586553 0.722012 -0.157719 0.126825 0.911659 0.492743 -0.150364 -0.312585 -0.815133 -1.047947 -0.057793 -2.605815 -2.497611 0.642042 0.095354 -0.517520 -1.197352 -1.203914 -0.985970 0.409198 0.503425 0.931997 -0.623557 -1.556691 0.421224 0.130276 -0.068145 -0.482060 -2.478413 0.322052 -0.420472 0.267866 0.279198 -0.898269 0.377582 0.255589 2.100460 -0.749050 -0.994465 0.672375 0.036659 0.047145 0.250669 -0.923015 -0.812773 0.180462 1.122936 1.657843 0.205046 1.216892 -0.488824 1.114431 0.290227 -1.527561 0.556878 0.197696 1.124426 -0.454657 -0.173322 -0.364721 0.491220 0.641151 -0.394019 0.140054 0.131806 0.463310 -1.930117 0.239636 -1.581699 0.357266 -1.000072 1.117091 0.749721 -0.977273 1.165421 0.840637 -0.409787 -1.349275 1.181834 -0.308815 -0.667083 0.136367 1.227738 0.976563 -0.390652 -1.031093 0.341381 0.864590 -0.049505 -1.060200 0.806159 0.023229 0.297982 1.019294 1.288127 0.506353
24966 -0.310469 -1.571329 -2.119586 0.175009 -0.683921 0.622402 -1.006448 -0.890823 0.785040 0.259579 -2.234758 -0.022911 1.405878 0.206420 -0.142954 0.252416 0.134366 0.066375 0.590456 -0.594414 -0.425719 0.394630 -1.437592 0.228893 0.233429 0.163907 -0.373510 0.716203 -0.130339 0.060668 0.444341 -1.037937 -0.535114 -0.038513 -0.925351 -1.703227 0.210993 -0.307641 -1.347084 -0.570676 0.532838 0.549492 2.428108 0.147995 -1.572366 -0.266504 0.187739 0.286600 -1.400638 -0.027407 0.268462 0.103284 -0.703933 1.291947 0.998074 0.693769 -0.180479 -0.751512 0.327576 0.729784 0.804184 1.509089 -0.333399 -0.018217 0.672916 -0.746057 -0.339408 -0.929437 0.245521 0.250707 0.170775 0.363857 -1.136134 -1.824685 0.947193 0.048426 -0.421902 0.245761 -1.675385 0.666000 0.983076 0.178828 0.362361 0.207729 -0.071502 -0.566514 -1.093152 1.153891 0.377659 0.655057 -0.776921 -0.813661 -0.447168 1.644396 0.038560 -0.626982 0.368250 0.059240 2.145837 0.258188
2665 -0.485879 -0.561784 -0.604346 -1.108069 -0.344912 0.613713 -0.374871 -1.882106 2.111251 -0.296259 -0.894047 -1.060750 1.161628 -0.753327 -0.462291 0.449820 -1.269820 1.417068 0.149416 -1.463111 0.177023 0.135250 -2.290381 1.655474 -0.866437 -0.185564 -1.961553 1.654787 -0.826253 0.642661 -0.791504 -0.027703 -1.169585 -0.342270 -1.169242 -1.464295 0.011863 -0.134121 -0.647375 -0.411986 1.661671 -0.993312 2.531653 -0.491593 0.602905 -0.470638 -0.739767 0.913618 -2.595052 1.261386 0.277857 0.593193 -1.612717 2.394628 0.086519 2.753376 -0.513634 0.176153 0.077087 -0.408288 0.389972 -1.551896 -1.583355 -0.263436 -0.336927 0.172310 0.591540 0.868757 0.166017 1.448112 -0.271122 0.218729 -1.259001 -0.519098 0.472696 -0.003395 -1.118657 0.240349 0.079691 0.763576 0.852498 0.805148 0.148664 0.713128 0.431447 0.434471 0.588063 1.359427 -0.583228 0.270976 -1.846160 -0.426635 -0.699953 2.636608 0.005396 1.094452 0.780478 2.014910 0.145869 0.218318
82920 -0.950153 -1.424874 -0.953355 0.684391 -0.000313 1.250312 0.826238 0.258569 0.081781 0.342093 0.029776 -0.417780 0.240425 -0.267413 0.604145 -1.211783 -0.558840 -0.704568 -0.064987 -1.573133 -0.677293 1.747517 -0.024320 -1.164323 1.649667 -0.615997 -1.011130 0.936849 -0.184385 -0.514238 0.217041 0.527937 -0.647613 -0.517661 0.885168 1.418802 -0.846755 0.071614 1.239507 0.891326 1.412359 0.125883 1.323655 0.411438 -0.449347 0.745308 -0.671286 0.481706 0.301173 -0.363158 0.313096 1.194445 1.033557 -0.223761 0.314708 -0.592948 -1.269816 0.086389 0.479612 -0.155758 -0.820976 1.710492 -0.076707 -1.793023 -0.929703 2.165300 -0.998403 0.150579 0.052512 2.136940 -0.753485 0.342815 -1.617843 -0.493286 -1.350843 0.331521 -1.436027 -1.459059 -0.938166 -0.677359 -0.930093 -1.270719 -0.946498 0.889193 -1.284372 -1.896783 0.354198 1.594230 -0.724167 -1.184774 0.167117 0.256542 -0.351696 -0.799390 -0.564173 0.583221 0.280446 0.455254 0.515081 -0.719662
8224 -0.697156 -1.368337 -2.756028 -0.582515 -0.871578 2.167663 -0.270356 0.360415 1.327796 1.304665 -0.456562 0.035245 0.584617 -0.287075 0.446742 -0.254647 -0.656982 -0.943333 1.888196 -0.235230 -0.984767 0.222014 -0.898972 -0.572778 1.581674 -1.479754 -0.445214 -1.132071 -0.160950 0.532947 1.355708 -0.459977 -0.269212 -0.256258 2.079964 0.520540 -0.641323 -0.584463 0.202839 0.737140 1.163680 -0.653109 1.281780 1.388138 -1.400437 0.990924 0.174567 0.907815 0.361508 0.373344 -0.273111 -0.990262 0.051980 0.761832 -0.353880 0.005708 -0.914987 0.206250 0.903884 -0.707245 -0.103423 0.636076 -0.083121 0.096788 -0.224077 0.112692 -1.547601 0.196925 -0.355856 1.244082 -0.315787 0.575939 -2.504327 -2.351644 -1.141280 0.216527 0.275332 0.720568 0.372814 -0.883935 0.165934 0.328471 -0.245505 -0.206060 -1.152801 0.232600 0.881473 1.342565 0.891944 -0.970720 0.422389 -1.003501 -0.989701 1.217528 0.012848 -0.479276 1.030794 0.281092 2.279044 1.269809
11335 -0.044850 -0.233116 -0.478728 0.088976 -0.634640 0.475186 0.177993 0.101869 -0.104891 0.976855 0.369475 0.746477 0.857245 -0.394832 1.162303 -0.545411 -0.939636 0.655526 2.059484 -0.278159 -0.615140 -0.598393 -0.681549 -0.361553 0.272390 0.565536 -0.351415 -1.578396 0.447527 0.613749 -0.099389 0.665339 -0.722562 0.061893 0.897175 -1.376661 -0.279174 0.150478 0.799540 0.275267 0.424325 -0.472378 0.921066 1.535587 -1.491625 0.982599 -0.044580 -0.349194 0.314114 0.384959 -0.005478 0.142348 -0.109663 -0.641476 -0.925357 0.008398 -0.440907 0.258666 0.462062 -0.193728 -0.180102 0.747113 -1.435251 0.725694 -0.451362 -0.118096 -1.220756 0.379114 0.147191 0.603767 0.267116 0.249035 -0.676986 -1.472063 -1.291247 0.051678 0.502109 0.592135 0.514024 -0.629769 -0.512901 -0.853151 -0.859611 -0.010196 0.334838 -0.052672 0.687720 0.168353 1.101663 -1.085053 0.906800 0.369773 0.050627 -0.045498 0.704664 0.393887 0.282242 -0.981107 -0.288637 0.420164
12182 -0.507294 -0.579801 -0.801035 -0.086804 -1.491127 -0.650587 -0.187783 0.297913 -1.585802 2.161297 -1.181097 0.299732 1.393461 -0.336657 1.135126 -0.054462 -0.246187 0.113566 2.055995 -1.518180 -2.481255 -0.734285 -1.090944 0.028750 -0.113167 1.382713 0.229954 -0.507486 -0.171156 -0.575653 0.795430 0.767559 -0.590874 -0.415465 -0.195753 -1.715153 -0.124956 0.076840 0.431291 0.331857 1.611851 -0.136708 2.086182 0.036527 -1.463358 0.812427 0.379527 -0.996455 -0.195640 0.503704 0.499959 -0.442746 0.765045 0.060546 -0.822999 0.369602 -1.506056 0.036045 0.429618 1.053799 0.165391 2.312448 -1.489571 0.268316 -0.013287 -0.088984 -0.976360 0.812984 -0.488142 1.842201 0.069789 -0.053153 -0.281294 -1.036227 -0.413080 0.425181 -0.245165 0.165360 0.047470 0.293417 -2.068093 -1.428370 -1.627357 1.608114 -0.011875 -0.832101 -0.231538 0.920460 -0.031645 -0.559701 -0.208268 -0.410975 -0.404228 0.208962 0.372084 0.095872 -0.450811 0.177750 -0.853321 -0.163950
1116397 -0.501340 -0.837173 0.759712 0.739208 -0.072045 0.850567 0.653302 -0.733052 0.331956 0.158307 0.564446 0.300727 0.652634 0.079569 0.381323 -0.494948 -0.909108 0.559869 1.106413 -0.931308 -0.004853 -0.114097 -0.557983 -0.759081 -0.247756 0.449891 -1.349487 -0.554506 0.777979 1.376994 -1.412978 0.582453 -1.046460 -0.315572 0.794350 -0.649964 -0.692783 -0.435393 0.971326 0.487100 -0.464118 -0.633397 0.944668 1.806346 -0.493853 0.392134 -0.368679 0.254398 0.101174 -0.103028 -0.389823 1.225447 -0.470229 -0.703387 -0.371653 0.093241 -0.028157 0.649108 0.498003 -0.011040 -0.553524 0.566605 -0.206586 -0.252294 -1.145815 0.414930 -0.917221 -0.055013 1.014727 -0.290027 0.107949 0.208029 -0.380737 -0.251574 -0.863292 -0.371614 -0.088958 -0.200174 -0.299206 -0.318872 0.320802 -0.705805 0.241118 -0.156209 0.708241 -0.510405 1.172560 -0.474185 1.290229 -0.762472 0.463667 0.362916 0.192590 -1.899442 0.627108 0.813480 0.534824 -1.405517 -0.259930 0.372901
6910 -1.103653 -1.578061 -2.171571 0.535336 -0.061352 -0.085175 -0.831700 -0.784276 -0.165368 0.357188 -2.579064 -0.482984 1.595425 -1.309966 0.561471 0.024155 0.022333 0.276939 0.511876 -1.807383 -0.685108 0.141772 -1.382253 0.424993 -0.250936 -0.595587 -0.194530 0.971703 -0.293751 0.031129 1.211575 -0.605054 -1.114872 -0.262302 -1.115938 -1.532925 0.387760 -0.008356 -0.951394 -0.348815 0.480884 0.481991 1.629685 0.195738 -1.526788 -0.860697 0.429221 0.577372 -1.145438 -0.196349 -0.016481 0.693262 0.404497 0.796043 0.282508 0.873842 -0.469612 -0.974689 0.860220 0.866560 0.680084 1.702996 -0.627023 -0.530693 0.948883 -0.189643 -0.566245 -0.028460 -0.585054 1.509341 -0.049608 -0.120279 -0.516294 -1.133055 -0.457837 0.092409 -0.339862 0.327318 -1.174888 0.648088 0.561152 0.355498 0.553028 1.425307 -0.786943 -1.184808 -1.162658 1.271716 -1.260743 0.202729 -0.681078 -0.943357 -0.195038 2.068662 0.209809 0.051103 -0.615500 0.509933 0.822075 -0.286396
20193 -0.592532 -0.871571 0.514200 1.193511 0.210869 1.088611 1.282193 -0.960227 0.635708 -0.004770 0.433512 0.342333 0.996882 -0.217299 0.564375 -0.446030 -0.568645 0.116252 1.118138 -1.174586 0.226515 0.631022 -0.139150 -1.062875 -0.354402 -0.240889 -1.818668 -0.037177 0.732699 1.418560 -1.243708 0.611860 -0.944840 0.238766 1.074023 -0.397582 -0.733021 -0.036054 0.882844 0.499041 -0.207074 -0.498761 0.750631 1.927568 -0.281790 0.116374 -0.519317 0.852002 0.130958 -0.167446 -0.588301 1.446370 -0.263630 -0.998448 -0.081407 0.101836 -0.343747 0.498896 0.465117 -0.328384 -0.720509 0.638527 0.139757 -0.680523 -1.761897 1.358407 -1.156193 0.033774 1.599980 -0.091070 0.306981 0.277669 -0.634968 -0.676978 -1.070932 -0.462073 -0.709798 -0.049478 -0.636595 -0.279489 0.842632 -0.714698 0.650607 0.519878 0.601887 -0.417658 1.091622 -0.175930 1.559841 -0.981051 0.687089 0.697488 0.318294 -1.198690 -0.123012 0.532966 0.799061 -1.087307 0.205093 0.978268
35061 -0.573053 -1.382721 -0.406613 -0.410146 0.017805 1.443777 -0.060713 0.080363 0.578300 -0.857056 0.379824 0.004308 -0.679747 0.069029 -0.203970 -0.746950 -0.709786 0.410920 -0.901048 -0.163096 0.184490 1.523879 -0.032348 -0.487628 0.839561 -0.231851 -1.478945 1.567066 0.064564 -0.655172 -0.706717 0.311602 -0.451247 0.176169 -0.201310 0.956564 -0.303568 -0.255496 0.822838 0.157977 1.630152 0.412529 1.072461 0.032140 0.594524 0.696594 -0.643721 -0.420228 -1.005270 -0.776928 0.903915 1.338210 -0.321094 1.011476 0.543387 -0.555177 -1.342421 -0.459537 -0.299074 -0.223192 -0.732157 0.226231 -0.645491 -1.627709 -0.302065 1.166206 0.428549 0.716420 -0.137921 0.951118 -1.720898 0.234659 -2.976926 0.110819 -0.237212 0.750495 -1.350984 -1.413533 -0.193868 -0.145730 -0.306241 -0.831647 -1.187265 -0.160729 -1.014460 -1.522996 0.122530 2.073157 -0.353517 -0.559002 -0.392666 0.348358 0.218655 0.097117 -0.558580 0.191434 0.596555 0.125765 0.375367 -1.131081
1129994 -0.014583 -0.409896 0.290380 0.690692 0.359492 -0.422714 0.524521 -0.258929 0.433311 -0.793946 -0.123171 0.400173 0.540517 -0.265572 0.783209 -0.732977 -0.845946 -0.102137 0.423730 -0.858200 0.047713 0.291033 -1.297141 0.210296 1.236715 -0.102625 -1.331208 -1.374830 0.320571 0.243621 -0.298454 -0.366656 -0.938608 -0.163519 0.253460 -0.719671 -0.299480 0.575979 -0.339181 -0.544262 -0.950657 -1.080701 0.304960 0.075199 -0.695688 0.001804 -0.188047 -0.074143 -0.310954 0.539765 0.171063 1.172010 0.412935 -0.354091 0.142161 0.589891 0.965885 0.028410 0.385204 -1.055363 0.727199 0.410926 -0.207490 0.385443 0.247252 1.006244 0.067458 -1.228549 0.534935 -0.432013 0.781956 0.675553 1.223728 -0.630434 -0.613391 -0.175848 0.269312 0.143890 -1.157418 0.050443 0.731414 -0.132254 0.883499 -0.643097 0.300178 -0.720615 0.409259 0.151413 0.378022 -0.019021 1.426699 0.312698 0.543439 -0.672289 0.995395 0.139049 0.515286 -0.359414 0.431980 0.041456
4804 0.295370 0.005333 -0.415698 -0.624419 -0.946697 -1.562217 -0.139273 -0.253121 0.013674 0.604180 -0.226400 0.888760 0.615133 -1.653893 1.424059 -0.629022 -1.369647 0.681354 1.652815 -0.939131 -1.485904 -0.567283 -1.527112 0.076952 0.546489 0.990242 0.120723 -1.796559 -0.021908 0.088915 0.110389 0.721127 -1.025234 -0.577945 0.249334 -2.150013 0.513105 0.540603 -0.001600 -0.222187 1.207522 -0.816945 1.659492 0.387689 -1.705246 -0.001284 -0.118740 -0.576592 -0.570291 0.973726 0.739080 0.529372 0.563715 -0.078729 -0.687002 0.990224 -0.242066 0.175167 0.691606 0.555138 1.167506 0.897731 -1.866733 0.120323 0.358308 0.474133 -0.791781 0.227161 0.170568 1.534027 0.388318 0.492733 0.281595 -1.657392 -0.980059 0.218935 -0.193886 0.759664 0.087279 0.363439 -1.069867 -1.015113 -0.958327 0.653121 0.633711 -0.339677 0.200979 -0.026495 0.275862 -0.888717 1.083871 0.723838 -0.471543 0.275204 1.168033 0.120087 0.205572 -0.239195 -0.786625 0.179912
108047 -0.673524 -1.129096 -0.552384 0.579837 0.247113 1.030372 0.915450 0.353245 0.048416 -0.307270 0.497196 -0.082980 -0.161634 -0.385852 0.842896 -1.375656 -0.610671 -0.129844 -0.408620 -1.202760 -0.311139 1.646431 -0.070821 -1.140362 1.461770 -0.701485 -1.361237 0.784769 0.122158 -0.611675 -0.163720 0.590443 -0.529295 0.085815 0.210379 0.993038 -0.282092 0.171118 0.996368 0.360924 1.321990 0.203104 0.715971 -0.033172 -0.097569 0.871608 -0.569016 -0.108497 -0.082575 -0.167898 0.576558 1.443771 0.987172 -0.060704 0.319128 -0.821862 -0.907504 -0.275906 0.096545 -0.365929 -0.659357 0.728111 -0.103333 -1.555989 -0.393846 1.804792 -0.389461 0.246375 -0.130366 1.574969 -1.250847 0.079929 -1.730923 -0.152627 -1.113673 0.650318 -1.295161 -1.573094 -0.499079 -0.383257 -0.886718 -1.124327 -0.962303 0.635537 -1.155610 -1.370283 0.143609 1.679508 -0.621976 -1.041402 0.506033 0.586812 0.076849 -0.433666 -0.441460 0.282049 0.330133 0.543323 0.098075 -0.501213
33895 -0.571914 -1.120983 -0.694198 0.364873 0.048456 0.748935 0.923765 0.100984 -0.523542 0.107719 0.315805 0.058480 0.359151 -0.529622 1.216724 -1.435215 -0.613954 -0.162197 -0.131901 -1.633126 -0.636142 1.318036 -0.424391 -0.925259 1.238001 -0.198979 -1.423741 0.567925 -0.039089 -0.177605 -0.420254 0.821419 -0.231731 -0.544448 0.000114 0.233945 -0.282397 0.424669 1.072566 0.540000 0.861554 -0.140215 1.170456 -0.365124 -0.261218 0.571075 -0.533400 -0.115275 0.083966 -0.253357 0.792982 1.282588 1.153748 -0.760907 0.175319 -0.817897 -1.044354 0.048534 0.009413 0.137092 -0.270230 1.603894 -0.164051 -1.300614 -0.069030 1.651128 -0.568682 0.029240 -0.337661 1.609083 -0.810971 -0.119133 -0.673219 -0.381366 -1.105182 0.149199 -1.350632 -1.159783 -1.239140 -0.559560 -1.508457 -1.077336 -1.123446 1.152462 -0.694246 -1.896735 -0.115864 1.174541 -0.164286 -1.010850 0.603037 0.387722 0.172349 -0.641342 -0.151581 0.720006 -0.222255 0.381082 -0.436208 -0.898126
31353 -0.716692 -0.172007 -0.913590 -0.410039 -0.288438 0.562110 1.210905 -0.164569 0.046980 0.957408 -1.245954 -0.576037 1.370255 -1.008096 0.332850 -0.960858 -0.669957 -0.327498 0.273533 -1.864663 -1.473329 -0.136997 -1.847181 -0.132723 -0.915709 -0.148913 -2.052901 -0.246391 0.994377 -0.567827 0.666440 -0.221959 -1.517646 0.555086 -1.197536 -0.344888 1.232788 -0.563930 -0.220086 -0.506314 1.393419 -0.827160 -0.643781 -0.738489 -0.319755 -0.299247 1.421926 -0.570861 -0.777574 0.295016 0.459035 0.284984 1.549818 0.981039 -0.513079 1.159934 -1.026905 -1.134867 0.391084 0.150172 0.799513 0.309754 1.188950 0.627755 1.009863 0.482036 0.356834 0.413788 -0.135184 -0.102181 -0.663691 0.265665 -0.907585 -0.237713 -0.385901 1.193569 -0.498838 0.427584 -0.326237 1.122753 -0.830054 -1.260812 0.774367 1.143951 -1.441200 0.349189 0.023228 2.439484 0.008110 0.125695 0.053384 -0.622275 0.404428 1.758926 -0.002471 -1.302454 0.811279 1.886932 0.656480 1.020089
6913 -1.349653 -1.080151 -0.882189 0.342438 -0.373053 -0.364122 0.408954 -0.839660 0.053645 0.842916 -2.506392 -0.750799 1.669182 -0.956755 0.155488 -0.754054 -0.472166 -0.429613 0.526247 -2.781236 -1.206353 0.233936 -2.186038 0.147598 -1.071071 0.241882 -0.748208 0.862942 0.415951 -0.454904 1.046481 -0.232971 -1.455411 -0.405868 -1.423196 -1.456818 0.904889 -0.431119 -0.602970 -0.259643 1.085121 0.065169 1.215387 -0.694062 -0.936443 -0.840680 0.384652 0.140373 -0.824281 0.418162 0.350136 0.521161 0.833365 1.353514 0.168858 1.203195 0.013299 -0.830884 0.788967 1.143759 1.103779 1.025016 0.584351 -0.821228 1.140010 0.184277 0.040270 -0.109592 0.054327 1.225049 0.034398 0.230438 -0.095982 -0.402713 -0.024305 0.113597 -0.854446 -0.141708 -1.206785 1.081025 -0.239178 -0.844079 1.106311 1.765712 -0.878220 -0.184678 -0.474604 1.482289 -1.270905 0.116389 -0.661120 -0.597221 -0.020437 1.068281 -0.106284 -0.155672 -0.073476 1.139941 0.816998 0.290582
1154103 -0.963115 -1.493624 -1.875088 0.299893 0.029545 1.381781 -0.719362 -0.309164 0.126636 0.659853 -1.670093 -0.374697 0.869244 -0.734688 0.200301 0.146239 0.188152 0.307265 0.642091 -0.826712 0.036035 0.034670 0.046368 -0.242483 -0.338775 -0.828641 -0.145782 0.833835 0.163219 0.813841 0.581447 -0.542807 -0.433139 0.108954 0.021235 -0.646425 -0.086613 -0.023853 -0.206307 0.088948 0.003852 1.046809 0.727694 1.285991 -0.837385 -0.361148 0.137922 1.182729 -0.632255 -0.868605 -0.330993 0.063354 -0.292345 0.097245 0.040812 -0.347462 -0.349341 -0.641122 0.028449 0.661248 -0.325142 1.301980 -0.256635 -0.351746 0.370891 -0.476426 -1.422360 -0.031908 -0.231240 0.887019 0.028538 -0.249685 -1.327473 -1.458672 -0.683583 -0.280896 0.262698 0.100616 -0.667725 -0.726382 0.619938 0.675437 0.275623 0.859261 -0.580745 -0.826821 -0.322187 0.444365 -0.363856 -0.096051 -0.423826 -0.503646 -0.138365 1.119439 -0.288575 0.274971 -0.332403 -0.652777 1.174643 0.367079
22563 -0.586843 -0.915703 -1.611139 0.379792 -0.028793 1.484512 -0.887079 -0.431209 0.827586 0.153908 -0.449361 0.448148 0.345769 -0.153129 0.083562 0.671625 -0.226598 0.159597 1.392089 0.503535 0.798546 0.353548 0.238423 0.202397 0.685716 -0.476889 -0.707263 -0.417157 -0.571623 0.763229 0.549740 -0.528325 -1.091805 0.042200 1.395611 -0.861214 -0.448949 0.465249 0.096700 0.477767 0.694805 -0.082312 1.425760 1.629574 -0.832325 0.515155 -0.057459 0.677859 -0.308921 0.249046 0.048771 0.276665 -0.865659 0.694854 0.611498 0.224409 -0.772341 0.198786 1.149452 -1.134881 -0.079045 0.558302 -0.998127 0.471278 -0.751563 0.384182 -0.935643 0.536581 0.414008 1.209899 -0.121012 0.188614 -1.602015 -1.374186 -0.366234 -0.421488 0.191561 0.982140 0.356788 -0.161187 1.165622 0.909754 -0.510404 -0.046864 0.660861 -0.595864 -0.569965 0.346076 1.019158 -0.783383 -0.143504 -0.292918 -0.395913 1.310679 -0.486902 -0.074424 0.142540 -0.779680 0.665582 0.597023
12350 0.430289 -0.059691 -0.557497 -1.014706 -0.866383 -1.711090 -0.100130 -0.156882 -0.072705 0.387191 -0.219724 0.906112 0.530421 -1.977081 1.359772 -0.682838 -1.374251 0.456545 1.105886 -0.903584 -1.401743 -0.362028 -1.487330 -0.237624 0.757515 0.458442 0.182492 -1.562901 -0.030982 -0.122282 0.548049 0.505293 -1.035715 -0.403932 0.082667 -1.603250 1.084563 0.406987 -0.308935 -0.405047 1.710728 -0.553485 1.183494 -0.218663 -1.766593 -0.312334 -0.208544 -0.546809 -0.495565 0.927924 0.942736 0.605598 1.021215 0.245347 -0.609568 0.750890 -0.246834 -0.059242 0.591456 0.853596 1.442372 0.593224 -1.555616 -0.133886 0.679613 1.017967 -0.780209 0.315548 -0.146006 1.886652 0.168039 0.539371 -0.363659 -1.728472 -1.197716 0.242465 -0.420003 0.971138 0.140828 0.324367 -1.323424 -1.140631 -0.576932 0.878399 -0.063413 -0.321612 -0.165696 0.164572 -0.311470 -1.044644 1.172955 0.868257 -0.614095 0.908793 0.843427 -0.167267 0.351157 -0.090811 -0.497785 0.133160
445938 -0.010475 -0.379872 0.159427 -0.231153 -0.314448 0.186516 0.402167 -0.494533 -0.215859 0.272647 -0.745056 0.239640 1.370059 0.024832 0.365529 -0.345731 -0.273003 1.001232 0.932655 -0.871369 -0.631543 -0.350254 -1.165265 -0.223359 -1.228008 0.698632 -1.262911 0.036358 1.366418 0.203908 -0.943586 0.158360 -0.482875 0.587677 -0.997000 -1.275800 0.209600 -0.556525 0.076869 -0.812203 -0.146599 0.077056 0.338832 0.284808 -0.642900 0.370354 0.350595 -0.411628 -0.878664 -0.301445 -0.175886 0.405361 -0.079075 -0.133118 -0.559479 0.281130 0.044554 -0.633535 -0.761973 0.657883 0.099979 0.559945 -0.334563 0.332188 0.413822 -0.426858 -0.051507 -0.281997 0.469413 -1.018678 0.422546 0.261652 -0.440572 -0.712813 -0.143659 0.574280 -0.005077 -0.167581 -0.801241 0.011618 -0.397312 -1.372582 0.368870 0.069821 0.088791 0.136927 0.509722 0.954673 0.508597 0.262869 0.159502 0.554605 0.470129 0.130443 0.750233 -0.157927 0.788432 -0.337870 0.409153 0.575172
2658 -0.852850 -0.434276 -0.857941 -0.295108 -0.303659 0.651149 -0.240067 -1.678463 1.506139 0.301523 -1.073402 -1.114504 1.355929 -0.810727 -0.048319 0.311518 -1.104642 0.990802 0.571802 -1.759632 0.227092 -0.177817 -1.834449 1.395914 -1.033877 0.084998 -1.435465 1.454464 -0.757631 0.718814 0.034810 0.032454 -1.372282 -0.195000 -1.059263 -1.355651 -0.054315 -0.029873 -0.606955 -0.071981 1.394007 -0.824556 1.982982 -0.356471 0.384171 -0.696294 -0.474721 0.695433 -1.922089 1.179092 0.175937 0.443268 -1.005095 1.795562 -0.001223 2.254887 -0.333199 0.045125 0.533980 -0.323895 0.502882 -0.908123 -1.126517 -0.231744 -0.469527 0.069590 0.071511 0.699065 -0.282058 1.859592 -0.055159 -0.034200 -0.710366 -0.461708 0.089155 -0.101220 -1.179553 0.155992 0.164413 0.684075 0.508308 0.721071 0.221359 1.076488 0.048206 0.349064 0.462181 0.942227 -0.380197 0.097304 -1.586358 -0.566640 -0.534005 2.068603 -0.153253 0.704064 0.254283 1.993841 0.162326 0.260426
12576 -1.260136 -0.284695 -0.336055 0.435095 -0.090830 1.613014 0.286368 0.450582 1.066637 0.245385 0.530711 -0.598154 -0.894363 -0.298891 0.180366 -1.753493 -1.504811 0.305361 -0.176995 -0.991438 -0.702112 0.518614 0.170828 -0.593125 0.944979 0.401650 -0.825631 -0.132404 0.732858 -0.174995 -0.343971 -0.085667 -1.561931 0.425311 0.774694 0.937372 -0.156056 -0.299586 1.407858 0.735347 2.185661 0.023426 -0.525791 0.420088 0.306538 0.864721 -0.409023 -0.470072 -0.487982 0.227820 0.515443 0.718158 0.897153 1.393646 -0.220446 -0.320052 -0.551294 -0.879951 0.376154 -0.374542 -0.007104 -0.609362 -0.217719 -1.330925 -0.302467 1.159455 -0.241914 0.408813 -0.003691 2.065472 -1.717834 0.040455 -2.272113 0.045650 -0.788790 1.136270 -0.796136 -1.484261 1.015385 0.461644 -1.004885 -1.033930 -0.695534 -0.669050 -0.855189 0.168421 1.066365 1.700308 0.054600 -1.082324 0.207302 0.769396 -0.115096 -1.106014 0.132461 -0.289168 0.784120 1.184615 0.967901 0.129578
10169 0.350574 -0.114921 -0.944430 0.207713 -0.285193 0.009602 0.133486 0.065222 0.547497 0.655384 0.381185 0.753146 0.148700 -0.954729 1.220419 -0.318455 -0.796944 0.243327 1.241892 -0.256630 -0.563728 0.237128 -0.568019 0.173456 1.562366 0.505628 -0.055969 -1.600184 -0.475350 -0.155193 0.132282 0.384161 -1.311971 -0.361313 1.238943 -1.684446 -0.075660 1.335352 0.360101 0.488210 1.219599 -0.724969 2.116841 1.344550 -1.792943 0.418207 -0.345918 0.030750 -0.057932 1.345359 0.642991 0.671562 -0.334212 0.151050 0.082396 0.717174 -0.830035 0.453858 1.492510 -0.492382 0.187173 0.783233 -2.054966 0.650692 -0.398761 0.868712 -1.388227 0.667094 0.425521 1.390715 -0.002092 0.512071 -0.717382 -1.597911 -0.547013 -0.163253 0.035274 1.006795 0.531209 0.419495 0.362596 0.308372 -1.544168 0.235491 0.953637 -0.434939 -0.404714 0.068355 1.060000 -1.439703 0.378279 0.219109 -0.432700 0.484937 0.371289 0.227689 0.141469 0.037751 -0.962984 0.154210
18619 0.151727 -0.639331 -1.805576 -0.245209 -0.999453 -0.038447 -0.546189 0.048935 0.638056 0.760205 -0.358998 0.193776 0.292360 -0.728949 0.619632 0.099287 -0.238163 0.029048 1.328511 -0.169161 -0.745746 0.393118 -0.258442 0.077355 1.183106 -0.040871 0.752166 -0.615276 -0.709422 -0.294209 0.970573 -0.110236 -0.824456 -0.298729 1.209937 -0.964130 0.217625 0.468415 0.061859 0.432074 1.766794 -0.138406 2.286522 0.933931 -1.936238 0.665955 -0.205602 0.081433 -0.173280 1.108788 0.169230 -0.185878 -0.307275 1.084846 -0.096939 0.635234 -0.875916 0.211001 1.055829 -0.118414 0.083909 0.712646 -1.397783 0.158964 -0.146918 0.029459 -0.868633 0.732369 -0.021975 2.058652 -0.263494 0.336111 -1.464402 -1.662613 -0.215560 0.019705 -0.166425 0.616528 0.775514 0.340851 0.128975 0.470881 -1.362107 0.315255 0.071162 -0.022995 -0.506091 0.511932 0.210285 -1.049648 -0.213288 -0.645125 -0.866037 1.120566 0.046771 -0.235935 0.147488 0.160197 0.063871 0.504443
10177 0.341636 -0.056831 -0.231973 -0.624648 -0.711532 -1.749312 0.031398 -0.302071 -0.087472 0.493285 -0.102558 0.923883 0.511826 -1.829665 1.514947 -0.714634 -1.288846 0.676847 1.330432 -1.141176 -1.393176 -0.268900 -1.493869 -0.075967 0.602475 0.874572 0.068991 -1.660406 0.147062 -0.110331 0.075865 0.712023 -1.322053 -0.431442 0.266897 -2.094636 0.784548 0.548845 -0.012789 -0.162462 1.429017 -0.629346 1.566685 0.195509 -1.765239 -0.037217 -0.207676 -0.556156 -0.633347 1.040696 0.799800 0.626786 0.851793 0.210760 -0.497640 1.069883 -0.229129 -0.012256 0.762406 0.686533 1.260963 0.771925 -1.866645 -0.152387 0.416428 0.852364 -0.884836 0.212910 0.294992 1.858525 0.395370 0.637131 0.026999 -1.598153 -0.965748 0.192715 -0.478079 0.554444 0.168495 0.629690 -1.046019 -0.992753 -0.912932 0.761551 0.743346 -0.287196 0.051913 0.039299 0.151275 -1.021039 1.124689 0.921562 -0.534311 0.158371 1.102694 -0.142761 0.191801 -0.003125 -0.924835 0.275075
23738 -0.075503 -0.838865 -1.847145 -0.052744 -0.637705 1.129114 -0.486307 -0.001489 0.793639 0.808305 -0.711664 0.588733 1.151310 -0.017358 0.348988 0.349125 -0.129113 0.007860 2.008404 0.102904 -0.231796 0.052461 -0.738879 0.109072 0.685393 -0.659570 -0.452482 -0.675530 -0.241258 0.319226 0.662376 -0.446545 -0.246340 0.215483 1.079024 -0.673665 -0.227190 0.299914 -0.314964 -0.295413 0.542414 -0.212400 1.410400 0.975640 -1.109522 0.998908 0.029556 0.391619 -0.577565 1.008968 -0.355606 -0.479264 -0.602229 0.482745 -0.067481 0.325093 -0.473276 0.074958 0.381375 -0.757082 -0.007630 0.544111 -1.031116 0.728864 -0.197318 -0.074060 -0.938338 0.263234 -0.094402 0.713068 0.188717 0.425256 -1.708254 -2.232002 -0.456508 0.067564 0.189839 0.891160 0.135633 -0.395095 0.483917 0.538628 -0.360795 -0.032659 0.083673 0.257964 -0.021926 0.914681 0.814804 -0.369314 0.090058 -0.475320 -0.433401 1.594659 0.188137 -0.305976 1.068002 -0.022885 0.876434 1.053570
210871 -0.547808 -0.389474 0.348302 0.108797 0.309400 0.830811 0.217115 0.099230 0.402670 -0.475544 0.866020 -0.106737 -0.687988 0.112467 -0.032701 -0.730522 -0.852873 0.304700 -0.413822 -0.153396 -0.267098 0.700392 -0.022514 -0.437128 0.977615 0.107660 -1.086120 0.493066 -0.037216 -0.283783 -0.859403 0.454839 -0.477615 0.021495 0.211038 0.889964 -0.749807 -0.292627 0.829053 0.153599 0.994553 -0.225634 0.575160 0.244132 0.532073 0.797352 -0.624885 -0.294008 -0.363784 -0.358608 0.471628 1.177741 0.221096 0.124380 0.159517 -0.173069 -0.765162 -0.028982 -0.197822 -0.369672 -0.612011 0.065718 -0.537168 -1.081374 -0.797900 1.398794 -0.052512 0.332431 0.122442 0.578700 -1.038068 0.162544 -1.569843 0.496776 -0.473553 0.605204 -0.727008 -1.180801 0.002265 -0.153825 -0.566444 -0.990357 -0.580103 -0.162025 -0.410928 -1.058024 0.609854 1.144858 -0.128220 -0.542748 -0.039723 0.861882 -0.135629 -0.806209 -0.087653 0.527609 0.568417 0.256732 0.232342 -0.728513
2696 -0.273479 -1.569136 -0.773606 -0.013732 1.028844 1.060008 -0.145706 -0.526396 1.094321 -0.764439 -0.951472 -0.224352 1.152124 -0.332133 -0.001837 0.302726 -0.197603 1.547029 -0.283116 -0.777944 0.280066 0.430698 -1.175500 0.981039 0.223276 -0.782572 -1.599270 1.031564 0.273811 0.055922 -1.739447 -0.367840 -0.918995 0.241493 -1.060765 -1.706573 0.211700 0.336588 -0.299595 -0.695138 0.095861 -0.248050 0.982735 0.856359 0.267689 0.401904 -0.417056 0.792379 -2.249083 0.639988 -0.319127 1.508933 -0.892267 1.120473 0.057402 1.151834 -0.602753 -0.841774 -0.038752 -0.074701 -0.298030 -0.241384 -1.634788 0.296443 0.986466 1.045971 -0.149227 0.447535 0.356108 -0.320589 -0.656957 0.022512 -1.228707 -0.728162 0.398226 -0.158755 0.590214 -0.063194 -0.098092 0.678103 1.269790 0.365821 0.059028 0.472246 1.180959 -0.847775 -0.308677 1.723659 -0.781184 0.127015 -0.956835 -0.115375 0.810228 1.998030 0.077801 0.866667 0.747172 0.289478 -0.536170 0.175629
2653 -0.507041 -0.716012 -0.958882 0.072189 -0.316011 0.455883 -0.559719 0.151118 -0.478548 1.096506 -0.581717 0.179402 1.033454 -0.093265 0.621858 0.470822 -0.146475 0.802144 1.872440 -0.437994 -0.477298 -0.287516 -0.140563 0.260046 0.243977 0.451269 0.098114 -0.343024 -0.529989 0.105464 0.622217 0.126845 -0.990470 0.130819 0.562088 -1.371586 -0.736933 0.116368 0.201118 0.706834 0.606115 0.130701 1.825306 1.442760 -1.232127 0.805008 -0.014638 -0.431030 -0.292008 0.486266 -0.155011 0.133482 -0.313820 0.084311 -0.348349 0.215936 -1.137259 0.032590 0.530406 -0.461814 -0.508273 1.292994 -1.821194 0.491021 -0.290919 -0.303416 -0.947783 0.777293 -0.446865 1.429864 0.059179 -0.065147 -0.885348 -1.088713 -0.606095 0.078497 0.262759 0.314108 0.599928 -0.212446 -0.154940 0.008473 -1.680591 0.265758 0.249801 -0.706291 -0.382561 1.026565 0.394971 -0.641905 0.049337 -0.559698 -0.157413 0.921940 0.130371 0.223636 -0.797257 -0.393248 -0.489466 -0.205444
18777 -0.113790 -0.761515 -0.573869 0.761411 0.146127 0.555171 -0.016048 -0.141964 0.049932 0.597750 -1.440940 0.373795 1.673781 -0.205441 0.491593 -0.693885 -0.102580 0.695668 0.908568 -0.756578 -0.017254 -0.212643 -1.064966 -0.024017 -0.110117 0.430538 -0.894762 0.240293 0.924174 0.145364 -0.015858 -0.759934 -0.840810 0.966248 -0.960896 -1.285614 0.579646 0.423009 -0.975003 -1.062460 -0.083140 0.409769 0.114911 0.245378 -1.173807 0.371611 0.328685 -0.220085 -1.364301 0.566708 -0.200372 0.610002 -0.347267 0.383182 0.137078 0.443328 0.846761 -1.256751 -0.294084 0.151664 0.592228 0.783917 -0.298229 0.636247 0.652786 -0.161494 -0.612910 -1.041465 0.164713 -0.265656 0.487176 0.451741 -0.438677 -1.556135 -0.127233 0.354574 0.213569 -0.401849 -0.748722 0.327205 0.521465 -0.434743 0.529296 0.263790 -0.073315 0.220233 0.011803 0.674010 -0.040040 0.305205 0.218556 0.360777 0.283384 0.347209 0.596646 -0.544220 0.897298 0.248646 0.876626 1.080472
15429 0.425511 -0.138591 -0.886933 -0.939687 -0.988205 -1.819518 -0.514219 -0.085238 0.305859 0.211836 -0.355597 0.537447 0.359695 -1.729766 0.992039 -0.316993 -0.932505 0.544058 1.024192 -0.725946 -1.415345 0.038595 -1.291093 0.172551 0.443191 0.569811 0.604982 -1.234502 -0.531411 -0.362015 0.736765 0.253277 -1.013166 -0.505989 0.295139 -1.625283 0.811995 0.341750 -0.108802 0.067127 1.891758 -0.521178 1.947675 0.175332 -1.850041 -0.298072 -0.092298 -0.461670 -0.547120 0.854950 0.754379 0.364670 0.531266 0.805588 -0.477307 1.263274 -0.460373 -0.013158 0.748159 0.755466 1.035608 0.596023 -1.680277 -0.281758 0.617534 0.302139 -0.500032 0.450148 0.088979 2.156339 0.101961 0.522286 -0.483797 -1.401025 -0.547408 0.213728 -0.560817 0.784275 0.385276 0.836556 -0.677998 -0.461111 -1.036311 0.528648 0.132981 -0.079741 -0.402375 0.286453 -0.181652 -0.886800 0.688440 0.297924 -0.716645 1.064094 0.840621 -0.037751 -0.107006 0.023651 -0.652986 -0.016955
7419 -0.728450 -0.079691 0.263539 0.120873 -0.073017 0.279390 0.568305 0.271682 -0.126725 0.713657 0.635842 0.137410 -0.111873 -0.357421 0.463629 -1.806271 -1.289288 -0.316883 0.614123 -0.691553 -1.359917 -0.318077 -0.916652 -0.664766 0.719773 0.393373 -0.736531 -1.234827 0.582967 -0.100680 -0.062039 0.446041 -0.683777 -0.043278 0.461446 0.667987 -0.230850 -0.746446 0.774487 0.352813 0.856205 -0.789792 -0.471778 0.310600 -0.471056 0.679010 0.048645 -0.605389 0.616706 -0.052501 0.575149 0.505021 0.863970 -0.303966 -0.591098 0.006751 -0.040671 -0.184394 0.234201 0.026619 0.348169 0.249904 0.326404 -0.402159 -0.195892 0.799486 -0.460442 -0.259922 0.129513 0.242248 -0.507251 0.355079 -0.446262 0.042609 -1.160716 0.683118 0.028398 -0.713883 0.068705 -0.054357 -1.092081 -1.778418 0.200432 0.009251 -0.949273 -0.129944 1.428745 0.779168 0.096134 -0.809235 1.007471 0.601979 -0.196351 -1.346547 0.570006 0.066824 0.344323 0.380229 0.754639 0.231614
20601 0.626240 -0.109359 -0.518832 -1.073712 -0.804711 -1.355912 -0.158519 -0.313572 0.399951 0.288062 0.332812 0.895801 0.326732 -1.294188 0.900537 -0.494932 -1.181505 0.424664 0.804215 -0.355356 -1.258708 -0.061064 -1.354072 -0.156531 0.947352 0.304129 0.561963 -1.197337 -0.362475 0.029865 0.067647 0.713406 -0.272253 -0.792010 0.384376 -1.202423 0.268057 0.154677 0.078533 0.094915 1.085934 -0.697863 1.613827 0.344962 -1.520902 -0.053583 -0.501736 -0.029081 -0.284125 0.395883 0.731369 0.198734 0.027129 -0.021010 -0.584311 0.995293 -0.192324 0.470183 0.405004 0.699314 0.952325 0.387943 -1.879848 -0.260245 0.289649 0.581983 -0.937438 0.192036 0.166421 1.385884 0.210139 0.527922 -0.416038 -1.719371 -0.861651 0.004504 -0.256286 0.644673 0.021608 -0.104059 -0.793595 -0.889777 -0.779241 0.270143 0.381433 -0.438868 0.210597 -0.180506 -0.000763 -0.874082 0.807492 0.765988 -0.661044 0.363995 0.919294 0.523930 0.209366 -0.308894 -0.404180 0.026879
39890 0.119958 -1.081659 -0.861477 -0.330498 -0.450196 0.039955 1.062609 -0.991523 1.209677 0.473809 -0.764505 0.626163 1.672030 -0.365212 0.372617 -0.668782 -0.323233 -0.069930 1.339526 -1.495946 -0.759011 0.412355 -2.055067 -0.637430 0.004230 -0.546628 -1.206998 -0.557617 1.320923 0.324091 -0.655153 -0.184963 -0.490966 0.341736 0.246835 -0.831633 0.386733 -0.454475 -0.623415 -0.876156 -0.319324 -0.569341 0.788139 0.061920 -1.158243 0.110803 -0.014465 0.689283 -0.905736 0.778243 -0.479694 -0.268988 -0.012723 0.359827 0.126597 1.132557 0.513249 -0.057465 0.112630 0.209771 0.894428 -0.097959 0.512047 -0.029375 0.245788 0.552076 -0.371681 -1.176134 0.939744 -0.820464 0.931079 0.899552 -0.574609 -1.902840 -0.043788 0.235528 -0.282410 0.110289 -1.168520 0.267574 0.615574 -0.819275 1.095368 -0.124517 0.066914 0.980264 1.293073 0.921164 0.705281 0.348688 0.372285 0.102924 -0.280445 -0.000148 0.747932 -0.695228 1.791673 0.935048 1.558305 2.182593
10796 -0.799668 -0.411031 -1.116578 -0.156727 -0.214813 1.988989 -0.521250 -0.026546 0.777384 1.215832 0.032914 0.034534 -0.067355 -0.469084 -0.026398 -0.530234 -1.006521 -0.024882 1.636427 0.546609 -0.715270 -0.951550 -0.280621 -0.238231 0.449963 -0.240734 -0.303605 -1.148831 0.318894 0.704379 0.271007 -0.167487 -0.813625 0.202172 1.360387 0.054897 -0.601730 -0.674892 0.450153 0.673841 0.900450 -0.362244 -0.031273 1.996501 -0.569831 0.783795 0.370213 0.357215 0.117260 -0.167468 -0.010225 -0.160771 -0.411697 0.117380 -0.662066 -0.027266 -0.336576 -0.168826 0.529581 -0.503280 -0.218721 0.370852 -0.551192 0.457144 -0.635165 -0.220813 -1.686200 0.420723 -0.124286 0.305730 -0.457229 0.249939 -1.821404 -0.979985 -0.978566 0.286989 0.870171 0.311681 0.873809 -0.599853 0.274932 -0.165805 -0.013221 -0.345266 -0.450651 0.220683 1.193410 0.524827 0.856635 -0.767369 0.314152 0.001299 -0.682007 0.282952 0.294485 -0.105263 0.601172 -0.146790 1.599858 0.887890
35922 -0.057067 -0.499418 -1.184278 -0.862943 -0.589742 -0.188093 0.062892 -0.848240 0.575730 0.212516 -1.941227 0.033229 1.489307 -0.845538 0.174143 -0.966128 -0.802335 0.314584 0.000657 -1.559998 -1.095533 0.175488 -2.092929 0.291177 0.032014 0.178358 -1.157755 0.166177 0.505485 0.015244 -0.208768 -0.416916 -0.370365 -0.365192 -1.834240 -1.171546 0.605356 -0.044813 -0.871271 -1.226047 0.437432 -0.315104 0.876259 -1.066879 -0.651607 -0.618514 0.017868 0.219663 -1.631110 -0.026282 0.539613 0.602289 0.083616 0.663420 0.079470 1.238468 -0.149162 -1.111969 -0.639764 1.000003 1.499347 0.703056 0.007189 -0.126260 1.584760 0.236225 0.539160 -0.788401 -0.008864 -0.318078 0.082199 0.566968 -0.383776 -1.476172 0.234776 0.615983 -0.106739 0.017940 -1.794510 0.231389 -0.526492 -0.788531 1.010643 0.640774 -0.619766 -0.697335 -0.123742 1.626909 -0.695204 0.400060 -0.221799 0.118656 0.008623 1.051773 0.593476 -0.258973 0.773252 1.074943 1.494239 0.424189
4335 -0.172891 -0.667751 -1.434700 -0.998065 -0.705707 -0.407408 -0.505979 -0.872280 0.352409 0.572212 -1.640874 -0.221996 0.631329 -0.604194 0.287078 -0.629522 -0.509739 0.237283 0.337819 -1.215604 -0.919460 -0.072769 -1.891004 0.558681 -0.093425 0.618714 -0.673053 0.273476 0.458989 -0.141342 0.044502 -0.294803 -0.382205 -0.215858 -1.326577 -1.284885 0.675518 -0.033543 -0.962202 -0.954291 0.849543 0.028921 1.315214 -1.360011 -0.684763 -0.407886 0.017149 0.075178 -1.566304 0.241128 1.041608 -0.311494 -0.149834 1.376677 0.128980 1.149192 -0.074568 -0.816985 -0.490092 1.116965 1.207080 0.769210 -0.603452 0.045648 1.368596 -0.274652 -0.168752 -0.628810 -0.175498 0.423728 0.169478 0.338745 -0.825067 -1.410722 0.258493 0.271304 -0.405280 -0.023874 -1.206949 0.491609 -0.228035 0.036116 0.325600 0.707954 -0.045836 -0.464476 -0.238715 0.997829 -0.375497 0.533359 -0.815639 -0.075354 -0.363334 1.300212 0.616753 -0.114611 0.343122 1.322982 1.199112 0.409583
1154012 -0.113282 -0.310982 0.496550 -0.031891 -0.399927 -0.052383 0.404521 -0.727966 0.395049 0.383273 -0.349643 0.314175 0.939423 -0.159477 0.318885 -0.766960 -0.757191 0.488831 0.878166 -1.017754 -1.029711 -0.420789 -1.594481 -0.372104 -0.423078 0.581073 -0.901223 -0.809692 1.136873 0.542917 -0.969206 0.313949 -0.515387 -0.220712 -0.349613 -0.906186 -0.131728 -0.840915 0.249572 -0.315123 -0.299105 -0.297191 0.569304 0.789215 -1.024506 0.298395 -0.071172 0.007545 -0.383654 -0.086412 -0.227910 0.682177 -0.372648 -0.283742 -0.568904 0.686795 0.577718 -0.050108 -0.376532 0.622680 0.374359 0.349384 -0.257833 0.000179 0.100878 -0.259171 -0.389892 -0.495964 0.754629 -0.934561 0.449407 0.362110 0.056229 -0.752533 -0.439657 0.336861 0.338226 -0.252379 -0.795252 -0.044262 -0.186834 -1.311069 0.748404 -0.282530 0.288410 0.125608 1.122605 0.214081 0.383055 0.071138 0.528215 0.605102 0.008108 -1.039353 1.290656 0.373793 0.785681 -0.539538 0.610590 0.786047
3220 0.083785 -0.327136 -0.819450 0.458600 0.126834 0.380827 0.048211 -0.400556 0.855515 0.442983 0.061293 0.212211 0.076419 -0.163281 0.454018 0.229521 -0.578869 0.115481 0.891065 -0.169307 0.090175 0.254885 -0.180544 0.320757 1.362236 0.784132 -0.198063 -1.096882 -0.405471 0.581788 -0.194891 -0.161175 -1.592722 -0.260442 1.115282 -1.485474 -0.535601 0.767161 -0.022994 0.600271 0.791850 -1.020218 1.821057 1.437657 -1.141706 0.175143 -0.424084 0.510220 -0.264266 1.284427 0.378515 0.720056 -0.906795 0.521998 0.372158 1.050340 -0.626237 0.206669 1.215489 -0.317977 0.196046 0.598830 -1.165358 1.005477 -0.473853 0.804455 -1.499884 0.559969 1.045296 0.590474 0.044558 0.353290 -0.957649 -1.389426 0.142117 -0.377737 0.330904 0.925511 0.403577 0.648963 1.228928 0.802096 -0.571528 -0.147605 1.666666 -0.479327 -0.280266 -0.216309 1.523156 -1.135701 -0.232503 0.101250 -0.243645 -0.061228 0.091476 -0.131749 0.083521 0.037772 0.148436 1.052874
1105877 -0.205580 -0.666480 -0.094835 -0.063056 -0.263081 -0.975485 0.439935 -0.767905 -0.157000 0.178651 -1.393078 0.217091 1.538470 -0.568605 0.686771 -0.648326 -0.620847 0.502197 0.620087 -1.843311 -0.735587 0.049275 -1.981214 0.224519 -0.240822 0.641950 -1.114443 -0.222796 0.773987 0.041036 -0.368767 -0.139683 -0.830611 0.130787 -1.335835 -1.791678 0.457630 0.287585 -0.772649 -0.850209 -0.338752 -0.564725 0.874321 -0.642091 -0.859537 -0.430018 0.035766 -0.293575 -1.178219 0.527526 0.375287 0.771603 0.282073 0.148752 -0.004592 1.114514 0.342553 -0.578213 -0.214753 0.610492 1.122406 0.713505 -0.264076 0.143775 1.124877 0.152847 0.194484 -0.737349 0.376692 -0.367387 0.623611 0.314198 0.692617 -1.048428 -0.112718 0.314623 -0.189902 0.023387 -1.388572 0.481451 -0.075957 -0.827557 0.703848 0.577822 0.125841 -0.452453 0.272479 0.906532 -0.261280 0.218927 0.352946 0.128546 0.383871 0.220777 0.750979 -0.184937 0.305412 0.378638 0.309481 0.315583
15431 -0.405188 0.069357 -0.650885 -0.229617 0.175921 -0.024519 -0.212713 -0.212979 0.768837 -0.301646 -0.410034 -0.571764 -0.056811 -0.757854 -0.321639 -0.307515 -0.350443 0.024126 -0.582443 -0.379531 -0.458477 0.067277 -0.703539 0.099425 -0.377922 -0.202165 -0.458905 0.147608 -0.132121 -0.224298 0.265271 -0.655737 -0.689117 0.168217 -0.476443 0.183050 0.484888 -0.390178 -0.342631 -0.205064 0.910227 -0.102437 -0.124915 -0.216186 -0.074309 -0.617537 0.192978 -0.039634 -0.689583 -0.028089 0.237410 0.439919 0.530554 0.984722 -0.127210 0.725058 -0.182266 -0.736160 0.162900 0.223444 0.556744 -0.221400 0.236600 -0.568646 0.409297 0.253371 0.080696 0.119403 -0.104705 0.722289 -0.724428 -0.019026 -0.780430 0.185525 -0.105314 0.301574 -0.437145 0.063216 0.132036 0.575053 0.090866 -0.148077 0.540086 0.326671 -0.758778 0.238785 -0.230794 0.711533 -0.532243 -0.038138 -0.083896 -0.100300 -0.250049 1.073428 0.286504 -0.225517 0.324194 0.591967 0.511586 0.057618
8703 -0.232208 -0.958720 -0.626152 0.162000 -0.625941 1.251161 0.147174 -0.733432 1.217440 0.334659 0.708990 0.880487 0.493415 -0.422430 0.772661 -0.354162 -0.781422 0.215953 2.051245 -0.024098 -0.091372 -0.030969 -0.644589 -0.580562 0.860853 -0.447815 -0.735735 -1.206847 0.627369 0.935847 -0.381511 0.404072 -0.855450 0.309031 1.697387 -0.803376 -0.392576 -0.055463 0.453527 0.622204 0.502198 -0.327382 0.971747 1.951900 -0.831855 0.960613 -0.428734 0.593726 -0.148522 0.656124 -0.077730 0.278301 -1.040842 -0.012212 -0.759206 0.266519 -0.287829 0.566824 0.834372 -0.870331 0.129042 0.014441 -1.090378 0.037531 -1.000890 0.525600 -1.126806 0.356821 0.584637 0.605195 0.191880 0.267988 -1.167740 -1.627996 -1.004323 -0.027404 0.082649 0.679017 0.499197 -0.486733 0.817222 -0.336222 -0.045961 -0.387572 0.367894 0.285355 1.418968 0.088974 1.501476 -0.787798 1.104537 0.128916 -0.180803 -0.289119 0.248620 -0.139074 1.061464 -0.974114 0.714484 1.202171
1688 -0.439739 -0.731344 -0.149462 0.517998 0.266889 0.176788 0.840627 -0.020559 -0.237223 0.173806 0.484220 -0.193157 0.148936 -0.498718 0.705133 -0.741991 -0.601946 -0.407266 -0.328247 -1.552650 -0.861255 1.252937 0.006472 -0.795626 1.228420 0.069675 -0.455172 0.500919 -0.386279 -0.378289 -0.237484 0.583873 -0.628963 -0.639258 0.486866 0.212660 -0.542763 0.384097 1.044635 1.056677 1.060047 -0.444851 1.248042 0.247973 -0.579251 0.302888 -0.525293 0.127181 0.273183 -0.036533 0.532071 1.063279 1.025244 -0.607834 0.167251 -0.038983 -0.825700 0.265506 0.554799 -0.019352 -0.298621 1.076007 -0.415012 -1.277526 -0.752501 1.821646 -0.804455 0.244583 0.292397 1.969993 -0.411101 0.168876 -0.200668 -0.091045 -0.790885 0.024185 -1.186583 -0.809210 -0.641342 0.009537 -1.003597 -1.351205 -1.138732 0.852581 -0.318448 -1.356870 0.051090 0.718865 -0.402941 -1.083031 0.457840 0.736224 -0.231430 -0.956676 -0.265209 0.591614 -0.241071 0.379853 -0.343971 -0.843870
3191 -0.654040 -1.054634 -0.600726 1.296825 -0.066727 0.205930 0.655360 -0.720142 -0.159422 0.399636 -1.718453 -0.133516 2.466525 -0.702039 0.923202 -0.210035 0.273715 0.209173 1.406724 -1.743839 -0.400671 -0.046162 -1.428980 -0.346555 -0.849881 -0.215619 -1.174121 0.409245 0.846476 0.101056 0.120588 -0.286089 -1.344340 0.482145 -0.608293 -1.537596 0.113801 -0.022547 -0.605841 -0.792663 -0.398999 0.176771 0.916794 0.799020 -1.600722 -0.233628 0.628160 0.493598 -0.618035 0.283237 -0.477327 0.981673 0.663480 -0.279235 0.061943 0.625223 0.275881 -0.475968 0.750833 0.116137 0.398742 1.556529 0.125849 0.164586 -0.049477 0.470541 -0.625735 -0.963405 0.323086 -0.040845 1.096671 0.343906 0.810894 -0.928770 -0.390540 0.046186 -0.289071 0.172788 -1.499574 0.570554 0.478635 -0.626233 0.853487 0.813684 -0.209472 -0.098012 -0.440856 0.712844 0.017887 0.334605 0.227305 -0.308938 0.328912 0.605384 0.494169 -0.341913 0.581947 0.135737 0.417780 0.606767
230879 -0.866574 -0.664277 -0.533892 -0.248952 -0.280106 0.734766 0.066870 -1.818077 1.338868 0.308101 -0.887110 -0.924065 1.499381 -0.611300 -0.019344 0.165018 -1.121408 1.064630 0.526167 -2.005015 0.463879 0.096496 -1.812928 1.285386 -1.113785 0.095403 -1.549876 1.637092 -0.538371 0.831811 -0.386452 0.378097 -1.216749 -0.324301 -1.034739 -1.434381 -0.294406 -0.030782 -0.367526 0.176424 1.003111 -0.678080 2.053103 -0.417144 0.531068 -0.682318 -0.715839 0.664434 -1.892183 0.983731 0.087963 0.524595 -1.261954 1.545267 0.041406 2.033237 -0.318040 0.222211 0.440558 -0.302609 0.334762 -0.807756 -1.189155 -0.459855 -0.553325 0.161028 -0.014302 0.609626 -0.245915 1.591629 0.037424 -0.089961 -0.644830 -0.479130 0.106704 -0.259233 -1.260731 -0.063553 -0.169556 0.371760 0.490662 0.524129 0.142600 1.069761 0.313713 0.176945 0.765558 0.827434 -0.175867 0.077490 -1.515352 -0.524804 -0.275279 1.500643 -0.116898 1.018698 0.078502 1.870869 -0.132037 0.158950
1152150 -0.625078 -0.963781 -0.869747 0.346594 -0.129686 0.841058 -0.428296 -0.365947 -0.096446 0.780397 -1.054722 -0.051302 1.100944 -0.421506 0.476441 0.028036 -0.066773 0.697797 1.099317 -0.761990 -0.263427 -0.531067 -0.400133 -0.249271 -0.652960 -0.120786 -0.104946 0.057182 0.535250 1.038859 0.022128 0.059223 -0.392006 -0.007627 -0.007985 -1.061233 -0.275783 -0.417721 0.102253 0.163234 -0.409611 0.626640 0.708615 1.515922 -1.153974 0.023751 0.178392 0.687424 -0.274297 -0.643434 -0.558992 0.127408 -0.457923 -0.314863 -0.485838 -0.139040 -0.033097 -0.253855 -0.059959 0.768851 -0.276911 1.097396 -0.668524 0.075706 0.049684 -0.855511 -1.431292 -0.086920 0.003222 0.252494 0.397612 -0.163833 -0.537148 -1.273011 -0.834613 -0.249324 0.549266 0.127854 -0.444152 -0.683485 0.276778 -0.025263 0.243056 0.399859 -0.025783 -0.404134 0.284670 -0.121092 0.152879 -0.153603 -0.005363 -0.163338 0.016178 0.226681 0.472074 0.604192 -0.318273 -1.091368 0.596500 0.443666
1154459 -0.933858 -1.435483 -1.012162 1.174383 0.333960 1.697467 0.631565 -0.105617 -0.391080 0.578497 -0.475440 -0.263757 1.011853 -0.243117 0.567991 -0.319706 0.249004 -0.305770 0.476357 -1.046032 0.144801 1.092328 0.443847 -1.198766 0.023178 -0.932246 -0.862890 1.178645 0.205602 0.100251 0.372917 0.167653 -0.679838 0.391950 0.684411 0.446581 -0.297552 -0.025921 0.819439 0.833124 0.500509 0.728771 0.443249 1.172711 -0.465000 0.517087 0.051503 0.556583 0.313328 -0.451057 -0.422303 0.777960 0.581438 -0.574213 0.076742 -0.996430 -0.865648 -0.145284 0.556239 -0.237017 -1.073000 1.399218 0.210266 -1.003989 -0.869943 0.994600 -1.095519 0.338604 -0.030453 1.309870 -0.335582 -0.215705 -1.160996 -0.382839 -1.130651 0.025295 -0.983470 -0.640508 -0.441589 -0.595683 0.024892 -0.592497 -0.465227 1.078411 -0.963984 -0.942567 -0.194354 1.007137 -0.112013 -0.791849 0.083191 -0.237883 0.111410 0.274303 -0.922749 0.129682 -0.056252 -0.309974 0.147010 -0.080969
648112 -0.175363 -0.848124 -0.294550 -0.573699 0.241627 0.858036 -0.579206 -0.583800 0.597625 -0.359272 -0.253716 -0.084815 0.604094 -0.154757 0.049417 0.408440 -0.371787 1.284573 0.199977 -0.159091 -0.022278 -0.074280 -0.791123 0.534128 -0.122487 -0.320029 -0.987911 0.299276 0.025009 0.618530 -1.130310 0.232665 -0.037015 -0.138709 -0.566347 -0.979917 -0.646365 -0.356828 0.203444 0.039505 -0.351340 0.119667 1.209789 0.956075 -0.019619 0.197396 -0.351290 0.544575 -1.089798 -0.525819 -0.095725 0.620187 -1.134667 0.076721 -0.323556 0.373703 -0.472118 0.095105 -0.648993 0.133119 -0.432006 0.216424 -1.582597 0.025116 0.159794 -0.230392 -0.422398 0.233522 0.012848 -0.310875 -0.093460 -0.199283 -0.727694 -0.657292 -0.173565 -0.102023 0.380813 0.004977 -0.516038 -0.634842 0.457581 0.110395 -0.269600 -0.171069 0.491640 -0.984025 0.292287 0.605290 0.023790 0.172716 -0.159727 0.020450 0.262746 0.819925 0.427280 1.227985 -0.124023 -0.747706 -0.025484 -0.399665
22386 -0.452381 -0.821912 0.736971 0.678478 0.624502 0.851327 1.113926 -1.239807 1.503272 -0.541991 0.828691 0.118749 0.073986 -0.008861 -0.263367 -0.512151 -1.119210 0.176195 0.188275 -1.136848 -0.170919 0.714719 -0.977223 -0.333472 0.163441 -0.034389 -1.871727 -0.119776 0.429814 0.686117 -1.583114 0.039254 -1.794177 -0.100125 0.580831 -0.309536 -0.564435 -0.556096 0.714756 0.738991 0.452159 -1.256613 1.252626 1.663383 0.216011 0.064729 -0.589525 0.412589 -0.624817 0.308372 0.041553 1.627602 -0.818827 0.402178 0.021922 1.472189 -0.118355 0.388531 1.161973 -0.828016 0.125695 -0.504161 0.019226 -0.824754 -1.334705 1.464164 -0.040018 0.140255 1.994316 -0.146746 -0.481150 0.516755 -0.829603 0.188226 -0.055476 -0.173247 -0.848339 -0.165231 -0.206588 0.796919 1.344029 -0.762121 0.799489 -0.335554 0.877422 -0.109331 1.173957 0.437763 1.233844 -0.740003 0.463452 0.513033 -0.004202 -1.363194 0.048940 0.274948 1.186657 -0.337705 0.466591 0.706060
160705 -0.205582 -1.313198 -0.125636 -0.454557 1.198240 0.781445 0.038105 -0.495198 1.381868 -1.142560 -0.322276 -0.523404 0.623621 -0.256510 0.013238 0.011138 -0.564820 1.875795 -0.570062 -0.924812 -0.023736 0.468430 -1.343230 0.883453 0.119013 -0.663085 -2.088959 1.024395 0.373590 0.108842 -2.007483 -0.053163 -0.835299 0.206108 -1.157551 -1.300010 0.041646 -0.299359 -0.045185 -0.559524 0.257410 -0.449295 1.009832 0.690081 0.521359 0.569595 -0.479666 0.672967 -2.213728 0.281065 -0.007890 1.620553 -0.857686 1.332578 -0.248968 1.196071 -0.316288 -0.539019 -0.530017 -0.094841 -0.423059 -0.646988 -1.662919 -0.279284 0.801995 0.859888 0.058854 0.172871 0.949949 -0.511676 -0.574090 0.230115 -1.239413 -0.295889 0.220378 0.071224 0.086812 -0.610135 -0.533764 0.575508 1.144583 0.048081 0.050097 0.049262 0.958351 -0.701005 0.331654 1.773456 -0.581895 0.041941 -0.491071 0.297280 0.561599 1.638875 0.357389 1.322222 0.743394 0.036498 -0.287059 -0.004192
1956 -0.165385 -0.655309 0.625490 0.440533 0.353520 0.645960 1.024496 -0.517121 0.979518 -0.287425 1.227097 0.450608 0.266517 -0.335928 0.366151 -0.758378 -0.931935 0.086804 0.423272 -0.616649 0.066878 0.590411 -0.230916 -0.589104 1.050408 -0.101870 -1.028297 -0.650803 0.422188 0.400583 -1.299019 0.291290 -0.993705 0.085169 1.485644 -0.043691 -0.775327 0.229231 0.888837 0.555817 -0.283477 -1.063732 0.499027 1.791928 -0.299204 0.449864 -0.832233 0.538982 0.171264 0.266177 -0.001054 1.268793 -0.347175 -0.583803 -0.265528 0.586824 -0.268059 0.661290 0.641338 -0.716272 -0.369312 0.029223 -0.300313 -0.277648 -1.136894 1.633109 -0.784549 -0.136966 1.110643 -0.063805 -0.080085 0.379848 -0.366229 -0.438631 -0.757428 -0.489354 -0.061132 -0.224948 -0.091666 -0.395656 0.701155 -0.639135 0.052393 -0.268864 0.576799 -0.474934 1.195141 -0.145612 0.805184 -1.036610 0.761951 0.596701 0.160611 -1.526668 0.287963 0.596312 0.727783 -0.742762 -0.156178 0.333663
85352 -0.976711 -1.233034 -0.474649 0.980597 0.399392 0.912077 1.001320 0.148761 -0.357074 0.225345 -0.091358 -0.319713 0.639043 -0.430663 0.727939 -0.839906 -0.288216 -0.389671 -0.010803 -1.606828 -0.359557 1.342307 -0.189514 -1.094694 0.738655 -0.345163 -1.222230 0.927015 -0.001032 -0.306620 0.026612 0.412834 -0.860650 -0.088468 0.219468 0.362508 -0.305917 0.186483 0.885791 0.576222 0.757249 0.165744 0.804441 0.220712 -0.178009 0.418100 -0.461202 0.056119 0.210204 -0.113606 0.355240 1.419121 1.116745 -0.553163 0.192600 -0.650124 -0.811405 -0.038047 0.518293 -0.145820 -0.547184 1.471295 0.101681 -1.314987 -0.457095 1.950567 -0.589371 0.137706 0.110110 1.466665 -0.468200 -0.077995 -0.663363 -0.024509 -0.954127 0.264673 -1.307463 -1.008253 -0.885419 -0.201572 -0.781207 -0.994981 -0.660855 1.151692 -0.871439 -1.369790 -0.225161 1.262684 -0.460005 -0.991230 0.205164 0.308911 0.002717 -0.320065 -0.604072 0.545112 -0.088436 0.317640 -0.213093 -0.628330
16008 -0.450160 -0.774781 -0.538068 0.319358 -0.162964 0.218095 1.142135 -0.716186 0.153203 0.572589 -1.241758 -0.099563 1.891836 -0.449226 0.424056 -0.468629 -0.092043 0.073700 1.023080 -1.813271 -0.828184 0.169117 -1.667314 -0.610077 -1.014028 -0.164869 -1.658111 0.089485 1.242770 -0.027992 -0.181512 -0.152578 -1.122980 0.638518 -0.678959 -0.953988 0.580706 -0.529674 -0.421912 -0.823177 0.168148 -0.268675 0.339469 -0.011651 -0.766127 -0.094287 0.694652 0.132930 -0.745448 0.386595 -0.338254 0.276534 0.886950 0.236910 -0.078294 0.707465 -0.060387 -0.630836 0.167710 0.367771 0.452816 0.483512 0.852052 0.065635 0.276583 0.418083 -0.172906 -0.453013 0.493797 -0.506357 0.348534 0.518606 -0.355309 -0.794872 -0.137190 0.589083 -0.618143 0.017621 -1.014066 0.760498 -0.014344 -1.093483 1.069367 0.717470 -0.458687 0.535303 0.245467 1.526716 0.322718 0.302508 0.137935 -0.119622 0.272199 0.655755 0.204040 -0.943789 1.217004 0.898285 0.838286 1.396704
643221 -1.116738 -1.152483 -0.510223 0.668987 -0.280017 -0.868955 0.829243 -0.341704 -0.395344 0.897687 -1.774937 -0.400840 1.754484 -1.236288 0.650563 -0.797615 -0.632926 -0.401540 0.735658 -3.035626 -1.527352 0.393498 -2.050380 -0.247566 -0.650016 0.146349 -0.654684 0.272255 0.468210 -0.681253 1.241951 -0.001066 -1.873907 -0.095939 -1.007525 -1.834667 1.135996 -0.114417 -0.200754 0.035798 1.441647 -0.334649 1.412664 -0.303146 -1.290786 -0.472075 0.287928 -0.293158 -0.214767 0.877622 0.298901 0.707715 1.136953 0.720200 -0.061801 0.942915 -0.052845 -0.496409 1.361996 0.702557 0.872490 0.651635 0.399349 -0.468388 0.996987 0.755048 0.325062 0.287738 0.188624 1.458748 0.063713 0.265493 0.206714 -0.210007 -0.331701 0.471557 -0.726367 0.130851 -0.511828 1.305355 -0.526807 -1.664334 0.538831 1.850566 -1.072160 0.011518 -0.215799 1.652410 -1.306802 -0.483386 0.179797 -0.526299 -0.066266 0.845795 -0.375969 -0.344791 -0.233298 0.733759 0.189137 0.311710
1129572 -0.451853 -0.257949 -0.838114 -0.227669 0.482302 1.066156 0.161623 0.121456 0.711652 -0.398909 0.169670 -0.372079 -0.129619 -0.677288 -0.276336 -0.479145 -0.529719 0.001650 -0.772443 -0.138300 0.243651 0.502038 -0.230972 -0.176756 0.139052 -0.817005 -1.323717 0.140866 -0.006367 -0.287427 0.199979 -0.300348 -0.873192 0.634456 -0.078513 0.834910 0.453359 -0.183860 0.082543 -0.001591 0.868698 -0.122882 -0.755182 -0.096695 0.495381 -0.219313 0.115986 -0.216063 -0.565895 -0.065429 0.334578 0.881937 0.635751 0.693330 -0.101295 -0.049907 -0.973263 -0.579934 0.091791 -0.558613 0.020610 -0.404749 0.329209 -0.410929 0.295655 0.905223 0.216896 0.605295 -0.546378 0.416162 -1.338260 -0.056247 -1.643421 0.227873 -0.664239 0.536563 -0.439166 -0.037002 0.467976 0.026404 0.050154 -0.146991 0.104841 0.238851 -1.252574 -0.324297 -0.000060 1.499221 -0.379663 -0.428365 0.174069 -0.336650 0.221771 1.453872 -0.225812 -0.365678 0.432974 0.489767 0.127329 -0.204454
3243 -0.482100 -0.852470 -1.786090 -0.445416 -0.337968 1.567693 -0.393212 0.135731 0.474357 0.852065 0.091644 0.025221 0.178099 -0.551571 0.496184 -0.446442 -0.592550 -0.614068 0.999571 0.309484 -0.905942 -0.043851 -0.291567 -0.318615 1.450769 -1.102017 -0.101752 -0.513821 -0.213900 -0.049840 0.803303 0.247012 0.117921 -0.296862 1.039549 0.437783 -0.696552 -0.307189 0.345326 0.787332 0.880062 -0.166832 0.718036 1.130644 -0.890884 0.667690 0.081819 0.604908 0.553470 -0.553367 0.395099 -0.428340 -0.008880 -0.209091 -0.384101 -0.290531 -0.835865 0.249267 0.552466 -0.345967 -0.226797 0.971137 -0.613407 0.002720 -0.113517 0.469557 -1.219645 0.111412 -0.682772 0.761535 -0.282114 0.173041 -1.343546 -1.156487 -1.005411 0.274022 0.452524 0.116083 -0.135305 -1.064255 -0.130251 -0.304662 -0.649880 0.157903 -1.125190 -0.887896 0.398376 0.840030 0.078720 -0.546129 0.321971 -0.355480 -0.669200 0.767789 -0.138446 0.180251 0.177466 0.085311 1.366475 0.074168
1127913 -0.476855 -0.624316 -1.134501 0.045630 -0.434358 0.897503 0.524025 0.115639 0.688746 0.116177 0.002674 -0.374284 -0.541376 -0.296001 0.121949 -0.860460 -0.561427 -0.779277 -0.105919 -0.871484 -0.456956 1.103370 0.045573 -0.641968 1.091093 -0.730898 -0.599252 0.378772 -0.207734 -0.181205 0.470478 0.155858 -0.063743 -0.420509 0.667763 1.507254 -0.219905 0.006948 0.797401 0.372295 1.434626 -0.019431 0.645731 -0.115193 0.078709 0.243713 -0.400428 0.556208 0.199007 -0.271179 0.327367 0.261050 0.571174 0.311402 0.202311 -0.304254 -0.805284 0.171156 0.233580 -0.226523 -0.179044 0.438516 0.411188 -1.158888 -0.448670 1.139411 -0.307498 0.371185 -0.134762 1.425738 -0.928136 0.175869 -1.769696 -0.400405 -0.824970 0.458471 -0.996561 -0.526745 -0.342473 -0.275728 -0.723282 -0.201535 -0.169345 0.511514 -1.046332 -0.729913 0.233004 1.036446 -0.289054 -0.658806 -0.131791 -0.103400 -0.425771 -0.291582 -0.470505 0.194815 0.684557 0.773077 0.842931 -0.003244
6898 -0.613242 -1.265505 -1.978898 0.497421 -0.178040 0.262338 -0.738034 -0.614807 0.234692 0.297547 -1.886958 -0.212676 1.227325 -0.548198 0.260684 0.357320 0.342784 0.063771 0.813389 -0.976006 -0.184075 0.346774 -0.800056 0.531542 0.155731 -0.496345 -0.163426 0.692618 -0.458259 0.004618 1.049208 -0.781677 -0.784753 -0.086794 -0.277583 -1.082436 0.132479 0.228217 -0.821009 -0.269763 0.350386 0.311872 1.662143 0.303945 -1.243498 -0.190801 0.259279 0.474792 -0.883775 0.310711 -0.310634 0.282722 -0.111709 0.836970 0.473018 0.673262 -0.343333 -0.510714 0.800748 0.050517 0.319469 1.255498 -0.532745 -0.113567 0.409717 -0.181533 -0.347271 -0.000306 -0.308173 1.186372 0.090124 0.013993 -0.678654 -1.184411 -0.016695 -0.026160 -0.306470 0.314240 -0.714725 0.476608 0.893503 0.803475 0.077670 0.864051 -0.233254 -0.626176 -1.027153 1.028676 -0.544208 0.142453 -0.678957 -1.013626 -0.295511 1.667809 0.036980 -0.241782 -0.154647 0.499287 0.750703 0.161042
54129 -0.579709 -1.217987 -0.364311 0.810317 0.414432 0.750396 1.102072 -0.105513 -0.263755 -0.169489 0.632402 0.189067 0.434744 -0.442835 1.114769 -1.340612 -0.434442 -0.234434 -0.207207 -1.347514 -0.441668 1.381958 -0.410307 -1.136005 1.481531 -0.744106 -1.347026 0.579589 0.181928 -0.380548 -0.282203 0.533115 -0.283234 0.148334 0.226495 0.532018 -0.390173 0.310661 0.821355 0.433420 0.555061 -0.062929 0.636127 0.332933 -0.612114 0.758201 -0.631439 0.160790 0.203822 -0.127760 0.484708 1.388955 0.863877 -0.726620 0.038198 -0.624219 -0.647105 0.047129 0.225128 -0.262916 -0.445698 0.796596 -0.106825 -1.173409 -0.449717 1.798751 -0.566318 -0.069912 -0.037571 1.143323 -0.673173 -0.159816 -0.767333 -0.281507 -1.220664 0.290119 -1.039288 -1.130247 -0.849293 -0.583698 -0.474108 -1.279210 -0.569360 0.838847 -1.015672 -1.395063 0.171929 1.168310 -0.486368 -1.052106 0.907520 0.481934 0.226923 -0.511338 -0.269772 0.598546 0.156945 0.110121 -0.078495 -0.404114
46491 -0.530700 -1.175367 -1.763480 -0.277429 -0.041106 2.166658 -0.425411 -0.309741 0.821666 0.893805 -0.020685 0.105409 0.384263 -0.366727 0.373760 -0.147058 -0.589204 -0.219831 1.527459 0.512522 -0.539082 -0.198852 -0.359620 0.058595 1.308856 -0.765697 -0.561295 -0.333177 0.212317 0.271592 0.179936 0.219762 -0.424003 0.029518 1.179363 -0.278136 -0.863842 -0.386922 0.176282 0.733818 0.590237 -0.246143 0.963184 1.911760 -1.133180 0.931324 0.111744 0.727566 -0.074327 -0.232074 0.267045 -0.198663 -0.566202 0.163136 -0.217477 0.018089 -0.952126 0.185323 0.755035 -0.766561 -0.615097 0.998543 -1.317182 0.528881 -0.683202 0.324635 -1.766010 0.252835 -0.417838 0.286739 -0.316745 0.338497 -1.875469 -1.378852 -0.871469 0.141309 0.703240 0.466227 0.093830 -0.851435 0.798612 -0.154940 -0.797465 -0.223718 -0.398950 -0.674068 0.571422 1.120077 0.697539 -0.507194 -0.089449 -0.356232 -0.413511 1.195901 -0.044441 0.130156 0.607872 0.010335 1.369379 0.280127
1481 -0.076612 -0.182745 0.065014 -0.167312 -0.404639 0.675649 0.640279 -1.165659 1.583078 0.513104 0.426289 0.012324 -0.035936 0.089561 -0.373380 -0.218236 -0.864232 -0.201622 0.619670 -0.592036 -0.556722 0.392686 -0.775201 -0.446882 0.011441 0.528020 -0.478681 -0.363430 0.076606 0.703597 -0.963632 0.207338 -1.105896 -0.797341 1.044353 -0.311813 -0.238688 -0.804428 0.553551 0.995765 1.350532 -1.029773 1.439548 1.265033 -0.161599 0.111153 -0.335232 0.593170 -0.246804 0.962808 0.022112 0.476253 -1.034621 1.012594 -0.088755 1.519777 -0.371017 0.463941 0.963773 0.089185 0.230453 -0.376855 0.065215 -0.289265 -1.044421 0.555076 -0.630990 0.736705 1.432618 0.271925 -0.497772 0.426005 -1.231757 -0.486056 0.383230 -0.072724 -0.525058 0.252834 0.351451 0.840696 0.496135 -0.130645 0.150105 -0.375037 1.249718 0.759682 0.903084 -0.160937 1.471665 -0.701132 -0.396110 0.075017 -0.623376 -1.101560 0.180313 -0.049573 1.192988 0.373768 0.517246 1.343741
3218 0.025270 -0.859794 -1.781091 -0.127898 -0.466845 1.252381 -0.000690 -0.217853 1.291721 0.478738 0.217005 0.331448 0.353028 -0.211566 0.530211 -0.171651 -0.508404 -0.367483 1.551939 -0.002647 -0.572267 0.374296 -0.687635 0.132289 1.665033 -0.747412 -0.676751 -0.924679 -0.526556 0.440515 0.346670 0.005056 0.037962 -0.536037 1.478877 -0.204725 -0.755532 0.149370 0.312264 0.601960 0.571913 -0.718153 1.806054 1.256203 -1.144304 0.822743 -0.308156 0.799169 0.181637 0.398402 0.026405 -0.071404 -0.668149 0.078358 -0.162627 0.337947 -0.749330 0.741787 0.769152 -0.863312 -0.091848 0.753602 -1.076737 0.459313 -0.825258 0.468858 -1.299854 0.285099 -0.025969 0.971704 -0.050734 0.418706 -1.295603 -1.825418 -0.781040 -0.183168 -0.028354 0.692524 -0.245624 -0.631055 0.531454 0.429483 -0.526671 -0.062226 0.048380 -0.547449 0.390121 0.616711 1.117813 -0.683401 0.343058 -0.553959 -0.568535 0.755619 0.284462 0.484240 0.649641 0.029209 0.960305 0.578300
1114777 -0.171355 -0.346704 0.172236 -0.124571 0.085909 0.290661 0.858629 -1.163677 1.577137 0.049988 0.758226 0.032120 -0.420593 -0.387496 -0.221621 -0.733617 -1.040884 -0.096734 0.174667 -1.041155 -0.527074 0.506167 -0.909247 -0.500290 0.231477 0.413509 -0.905336 -0.373404 0.486949 0.428887 -1.062204 -0.152352 -1.640098 -0.318515 0.842823 -0.398414 0.120802 -0.592821 0.331489 0.548155 1.205399 -1.256131 0.809983 1.095186 0.188638 -0.175621 -0.437714 0.187688 -0.605653 0.785645 0.383594 0.737732 -0.486432 1.197288 -0.087462 1.628375 -0.056331 0.144796 0.984565 -0.087956 0.573289 -0.694604 0.557087 -0.674773 -0.772390 1.094402 -0.193765 0.277542 1.608017 0.200005 -0.621484 0.569092 -1.163812 -0.082209 0.517408 -0.073444 -0.777983 -0.064080 0.066292 1.161107 0.835618 -0.190815 0.652669 -0.326408 0.955498 0.698249 1.034395 0.141729 1.472558 -0.740722 0.134720 0.313782 -0.490269 -1.347535 0.220770 -0.539273 1.239285 0.526058 0.669595 1.424307
54131 -0.106680 -1.399373 -0.516315 0.450620 0.000893 0.076767 0.963501 -0.343910 -0.329176 -0.140573 0.570602 0.149327 0.695385 -0.257100 1.098573 -0.823955 -0.243215 -0.564475 -0.114937 -1.471373 -0.751137 1.701975 -0.752256 -0.957568 1.658875 -0.741040 -1.075951 0.808634 -0.090089 -0.576933 -0.391787 0.852560 0.197157 -0.472685 0.340699 0.436507 -0.439015 0.287684 0.718194 0.357786 0.525132 -0.377671 1.514800 -0.095654 -0.876148 0.793846 -0.762606 0.367785 0.186788 0.178407 0.311046 1.027776 0.699924 -0.797716 0.015356 -0.243261 -0.823131 0.646351 0.282170 0.054766 -0.361178 1.025879 -0.486312 -1.133292 -0.433060 1.923198 -0.515763 -0.002223 0.017925 1.062025 -0.374718 -0.074164 -0.484185 -0.509116 -0.883183 0.175601 -1.294662 -0.768833 -1.281217 -0.506106 -0.615810 -1.263056 -0.783062 0.989825 -0.511700 -1.603531 0.125794 1.026107 -0.506771 -0.774606 0.497827 0.293512 0.015993 -0.469381 -0.077772 0.762089 0.293971 0.386233 -0.409593 -0.572341
642894 -1.019608 -0.825613 -0.205727 0.538100 -0.213336 -1.220251 0.811324 -0.374090 -0.069364 0.443107 -1.396295 -0.224678 1.363488 -1.376344 0.575094 -0.568527 -0.795117 -0.408584 0.641923 -2.989876 -1.282079 0.463760 -1.975693 -0.299451 -0.490207 -0.014534 -0.388274 -0.245808 0.235716 -0.409563 1.314410 -0.101015 -1.800588 -0.194017 -0.704387 -1.527507 1.077271 0.052825 -0.298951 0.140059 1.262083 -0.506551 1.493185 -0.426462 -0.897140 -0.833293 0.081649 -0.106328 -0.293811 0.999827 0.173631 0.948949 1.157283 0.636647 -0.133893 0.965709 0.104478 -0.413790 1.319364 0.587518 1.221716 0.479312 0.382674 -0.802114 1.017203 0.932040 0.379515 0.251148 0.331147 1.712542 0.138928 0.316594 0.392678 -0.369749 -0.466519 0.316335 -0.864720 0.292734 -0.503388 0.984299 -0.509090 -1.337129 0.893782 1.623445 -0.846698 0.115467 -0.024188 1.070937 -1.216785 -0.695492 0.484781 -0.279123 -0.238463 0.422625 -0.185825 -0.345580 -0.230949 0.403215 0.178736 0.357020
28491 -1.195695 -0.125131 0.422386 -0.122405 0.242755 0.046523 0.525160 0.235391 -0.401790 0.482557 0.203715 -0.262958 -0.516585 -0.740369 0.271247 -1.846680 -1.854180 -0.001550 -0.257203 -1.458037 -0.685492 -0.168030 -1.039885 0.252473 0.429893 0.732309 -1.272772 -1.001327 0.127026 -0.057982 -0.293022 0.192824 -1.789678 -0.311982 -0.697633 -0.326786 0.315274 0.429178 0.441928 0.254425 0.926413 -1.121492 -0.250663 -0.765426 0.682959 -0.277467 0.017446 -1.484819 -0.325180 0.630334 1.184171 1.352022 1.022590 0.369521 0.089047 0.225606 -0.497003 -0.493666 0.680348 -0.076300 0.529434 0.165226 0.281334 -0.361827 0.897338 0.853800 0.601893 0.519427 -0.297720 0.489166 -1.594706 -0.134265 -0.523579 0.872516 -0.644962 0.321851 -0.008551 -0.610078 0.372186 0.500230 -1.077778 -0.815704 -0.333343 0.579493 -0.443332 -0.899006 0.447061 1.251917 -0.372819 -0.969916 0.441978 -0.002989 0.370920 -0.619323 0.118903 0.128993 -0.473551 0.948103 -0.830997 -0.768597
35797 -0.509109 -0.991179 -1.011389 -0.143341 -0.171342 0.729241 -0.911390 0.032855 0.327495 -0.270635 -0.198019 0.217502 -0.582556 0.102367 -0.302116 0.123184 -0.651766 0.337188 0.384746 0.474319 0.708362 0.973322 0.177254 0.462128 0.844973 -0.111292 0.053498 0.466531 -0.917725 -0.403452 0.621583 -0.460264 -1.163696 0.101135 0.182274 -0.368008 -0.102733 0.520748 -0.091068 0.456031 1.049757 0.042124 1.524193 0.429048 0.060732 0.096017 -0.359291 -0.479408 -0.617059 0.168137 0.673692 0.610499 -0.796342 0.992583 0.705126 0.057409 -1.039107 -0.340570 0.872881 -0.925325 -0.262663 0.290635 -1.004580 -0.398578 0.086266 -0.158611 0.240707 0.977011 -0.298246 1.225018 -1.102811 0.322604 -2.120056 -0.619367 -0.094501 -0.039038 -0.521075 0.312638 0.474939 0.315612 0.981360 0.802218 -1.067546 -0.540166 -0.305266 -1.506128 -0.701166 1.367803 0.195746 -0.459110 -0.278170 -0.594848 0.136455 1.352287 -0.624117 -0.331152 -0.290504 -0.197240 0.336039 -1.151866
137849 -1.174025 -1.379454 -0.836896 1.279938 0.426197 1.132255 0.513624 -1.118722 0.170070 0.416830 -1.832838 -0.583519 2.086545 -0.538395 0.180518 -0.203907 0.186097 0.140431 0.951225 -1.494448 -0.193329 -0.098442 -1.213757 0.011660 -1.294091 -0.418535 -1.716339 1.070565 0.906186 0.376794 0.012258 -0.713830 -1.527490 0.834749 -0.668003 -0.993162 0.185518 -0.393820 -0.592802 -0.525828 -0.047590 0.200098 0.205145 1.044279 -0.923025 -0.261924 0.541953 0.585843 -0.779693 -0.063364 -0.516651 0.917611 0.150439 0.263773 0.089557 0.754209 0.079221 -0.644310 0.815560 -0.014572 -0.059974 0.763576 0.392511 0.098553 -0.317093 0.532777 -0.461620 -0.500616 0.346362 -0.170932 0.251974 -0.084563 -0.158428 -0.128407 -0.202505 0.141897 -0.307447 0.051237 -0.858251 0.765981 1.109977 -0.528151 1.291286 1.046285 -0.627219 0.234407 -0.265073 1.266650 -0.135652 0.335267 -0.497448 -0.609435 0.381197 1.191002 -0.229257 -0.179972 0.641640 0.493410 0.820820 0.772199
626531 0.175729 -0.799046 -0.523505 -0.730673 -0.572416 -0.150367 0.037350 -0.876626 1.088453 -0.131422 -1.000753 0.070771 1.067860 -0.161317 -0.094871 -0.332154 -0.402017 0.222670 0.415306 -0.714401 -0.898103 0.194558 -2.142985 0.129240 -0.229086 0.126641 -1.343874 -0.112794 0.831213 0.000290 -0.563278 -0.447794 -0.540742 0.062992 -0.823345 -0.995359 0.308722 -0.843365 -0.756914 -0.882501 0.227045 -0.299816 1.075919 -0.066380 -1.011480 -0.021296 0.135058 0.062440 -1.276938 0.366377 0.041368 0.294149 -0.561405 1.119669 -0.002782 1.237374 0.326488 -0.488176 -0.339315 0.329210 0.820008 0.037083 -0.007730 0.147736 0.731801 -0.230354 0.514987 -0.681907 0.622816 -1.046532 0.216159 0.604430 -0.577073 -1.048821 0.473056 0.566643 -0.055288 0.140253 -1.046953 0.573937 0.509931 -0.717807 0.782828 -0.477639 -0.113958 0.355780 0.453611 1.287966 0.152539 0.774918 0.111838 -0.163996 -0.097516 0.655922 0.957713 -0.411817 1.257568 0.316348 1.377709 0.801408
1123188 -0.970645 -1.062051 -1.525315 0.611037 0.194041 -0.166984 -0.425340 -0.470921 -0.035986 0.021026 -1.923852 -0.504869 1.054694 -0.993303 0.293823 -0.130054 -0.008220 0.061166 0.217367 -1.515066 -0.349191 0.340813 -0.931139 0.413995 -0.013505 -0.506957 -0.334087 0.744979 -0.288545 -0.397300 1.124648 -0.766740 -1.273015 0.037568 -0.772068 -0.820512 0.411229 0.229432 -0.796138 -0.372996 0.560424 0.202659 0.981208 -0.150649 -0.900830 -0.602277 0.307171 0.313595 -0.936092 0.166909 0.132934 0.817127 0.663732 0.845646 0.466671 0.807775 -0.330794 -0.923977 0.856871 0.214539 0.572927 1.208093 -0.277484 -0.487886 0.706688 0.397194 -0.115524 -0.071378 -0.313127 1.270888 -0.142366 0.029538 -0.369229 -0.534741 -0.324077 0.127463 -0.508663 0.074043 -0.805258 0.756812 0.589996 0.275182 0.517680 1.103265 -0.685467 -0.865639 -0.998349 1.271151 -1.203928 -0.006155 -0.472003 -0.639525 -0.053977 1.571072 -0.019632 -0.216714 -0.332327 0.821832 0.615068 -0.206393
39127 0.449267 -0.810803 -1.907987 -0.577438 -0.645540 0.426422 -0.159231 -0.129861 1.336652 0.642748 -0.239393 -0.090267 0.086748 -0.457642 0.386433 -0.607811 -0.468943 -0.358213 0.890829 -0.096151 -0.526278 0.454816 -0.922279 0.169405 2.440279 0.110341 -0.023460 -0.684349 -0.571303 0.178367 0.074949 -0.510022 -0.249660 -0.809993 1.128715 -0.076792 -0.277020 0.642023 -0.442693 -0.224023 0.713667 -0.601623 1.842837 0.560801 -1.714303 0.405719 -0.768914 0.791038 -0.143639 1.166108 0.265906 -0.023864 -0.417309 0.889521 0.277764 0.883479 -0.180097 0.315948 0.592463 0.136767 0.440940 1.005761 -0.556526 0.493092 -0.002557 0.729894 -1.431847 -0.658928 0.128934 0.903162 0.108138 0.614429 -0.970821 -2.005834 -0.087639 -0.576798 0.256463 0.206477 -0.683393 -0.206640 0.490514 0.955144 -0.574209 -0.094299 0.193123 -0.503435 -0.023467 0.102134 0.435456 -0.635052 -0.301972 -0.575671 -0.883113 0.129518 0.678516 0.418944 0.784803 0.885238 1.084081 0.659401
28350 -1.587558 -0.240812 0.310561 0.753099 0.504855 0.687375 0.429246 -0.284345 0.106943 0.636230 -0.513636 -0.413918 0.516813 -1.015727 0.201665 -1.752657 -1.430127 0.132988 0.510536 -1.171736 -0.881912 -0.693282 -1.095906 -0.105225 -0.563479 0.357148 -1.254095 -0.660169 0.891413 0.335778 0.030930 -0.231564 -1.644571 0.489670 -0.498026 -0.012859 0.243303 -0.742969 0.394066 0.162453 0.691549 -0.403886 -1.096109 0.875192 -0.210516 -0.250744 0.327384 -0.428729 -0.123626 -0.269280 0.347507 1.336670 0.702062 0.054534 -0.628051 0.567966 0.199234 -0.940818 0.418902 0.143266 0.410394 0.174460 0.603914 -0.215194 0.144942 0.554827 -0.276824 -0.124989 0.295485 -0.026063 -0.758360 -0.057953 -0.280675 0.396402 -1.231584 0.624748 0.324149 -0.468753 0.201830 0.340073 -0.202267 -1.552734 1.279844 0.628486 -1.191744 0.115651 1.085897 0.999157 -0.527291 -0.619194 0.571747 0.319459 0.253760 -0.464180 0.201934 0.155626 0.092630 0.367127 0.906780 0.260184
38205 -0.874640 -0.822059 0.152354 0.596877 0.431151 0.411779 0.500584 0.641872 -0.398754 -0.022504 0.528553 0.232910 -0.280852 -0.319440 0.694083 -1.174283 -1.036855 0.314053 -0.093805 -1.112639 -0.252231 0.964661 0.020193 -0.719183 1.327489 0.160235 -0.860719 0.027856 0.102287 -0.573896 -0.065037 0.569994 -1.053282 0.281050 0.143288 0.221145 -0.225106 0.332274 0.787926 0.374191 1.095581 0.009425 0.496010 -0.026305 -0.010480 0.833936 -0.518161 -0.866202 -0.171141 0.178499 0.776963 1.422140 0.956993 -0.011866 0.276681 -0.668863 -0.807958 -0.322250 0.285022 -0.314779 -0.357266 0.448557 -0.716297 -1.062340 -0.135810 1.576876 -0.194576 0.449571 -0.147991 1.406015 -1.077053 0.194082 -1.281760 0.135295 -1.051521 0.684489 -0.642623 -1.450453 0.285525 -0.015948 -0.946325 -1.207823 -1.240167 0.432723 -0.745488 -1.362707 0.326563 1.417297 -0.675445 -1.184608 0.573771 0.785990 0.048491 -0.662221 -0.290421 0.370368 -0.250942 0.260709 -0.472999 -0.805370
1120049 -0.965683 -1.449393 -0.458309 0.465227 0.607590 0.897468 -0.955109 -0.667402 0.187197 -1.133687 -1.040098 -0.141363 0.780703 -1.000690 0.045354 0.000957 -0.718189 0.946343 -0.152338 -0.167033 0.563507 0.149197 -0.702156 0.449775 -0.146053 -0.463073 -0.999150 0.723215 -0.267583 0.401031 0.039531 -0.727308 -1.404449 0.297620 -0.874711 -0.899285 -0.448208 -0.038777 -0.146741 0.248774 0.163861 0.114261 0.761165 1.282494 -0.202243 -0.943174 0.061996 0.289394 -1.046649 -1.132881 0.476558 2.059653 -0.439875 0.230713 0.071012 0.334253 -0.373047 -0.845297 0.574456 -0.248250 -0.000374 1.206588 -0.951811 -0.562965 0.222252 0.655772 0.169745 -0.218457 -0.133384 0.432554 -0.307412 0.017518 -0.351494 -0.037508 -0.529307 -0.202068 0.052635 0.188767 -0.614022 -0.169737 1.264441 -0.315188 0.673989 0.007734 -0.885891 -1.793262 -0.480187 0.830599 -0.769009 -0.028790 0.222571 -0.190588 0.634001 1.065150 -0.147407 0.578260 -0.533585 -1.347018 0.442151 -1.627441
5348 -0.352079 -1.359974 -1.036926 -0.047888 0.552426 1.354212 -0.452676 -0.705488 1.099700 -0.213853 -1.050272 -0.201839 0.980399 -0.247605 -0.218225 0.430993 -0.245277 1.133220 0.019961 -0.317569 0.104698 0.218886 -0.943035 1.033340 0.147667 -0.479214 -1.025540 1.076655 -0.053704 -0.060485 -1.019788 -0.361228 -1.033203 0.099309 -0.856987 -1.497169 0.309902 0.003320 -0.294764 -0.253313 0.817313 -0.137332 1.350132 0.946464 0.011014 0.445037 -0.134208 0.566664 -1.951895 0.633013 -0.155316 1.049287 -1.225828 1.440147 0.152502 1.110080 -0.834174 -0.709553 0.341758 -0.147429 -0.296891 -0.107935 -1.605432 0.429689 0.504135 0.481453 -0.185621 0.784525 0.079571 0.041446 -0.907295 0.048035 -1.700854 -0.644299 0.562096 0.091419 0.348323 0.110186 0.340582 0.807558 1.242789 0.342907 -0.290766 0.411977 0.866456 -0.668331 -0.396849 1.638060 -0.472163 0.169298 -1.387543 -0.436788 0.299866 2.086772 -0.137830 0.510887 0.696271 0.609782 -0.121264 0.211353
6334 0.201250 -0.245071 -1.380217 0.128732 -0.370953 0.339104 0.256879 -0.038279 0.598252 0.523404 0.100767 0.162969 0.183203 -0.201100 0.719365 0.033540 -0.196070 -0.122696 0.809007 -0.206282 -0.703535 0.548487 0.007161 -0.105281 1.246433 0.544546 0.010029 -0.670801 -0.509875 -0.098709 0.066231 0.141056 -0.938306 -0.447037 0.993236 -1.425710 -0.212834 0.706844 0.092551 0.364057 1.313928 -0.489765 2.215992 0.817925 -1.724071 0.496326 -0.268682 0.056626 0.257932 1.056500 0.556833 0.352996 -0.242821 0.322799 0.329954 0.376225 -1.023442 0.270728 1.271589 -0.161723 -0.152045 0.795662 -1.427881 0.456847 -0.485950 0.568342 -1.146795 0.809706 0.321081 1.293344 -0.320754 0.180263 -1.084348 -1.070096 -0.014717 0.096637 -0.212924 0.846458 0.240636 0.781023 0.168185 0.242970 -1.763002 0.167652 0.681156 -0.306811 -1.000009 0.564680 1.090597 -1.117298 -0.246878 -0.056864 -0.605652 0.928983 -0.017840 -0.118998 0.016667 0.503199 -0.271229 0.176237
117 -1.147968 0.210828 0.093770 0.384685 0.345278 0.116891 0.331087 0.291606 0.160373 0.840818 -0.552033 -0.305516 0.225674 -1.040719 0.348061 -1.955614 -1.549367 0.281348 0.496798 -1.326143 -1.368067 -1.066796 -1.188018 -0.051212 -0.189483 0.829864 -0.757490 -1.117842 0.692040 0.150109 0.241277 -0.234003 -1.849244 0.207712 -0.390466 -0.092359 0.440832 -0.597296 0.279349 0.080661 1.295628 -0.632711 -0.640920 0.303977 -0.501713 0.001347 0.377012 -0.676733 -0.322559 0.003385 0.577031 0.991435 0.894564 0.502154 -0.477407 0.812809 0.279919 -1.131615 0.425339 0.459352 0.952490 0.285464 0.246769 -0.267269 0.461284 0.469004 -0.539146 -0.419317 0.196570 0.645465 -0.643291 0.413295 -0.298367 0.007862 -1.098233 0.632687 0.171814 -0.718746 0.324196 0.698785 -0.874657 -1.626816 0.795794 0.354148 -0.922149 0.261146 1.039158 0.674805 -0.355547 -0.777915 0.662190 0.629464 0.002753 -0.883924 0.735000 -0.134942 0.166503 0.694560 0.883763 0.544136
59626 0.140968 -0.589030 -0.974852 -0.363309 -0.354266 -1.135264 -0.319748 0.121271 -0.193434 0.494877 -0.322472 0.758455 0.759626 -1.339836 1.199242 0.035627 -0.446230 0.756128 1.578556 -0.977195 -0.795284 0.070337 -0.819141 0.078969 0.355252 0.167649 0.344363 -1.110905 -0.091172 -0.237894 0.517910 0.189658 -1.087730 0.065418 0.681296 -2.019555 0.421794 0.583114 0.032800 0.134350 1.072190 -0.220311 1.738621 0.676826 -1.648068 0.387678 -0.055604 -0.448419 -0.584793 0.896355 0.142308 0.134344 0.484747 0.326018 -0.408493 0.609370 -0.602368 -0.149166 0.869097 0.098476 0.495807 0.787633 -1.906651 0.066023 0.512918 0.430687 -0.808029 0.478399 0.045305 1.978661 0.383479 0.370646 -0.578609 -1.588469 -0.519518 0.024552 -0.224255 0.566257 0.568268 0.445840 -0.276239 -0.273053 -1.350357 0.703995 0.606559 -0.109164 -0.244997 0.525199 0.213511 -1.003358 0.826968 0.088394 -0.304240 0.932697 0.532414 -0.237649 -0.325583 -0.167370 -0.875087 0.461233
1153943 -0.658347 -1.254856 -0.398029 0.553417 0.343574 0.210219 0.794758 -0.168595 -0.319311 -0.093760 0.035332 -0.148101 0.527409 -0.266818 0.665359 -0.807299 -0.411827 -0.346916 -0.491952 -1.701658 -0.410646 1.301768 -0.486762 -0.758996 1.266344 -0.409985 -0.720340 0.821604 -0.251058 -0.419533 -0.079971 0.530307 -0.413168 -0.462884 -0.046290 0.323863 -0.568757 0.322845 0.590976 0.575350 0.503105 -0.183325 1.196586 -0.105418 -0.448304 0.246214 -0.661698 0.303841 0.111292 -0.126372 0.403659 1.161163 0.846976 -0.368875 0.344088 -0.286050 -0.820521 0.045395 0.415659 0.165136 -0.349413 1.168694 -0.219476 -1.416185 -0.258769 1.672423 -0.470242 -0.048529 0.063226 1.401835 -0.382637 0.051880 -0.337466 -0.204662 -0.823465 -0.145231 -1.113407 -1.057240 -1.101005 -0.306785 -0.471260 -1.070501 -0.552098 1.051464 -0.688924 -1.828498 -0.040719 0.983962 -0.964177 -0.800057 0.270334 0.303132 0.069239 -0.525037 -0.357794 0.774089 -0.346672 0.219067 -0.211014 -0.911907
17476 -0.798480 0.281762 0.528300 0.140145 -0.195947 -0.038778 0.342121 0.248926 0.203231 0.756579 0.100118 0.129073 -0.084599 -0.692308 0.332481 -1.565813 -1.485136 0.457926 0.359799 -1.052140 -1.378866 -0.888931 -0.816580 -0.519969 0.263832 0.819781 -0.491293 -1.160855 0.760696 -0.011797 -0.129970 0.088469 -1.307968 0.244433 -0.093219 -0.037021 0.468138 -0.663584 0.409983 -0.268478 1.324352 -0.404431 -0.435530 0.221799 -0.374729 0.431690 0.028932 -0.819682 -0.344775 0.004276 0.431485 0.664097 0.818067 0.514551 -0.485680 0.425184 0.185151 -0.748232 0.103736 0.489599 0.596818 -0.473284 0.097629 -0.299813 0.233422 0.333075 -0.325097 -0.064720 0.219034 0.683680 -0.896191 0.343210 -1.094791 -0.085738 -0.708898 0.976351 -0.035707 -0.927463 0.605124 0.546648 -1.282314 -1.576243 0.376878 0.238570 -0.691258 0.408802 0.925824 0.671092 -0.267304 -0.821193 0.400873 1.023034 -0.444159 -1.314000 0.604953 -0.285432 0.616415 0.646841 0.777555 0.802452
6184 -0.935339 -0.041296 0.385189 0.142178 0.602870 0.812496 -0.447815 -0.162751 0.572716 -0.294374 0.094537 -0.123703 -0.721158 -0.581431 -0.420516 -0.978626 -1.375562 0.790452 -0.201982 0.006667 -0.224574 -0.542947 -0.325056 0.408477 0.262996 0.505314 -0.644299 -0.236645 0.211777 0.057755 -0.546726 -0.282283 -1.371113 0.411026 -0.523864 0.157457 0.063314 -0.462888 0.387178 0.013142 1.032168 -0.191156 -0.583091 0.628299 0.644303 0.052799 -0.135440 -0.656579 -0.873805 -0.505374 0.726889 1.383483 -0.056586 0.694827 -0.202919 0.482285 -0.244482 -0.697369 0.071707 -0.023287 0.098095 -0.318809 -0.669358 -0.512354 0.030504 0.744661 0.139611 0.482668 -0.128829 0.227087 -1.437706 -0.066269 -1.426772 0.781505 -0.448359 0.591536 0.359723 -0.763256 0.789022 0.417290 0.054709 -0.755473 0.399653 -0.112910 -0.437504 -0.563989 0.500164 0.946997 -0.538977 -0.475508 -0.292198 0.645709 0.146563 -0.323229 0.158499 0.338384 0.426099 0.018414 0.210106 -0.629175
621555 0.460557 -0.338395 -1.469519 0.056635 -0.161160 0.122323 -0.149167 -0.249367 0.738242 0.326441 -0.372666 0.191564 0.145271 -0.376763 0.559267 0.172700 0.003571 0.100826 0.513306 -0.176968 -0.254458 0.548346 -0.177427 0.568423 1.478504 0.185768 0.145976 -0.348734 -0.687222 -0.133084 0.112503 -0.114932 -0.654711 -0.338617 0.343316 -1.281479 -0.042572 1.073457 -0.401997 0.097482 1.007177 -0.189508 2.077126 0.354157 -1.211273 0.213460 -0.353550 0.439164 -0.545241 1.089022 0.577020 0.401702 -0.791149 0.592152 0.535064 0.772891 -0.685172 0.076954 0.849247 -0.187727 0.370447 0.691915 -1.508905 0.598890 -0.020117 0.564598 -1.029669 0.512399 0.205022 1.069756 -0.084328 0.146754 -0.776860 -1.425574 0.284978 -0.076641 0.054020 0.688135 -0.114994 0.644736 0.666572 0.972625 -1.004836 0.337877 0.989675 -0.621567 -0.948946 0.243414 0.559230 -0.664940 -0.579698 -0.182894 -0.481559 1.147901 -0.024174 0.059505 -0.008250 0.734196 -0.076511 0.450512
16819 -0.995106 -1.230931 -0.529091 0.737791 -0.337731 -0.511740 1.209979 -0.492580 -0.215732 0.763723 -1.533973 -0.360587 1.863366 -0.924433 0.498226 -0.690321 -0.316788 -0.695228 0.726085 -2.701980 -1.048005 0.751636 -1.876274 -0.673768 -0.615705 -0.064085 -0.884734 0.405217 0.756887 -0.427471 0.934992 -0.000728 -1.564329 -0.002681 -0.680143 -1.389974 0.918100 -0.316886 -0.074175 0.013083 0.830407 -0.308282 0.998289 -0.108799 -1.194931 -0.451448 0.203895 -0.085389 0.066851 0.701159 0.012158 0.490230 1.200207 0.480206 -0.027610 0.569781 0.067947 -0.260752 1.204320 0.500828 0.547739 0.637766 0.976708 -0.498759 0.608774 0.797916 0.239406 0.019535 0.274393 0.917358 0.146291 0.243566 0.340776 -0.209644 -0.343592 0.272104 -0.840500 0.127262 -0.778832 0.991520 -0.260137 -1.566863 0.777752 1.587351 -1.162120 0.196970 -0.074570 1.513145 -0.924795 -0.369440 0.297274 -0.603059 0.154721 0.603570 -0.538205 -0.498072 0.139513 0.536883 0.379779 0.443074
644093 -0.460174 -0.590635 -0.550334 -0.118796 -0.824568 -0.738093 0.769791 -0.274037 -0.389816 1.083709 -1.176198 -0.209441 1.337512 -0.798094 0.514075 -0.485208 -0.386677 -0.559613 0.724624 -2.168943 -1.600102 0.340376 -1.647220 -0.474746 -0.558930 0.078829 -0.318129 -0.091945 0.408691 -0.625444 0.962250 0.385701 -0.798594 -0.369910 -0.505792 -1.007731 0.757424 -0.350244 0.117853 0.133849 1.108794 -0.283379 1.164924 -0.474677 -1.110940 -0.239924 0.409126 -0.249092 0.086273 0.466224 0.205920 -0.134242 1.033008 0.360619 -0.301484 0.657645 -0.307474 -0.072991 0.694389 0.802378 0.615958 0.724759 0.333956 -0.342838 0.677879 0.248106 0.026721 0.340703 0.053298 1.028352 0.184447 0.279735 0.040496 -0.516798 -0.316459 0.445009 -0.674839 0.218790 -0.567107 0.603170 -0.968555 -1.368483 0.127192 1.376389 -0.787485 0.151859 -0.053384 1.182982 -0.674816 -0.280245 0.100747 -0.373396 -0.266296 0.589066 -0.015409 -0.327164 0.059250 0.676413 0.120383 0.395777
74921 -0.144537 -0.722579 0.100721 0.157127 0.101872 -0.807610 0.247369 -0.609005 -0.104894 -0.161495 -1.079768 0.228852 1.403682 -0.628034 0.762972 -0.569412 -0.567757 0.708029 0.422825 -1.442218 -0.681297 -0.020483 -1.714189 0.232501 0.062969 0.417880 -1.138923 -0.223348 0.772340 0.057600 -0.556373 -0.270355 -0.865099 0.286657 -1.193424 -1.657450 0.230873 0.236732 -0.706371 -0.820722 -0.483961 -0.437146 0.755351 -0.103922 -1.020082 -0.313767 -0.050100 -0.149938 -1.163786 0.278189 0.284688 1.082588 0.163121 -0.031197 -0.051570 0.966154 0.505214 -0.574531 -0.195480 0.358887 0.863843 0.665498 -0.594356 0.189065 0.977188 0.310241 0.049364 -0.922027 0.398082 -0.517729 0.604494 0.320654 0.795481 -0.938531 -0.265377 0.233542 0.115499 -0.011513 -1.346589 0.321701 0.277916 -0.889918 0.666725 0.268290 0.080366 -0.626618 0.171921 0.746634 -0.376220 0.265609 0.562226 0.389375 0.416554 0.123998 0.884143 0.092521 0.237997 0.003266 0.309962 0.064344
1131334 -1.085996 -0.550397 -0.343944 0.412869 -0.035856 -0.746825 0.711440 -0.178772 -0.131077 0.701256 -1.348863 -0.372685 0.975630 -1.316274 0.391041 -1.096679 -0.887090 -0.521260 0.404685 -2.364638 -1.423742 -0.005624 -1.617302 -0.091359 -0.264011 0.127387 -0.452909 -0.318088 0.493618 -0.494889 1.160453 -0.273006 -1.695089 0.022732 -0.910494 -1.121615 1.154636 -0.153336 -0.323905 -0.094835 1.314842 -0.465221 0.386649 -0.358071 -0.738838 -0.771594 0.302342 -0.313584 -0.065846 0.516526 0.524476 0.692709 1.159917 0.529992 -0.167434 0.850790 0.115142 -0.717907 1.049348 0.588900 1.070103 0.348605 0.656620 -0.350206 0.997377 0.754804 0.256469 0.069355 0.088022 0.996061 -0.211490 0.209852 0.181619 -0.010676 -0.388662 0.412716 -0.320692 0.177130 -0.304489 1.105457 -0.414646 -1.397964 0.964883 1.440566 -1.153533 0.058412 0.010132 1.220003 -1.201547 -0.475191 0.326941 -0.208519 -0.046962 0.544736 -0.278514 -0.488479 -0.132066 0.847103 0.571617 0.410865
2654 -0.375807 -0.953182 -1.215344 0.172438 -0.120496 0.261971 -0.682324 0.101480 -0.108743 0.450134 -0.445196 0.279512 0.712892 -0.497504 0.514983 0.374007 -0.179891 0.587203 1.220842 -0.386075 0.076927 0.303123 0.134533 0.208896 0.597913 -0.193527 0.163987 -0.295842 -0.743414 -0.021135 0.848683 -0.297313 -1.220430 0.087538 0.938927 -1.330980 -0.180628 0.506287 0.213650 0.727571 0.950216 -0.014103 1.751880 1.247478 -1.446841 0.584035 -0.175828 -0.175183 -0.170027 0.580001 -0.101083 0.461709 -0.235117 0.453853 -0.009818 0.180744 -0.928179 -0.144283 1.023044 -0.630671 -0.438156 0.731774 -1.524140 0.189669 -0.067995 0.196308 -0.592273 0.818709 -0.190769 1.875364 -0.197334 0.131012 -1.164128 -1.113228 -0.452114 -0.150344 0.039658 0.443891 0.939742 0.174093 0.456531 0.356510 -1.496737 0.273456 0.216059 -0.671754 -0.712767 0.930218 0.004228 -1.058189 0.106356 -0.552438 -0.169774 1.243990 -0.202746 -0.026421 -0.699483 -0.493434 -0.596240 -0.156239
31489 -0.725662 -1.292073 -1.318729 0.229861 -0.456679 -0.513529 -0.365659 -0.924672 -0.135250 0.261615 -1.821793 -0.597824 1.177447 -0.553638 0.723672 -0.141351 -0.443961 0.315428 0.081668 -2.161594 -0.814341 0.245281 -1.607213 0.321566 0.095840 -0.109851 -0.142666 0.959700 -0.245789 0.262475 0.258004 0.166846 -0.558304 -0.915936 -1.274136 -1.379922 -0.151202 -0.159590 -0.602505 -0.055428 0.214910 -0.013751 2.048037 -0.490837 -1.065267 -0.703855 -0.120304 0.286001 -1.134425 -0.026501 0.122208 0.371785 0.089258 0.917357 0.232901 1.017185 -0.103288 -0.212603 0.527244 0.975703 0.694957 0.908619 -0.696597 -0.695467 0.770902 -0.320062 -0.351178 -0.153832 -0.367908 1.219301 -0.064760 -0.090982 -0.007818 -0.959274 -0.080435 0.007502 -0.509574 -0.295901 -1.352524 0.406055 -0.079389 0.113525 0.271309 0.897242 -0.132517 -1.150417 -0.375041 0.732490 -0.820449 0.313495 -0.768277 -0.610322 -0.318753 0.598123 0.557352 0.608222 -0.655981 0.770687 0.443775 -0.433573
1127558 -0.301046 -1.295996 -1.306398 0.758599 -0.018033 0.500636 -0.126448 -0.538622 0.323559 0.368585 -1.672223 -0.036590 1.756854 -0.196436 0.430599 -0.021753 0.349247 0.206464 0.804572 -1.136547 -0.404592 0.238892 -1.401265 0.209429 0.034795 -0.206745 -0.974847 0.716785 0.304706 -0.118243 0.185929 -0.743765 -0.680931 0.335043 -0.646613 -1.370406 0.265514 0.132085 -0.999433 -0.774982 -0.010952 0.156997 1.300489 0.235318 -1.313571 0.275030 0.338647 0.344207 -1.261871 0.634334 -0.270555 0.412840 -0.131742 0.707234 0.457395 0.779078 0.230452 -0.675801 0.349628 0.108739 0.372267 1.037553 -0.284382 0.346748 0.463304 0.054630 -0.523343 -0.745656 0.203946 0.127713 0.472223 0.319795 -0.420172 -1.331895 0.393002 0.073698 -0.267299 -0.083138 -1.151262 0.671537 0.924001 0.185759 0.308945 0.547528 0.123283 -0.092423 -0.657704 1.034343 -0.022049 0.515273 -0.336550 -0.467489 -0.008506 1.090584 0.348129 -0.386395 0.701550 0.625145 0.845686 0.847744
1108169 -0.118023 -1.107485 -0.760050 -0.378875 0.334801 1.204332 -0.440800 -0.266185 0.965922 -0.749353 -0.045695 0.324640 0.132315 -0.046556 -0.190261 0.150747 -0.377713 0.831652 0.029872 0.563690 0.538879 0.402994 -0.357896 0.718911 0.657903 -0.119206 -1.036337 0.370167 -0.083798 0.148286 -0.982401 -0.439912 -0.624933 0.263837 -0.205918 -0.968305 -0.226717 0.327496 -0.155207 -0.166832 0.378729 -0.247086 1.034151 0.840622 0.084508 0.257674 -0.326669 -0.070972 -1.238724 0.044130 0.440162 1.007169 -1.181450 0.752391 0.292001 0.360166 -0.807023 -0.375749 0.218475 -0.515231 -0.288785 0.116627 -1.288497 0.329776 0.227900 0.448065 0.135662 0.453270 0.027418 -0.205437 -0.831802 0.064384 -1.604264 -0.484039 0.361316 -0.044831 0.196912 0.227683 0.057982 0.301897 1.229595 0.396875 -0.606006 -0.390774 0.432695 -0.903218 -0.318864 1.160744 0.482681 -0.095295 -0.446034 -0.259277 0.561927 1.293430 -0.109349 0.227663 0.442148 -0.239287 -0.028519 -0.476021
